{"learner":{"attributes":{"best_iteration":"74","best_score":"1.8829263706406036"},"feature_names":[],"feature_types":[],"gradient_booster":{"model":{"gbtree_model_param":{"num_parallel_tree":"1","num_trees":"1650"},"iteration_indptr":[0,22,44,66,88,110,132,154,176,198,220,242,264,286,308,330,352,374,396,418,440,462,484,506,528,550,572,594,616,638,660,682,704,726,748,770,792,814,836,858,880,902,924,946,968,990,1012,1034,1056,1078,1100,1122,1144,1166,1188,1210,1232,1254,1276,1298,1320,1342,1364,1386,1408,1430,1452,1474,1496,1518,1540,1562,1584,1606,1628,1650],"tree_info":[0,1,2,3,4,5,6,7,8,9,10,11,12,13,14,15,16,17,18,19,20,21,0,1,2,3,4,5,6,7,8,9,10,11,12,13,14,15,16,17,18,19,20,21,0,1,2,3,4,5,6,7,8,9,10,11,12,13,14,15,16,17,18,19,20,21,0,1,2,3,4,5,6,7,8,9,10,11,12,13,14,15,16,17,18,19,20,21,0,1,2,3,4,5,6,7,8,9,10,11,12,13,14,15,16,17,18,19,20,21,0,1,2,3,4,5,6,7,8,9,10,11,12,13,14,15,16,17,18,19,20,21,0,1,2,3,4,5,6,7,8,9,10,11,12,13,14,15,16,17,18,19,20,21,0,1,2,3,4,5,6,7,8,9,10,11,12,13,14,15,16,17,18,19,20,21,0,1,2,3,4,5,6,7,8,9,10,11,12,13,14,15,16,17,18,19,20,21,0,1,2,3,4,5,6,7,8,9,10,11,12,13,14,15,16,17,18,19,20,21,0,1,2,3,4,5,6,7,8,9,10,11,12,13,14,15,16,17,18,19,20,21,0,1,2,3,4,5,6,7,8,9,10,11,12,13,14,15,16,17,18,19,20,21,0,1,2,3,4,5,6,7,8,9,10,11,12,13,14,15,16,17,18,19,20,21,0,1,2,3,4,5,6,7,8,9,10,11,12,13,14,15,16,17,18,19,20,21,0,1,2,3,4,5,6,7,8,9,10,11,12,13,14,15,16,17,18,19,20,21,0,1,2,3,4,5,6,7,8,9,10,11,12,13,14,15,16,17,18,19,20,21,0,1,2,3,4,5,6,7,8,9,10,11,12,13,14,15,16,17,18,19,20,21,0,1,2,3,4,5,6,7,8,9,10,11,12,13,14,15,16,17,18,19,20,21,0,1,2,3,4,5,6,7,8,9,10,11,12,13,14,15,16,17,18,19,20,21,0,1,2,3,4,5,6,7,8,9,10,11,12,13,14,15,16,17,18,19,20,21,0,1,2,3,4,5,6,7,8,9,10,11,12,13,14,15,16,17,18,19,20,21,0,1,2,3,4,5,6,7,8,9,10,11,12,13,14,15,16,17,18,19,20,21,0,1,2,3,4,5,6,7,8,9,10,11,12,13,14,15,16,17,18,19,20,21,0,1,2,3,4,5,6,7,8,9,10,11,12,13,14,15,16,17,18,19,20,21,0,1,2,3,4,5,6,7,8,9,10,11,12,13,14,15,16,17,18,19,20,21,0,1,2,3,4,5,6,7,8,9,10,11,12,13,14,15,16,17,18,19,20,21,0,1,2,3,4,5,6,7,8,9,10,11,12,13,14,15,16,17,18,19,20,21,0,1,2,3,4,5,6,7,8,9,10,11,12,13,14,15,16,17,18,19,20,21,0,1,2,3,4,5,6,7,8,9,10,11,12,13,14,15,16,17,18,19,20,21,0,1,2,3,4,5,6,7,8,9,10,11,12,13,14,15,16,17,18,19,20,21,0,1,2,3,4,5,6,7,8,9,10,11,12,13,14,15,16,17,18,19,20,21,0,1,2,3,4,5,6,7,8,9,10,11,12,13,14,15,16,17,18,19,20,21,0,1,2,3,4,5,6,7,8,9,10,11,12,13,14,15,16,17,18,19,20,21,0,1,2,3,4,5,6,7,8,9,10,11,12,13,14,15,16,17,18,19,20,21,0,1,2,3,4,5,6,7,8,9,10,11,12,13,14,15,16,17,18,19,20,21,0,1,2,3,4,5,6,7,8,9,10,11,12,13,14,15,16,17,18,19,20,21,0,1,2,3,4,5,6,7,8,9,10,11,12,13,14,15,16,17,18,19,20,21,0,1,2,3,4,5,6,7,8,9,10,11,12,13,14,15,16,17,18,19,20,21,0,1,2,3,4,5,6,7,8,9,10,11,12,13,14,15,16,17,18,19,20,21,0,1,2,3,4,5,6,7,8,9,10,11,12,13,14,15,16,17,18,19,20,21,0,1,2,3,4,5,6,7,8,9,10,11,12,13,14,15,16,17,18,19,20,21,0,1,2,3,4,5,6,7,8,9,10,11,12,13,14,15,16,17,18,19,20,21,0,1,2,3,4,5,6,7,8,9,10,11,12,13,14,15,16,17,18,19,20,21,0,1,2,3,4,5,6,7,8,9,10,11,12,13,14,15,16,17,18,19,20,21,0,1,2,3,4,5,6,7,8,9,10,11,12,13,14,15,16,17,18,19,20,21,0,1,2,3,4,5,6,7,8,9,10,11,12,13,14,15,16,17,18,19,20,21,0,1,2,3,4,5,6,7,8,9,10,11,12,13,14,15,16,17,18,19,20,21,0,1,2,3,4,5,6,7,8,9,10,11,12,13,14,15,16,17,18,19,20,21,0,1,2,3,4,5,6,7,8,9,10,11,12,13,14,15,16,17,18,19,20,21,0,1,2,3,4,5,6,7,8,9,10,11,12,13,14,15,16,17,18,19,20,21,0,1,2,3,4,5,6,7,8,9,10,11,12,13,14,15,16,17,18,19,20,21,0,1,2,3,4,5,6,7,8,9,10,11,12,13,14,15,16,17,18,19,20,21,0,1,2,3,4,5,6,7,8,9,10,11,12,13,14,15,16,17,18,19,20,21,0,1,2,3,4,5,6,7,8,9,10,11,12,13,14,15,16,17,18,19,20,21,0,1,2,3,4,5,6,7,8,9,10,11,12,13,14,15,16,17,18,19,20,21,0,1,2,3,4,5,6,7,8,9,10,11,12,13,14,15,16,17,18,19,20,21,0,1,2,3,4,5,6,7,8,9,10,11,12,13,14,15,16,17,18,19,20,21,0,1,2,3,4,5,6,7,8,9,10,11,12,13,14,15,16,17,18,19,20,21,0,1,2,3,4,5,6,7,8,9,10,11,12,13,14,15,16,17,18,19,20,21,0,1,2,3,4,5,6,7,8,9,10,11,12,13,14,15,16,17,18,19,20,21,0,1,2,3,4,5,6,7,8,9,10,11,12,13,14,15,16,17,18,19,20,21,0,1,2,3,4,5,6,7,8,9,10,11,12,13,14,15,16,17,18,19,20,21,0,1,2,3,4,5,6,7,8,9,10,11,12,13,14,15,16,17,18,19,20,21,0,1,2,3,4,5,6,7,8,9,10,11,12,13,14,15,16,17,18,19,20,21,0,1,2,3,4,5,6,7,8,9,10,11,12,13,14,15,16,17,18,19,20,21,0,1,2,3,4,5,6,7,8,9,10,11,12,13,14,15,16,17,18,19,20,21,0,1,2,3,4,5,6,7,8,9,10,11,12,13,14,15,16,17,18,19,20,21,0,1,2,3,4,5,6,7,8,9,10,11,12,13,14,15,16,17,18,19,20,21,0,1,2,3,4,5,6,7,8,9,10,11,12,13,14,15,16,17,18,19,20,21,0,1,2,3,4,5,6,7,8,9,10,11,12,13,14,15,16,17,18,19,20,21,0,1,2,3,4,5,6,7,8,9,10,11,12,13,14,15,16,17,18,19,20,21,0,1,2,3,4,5,6,7,8,9,10,11,12,13,14,15,16,17,18,19,20,21,0,1,2,3,4,5,6,7,8,9,10,11,12,13,14,15,16,17,18,19,20,21,0,1,2,3,4,5,6,7,8,9,10,11,12,13,14,15,16,17,18,19,20,21,0,1,2,3,4,5,6,7,8,9,10,11,12,13,14,15,16,17,18,19,20,21],"trees":[{"base_weights":[-4.4767014E-3,-5.4428104E-2,6.640676E0,-9.1449544E-2,7.9801474E0,8.8230807E-1,4.62376E0,1.08815454E-1,-3.4294063E-1,2.6099312E0,4.5835295E0,4.9596842E-2,1.6495599E0,-3.7499234E-1,4.4780084E-1,-1.4988392E-3,1.2126337E0,3.5390232E0,5.959444E-1,-3.8296238E-1,4.793367E-1,-2.7209893E-1,2.3403475E0,4.2736337E-2,-2.1648037E-1,3.5103012E-2,1.7668208E0,2.7030432E0,1.2332819E0,3.346146E-2,8.658167E-1,-2.0883586E-1,-1.1548159E-1,-2.4492235E-1,2.0165284E-1],"categories":[],"categories_nodes":[],"categories_segments":[],"categories_sizes":[],"default_left":[0,0,0,0,0,0,0,0,0,0,0,0,0,0,0,0,0,0,0,0,0,0,0,0,0,0,0,0,0,0,0,0,0,0,0],"id":0,"left_children":[1,3,5,7,9,-1,-1,11,13,-1,-1,15,17,19,21,23,25,27,29,31,-1,33,-1,-1,-1,-1,-1,-1,-1,-1,-1,-1,-1,-1,-1],"loss_changes":[2.9182178E3,2.596251E3,9.667439E2,4.3754822E2,1.15663086E2,0E0,0E0,4.4122107E2,9.777359E1,0E0,0E0,2.768505E2,3.542121E2,4.13844E1,4.8946042E2,1.8750487E2,5.637207E2,1.1450903E2,7.5274284E1,3.0015198E1,0E0,2.272119E1,0E0,0E0,0E0,0E0,0E0,0E0,0E0,0E0,0E0,0E0,0E0,0E0,0E0],"parents":[2147483647,0,0,1,1,2,2,3,3,4,4,7,7,8,8,11,11,12,12,13,13,14,14,15,15,16,16,17,17,18,18,19,19,21,21],"right_children":[2,4,6,8,10,-1,-1,12,14,-1,-1,16,18,20,22,24,26,28,30,32,-1,34,-1,-1,-1,-1,-1,-1,-1,-1,-1,-1,-1,-1,-1],"split_conditions":[1E0,1E0,3.45899E0,2E0,3.7216117E0,8.8230807E-1,4.62376E0,1E0,2E0,2.6099312E0,4.5835295E0,1E0,3.2655833E0,1E0,2E0,1.6086559E9,1.4346792E9,1E0,3.625E0,1E0,4.793367E-1,1E0,2.3403475E0,4.2736337E-2,-2.1648037E-1,3.5103012E-2,1.7668208E0,2.7030432E0,1.2332819E0,3.346146E-2,8.658167E-1,-2.0883586E-1,-1.1548159E-1,-2.4492235E-1,2.0165284E-1],"split_indices":[84,93,0,3,0,0,0,6,108,0,0,5,0,76,2,114,113,106,0,2,0,4,0,0,0,0,0,0,0,0,0,0,0,0,0],"split_type":[0,0,0,0,0,0,0,0,0,0,0,0,0,0,0,0,0,0,0,0,0,0,0,0,0,0,0,0,0,0,0,0,0,0,0],"sum_hessian":[8.789454E3,8.724861E3,6.45927E1,8.685827E3,3.903364E1,2.6294506E1,3.829819E1,4.8356865E3,3.8501409E3,1.782085E1,2.1212791E1,4.6576997E3,1.779868E2,3.7006648E3,1.49476E2,4.462641E3,1.9505844E2,6.2874374E1,1.15112434E2,3.6802808E3,2.0384079E1,1.296945E2,1.9781496E1,3.7153748E3,7.472666E2,1.3519107E2,5.986737E1,1.7226904E1,4.564747E1,8.154447E1,3.356796E1,2.5785684E3,1.1017123E3,9.60891E1,3.36054E1],"tree_param":{"num_deleted":"0","num_feature":"116","num_nodes":"35","size_leaf_vector":"1"}},{"base_weights":[3.0931619E-3,-8.893709E-2,4.080363E0,1.14804246E-1,-3.4279853E-1,5.433462E0,-2.0294648E-1,2.4002281E-1,-3.425511E-1,-2.5684386E-1,-4.0363684E-1,6.943283E0,1.64452E0,-8.389293E-2,5.390352E-1,-4.6832484E-1,-2.2851916E-1,-3.094207E-1,1.2896552E0,-4.1502404E-1,1.636359E-1,3.7136726E0,2.0895808E0,1.421058E0,-1.4038332E-1,9.07214E-2,-4.0870062E-1,1.4167101E0,2.4568318E-1,-2.2776145E-1,-7.1782164E-2,-1.3624682E-1,-2.4555852E-1,-3.2129624E-1,2.3128706E-1,1.3137009E0,-2.3742545E-1,-3.331982E-1,-4.341073E-1,3.586704E-1,-1.09421164E-1,4.194098E-3,3.428207E-1,-1.6467316E-1,-2.463288E-1,8.009885E-2,8.495649E-1,2.1685351E-1,-1.2937404E-1,-1.1476316E-1,1.2418507E-1,-1.3850892E-1,-2.0887071E-1,-1.749785E-1,1.5808327E-1,-1.9226146E-1,-2.3152259E-1],"categories":[],"categories_nodes":[],"categories_segments":[],"categories_sizes":[],"default_left":[0,0,0,0,0,0,0,0,0,0,0,0,0,0,0,0,0,0,0,0,0,0,0,0,0,0,0,0,0,0,0,0,0,0,0,0,0,0,0,0,0,0,0,0,0,0,0,0,0,0,0,0,0,0,0,0,0],"id":1,"left_children":[1,3,5,7,9,11,-1,13,15,17,19,21,23,25,27,29,31,33,35,37,39,-1,-1,-1,-1,41,43,45,47,-1,-1,49,-1,51,-1,-1,-1,53,55,-1,-1,-1,-1,-1,-1,-1,-1,-1,-1,-1,-1,-1,-1,-1,-1,-1,-1],"loss_changes":[3.2944539E3,4.4412552E2,1.1849678E3,2.7291104E2,1.9888306E1,8.417905E2,0E0,3.623383E2,1.4584824E1,1.2945535E2,1.451712E1,2.1106934E2,1.1686109E2,1.0192093E2,5.0047668E2,2.0441437E0,1.441996E1,1.4729675E1,1.4136533E2,3.2799072E0,1.0705733E1,0E0,0E0,0E0,0E0,6.0745525E1,4.0764923E0,2.3145605E2,1.6183109E2,0E0,0E0,1.7553703E1,0E0,5.013794E0,0E0,0E0,0E0,1.0525551E1,2.4974365E0,0E0,0E0,0E0,0E0,0E0,0E0,0E0,0E0,0E0,0E0,0E0,0E0,0E0,0E0,0E0,0E0,0E0,0E0],"parents":[2147483647,0,0,1,1,2,2,3,3,4,4,5,5,7,7,8,8,9,9,10,10,11,11,12,12,13,13,14,14,15,15,16,16,17,17,18,18,19,19,20,20,25,25,26,26,27,27,28,28,31,31,33,33,37,37,38,38],"right_children":[2,4,6,8,10,12,-1,14,16,18,20,22,24,26,28,30,32,34,36,38,40,-1,-1,-1,-1,42,44,46,48,-1,-1,50,-1,52,-1,-1,-1,54,56,-1,-1,-1,-1,-1,-1,-1,-1,-1,-1,-1,-1,-1,-1,-1,-1,-1,-1],"split_conditions":[1E0,2E0,1.9E1,1.562211E9,2E0,3E0,-2.0294648E-1,1E0,1E0,9E0,1E0,3.3908055E0,6E0,1E0,1E0,3.8035088E0,1.6384111E9,2E0,1E0,1.6E1,3E0,3.7136726E0,2.0895808E0,1.421058E0,-1.4038332E-1,1E0,1E0,1.3E1,6E0,-2.2776145E-1,-7.1782164E-2,1.9E1,-2.4555852E-1,3E0,2.3128706E-1,1.3137009E0,-2.3742545E-1,1.6549427E9,1E0,3.586704E-1,-1.09421164E-1,4.194098E-3,3.428207E-1,-1.6467316E-1,-2.463288E-1,8.009885E-2,8.495649E-1,2.1685351E-1,-1.2937404E-1,-1.1476316E-1,1.2418507E-1,-1.3850892E-1,-2.0887071E-1,-1.749785E-1,1.5808327E-1,-1.9226146E-1,-2.3152259E-1],"split_indices":[13,3,1,113,104,104,0,4,107,2,11,0,104,112,106,0,114,108,104,1,104,0,0,0,0,5,2,1,106,0,0,1,0,3,0,0,0,114,2,0,0,0,0,0,0,0,0,0,0,0,0,0,0,0,0,0,0],"split_type":[0,0,0,0,0,0,0,0,0,0,0,0,0,0,0,0,0,0,0,0,0,0,0,0,0,0,0,0,0,0,0,0,0,0,0,0,0,0,0,0,0,0,0,0,0,0,0,0,0,0,0,0,0,0,0,0,0],"sum_hessian":[8.777808E3,8.585009E3,1.9279868E2,4.762956E3,3.8220532E3,1.4814612E2,4.465257E1,3.7395781E3,1.0233777E3,1.5862129E3,2.2358403E3,1.053383E2,4.280781E1,1.7953843E3,1.944194E3,4.851572E2,5.382205E2,1.5348326E3,5.1380272E1,2.1921052E3,4.373507E1,7.567769E1,2.9660612E1,2.4826492E1,1.7981321E1,1.1681277E3,6.272566E2,4.8607748E2,1.4581165E3,4.6442636E2,2.0730831E1,4.0984094E2,1.2837958E2,1.5129429E3,2.188977E1,2.7746E1,2.3634272E1,4.1804758E2,1.7740576E3,1.7079384E1,2.6655685E1,1.0356409E3,1.3248691E2,4.1164548E2,2.1561108E2,1.14201775E2,3.718757E2,1.0337631E3,4.243534E2,3.237146E2,8.612635E1,1.2300437E3,2.8289917E2,3.96428E2,2.1619568E1,1.1998707E3,5.741869E2],"tree_param":{"num_deleted":"0","num_feature":"116","num_nodes":"57","size_leaf_vector":"1"}},{"base_weights":[1.754244E-3,2.42474E0,-1.569112E-2,-2.4164899E-1,3.8600116E0,9.107932E-2,-3.4905177E-1,-1.4215651E-1,3.6166862E-1,-1.9238396E-1,-2.4722414E-1,-2.5046974E-1,7.210835E-1,5.277292E-1,-2.4696009E-1,-2.4687076E-1,9.3826E-4,-2.6747608E-1,6.736074E-1,2.6954865E0,9.098022E-2,4.508236E-1,4.376768E0,-1.332002E-1,1.1439298E0,-1.661445E-1,3.4967177E-2,-2.4071784E-1,2.1752365E0,4.2225182E-1,-2.4602892E-1,1.8379363E0,1.8547939E-1,3.33808E0,8.4084404E-1,3.403477E-1,-1.8685551E-1,-2.431093E-1,2.9277208E0],"categories":[],"categories_nodes":[],"categories_segments":[],"categories_sizes":[],"default_left":[0,0,0,0,0,0,0,0,0,0,0,0,0,0,0,0,0,0,0,0,0,0,0,0,0,0,0,0,0,0,0,0,0,0,0,0,0,0,0],"id":2,"left_children":[1,3,5,-1,-1,7,9,11,13,15,-1,17,19,21,-1,-1,23,25,-1,27,29,31,33,35,37,-1,-1,-1,-1,-1,-1,-1,-1,-1,-1,-1,-1,-1,-1],"loss_changes":[3.7136664E2,1.0636917E3,3.105068E2,0E0,0E0,4.170663E2,5.7667297E1,3.320578E2,4.4955328E2,7.12238E1,0E0,9.030704E1,4.9237207E2,7.605692E2,0E0,0E0,1.0820988E2,8.9834946E1,0E0,5.881621E2,1.4838562E2,5.0450854E2,3.3898828E2,1.417162E2,6.244251E2,0E0,0E0,0E0,0E0,0E0,0E0,0E0,0E0,0E0,0E0,0E0,0E0,0E0,0E0],"parents":[2147483647,0,0,1,1,2,2,5,5,6,6,7,7,8,8,9,9,11,11,12,12,13,13,16,16,17,17,19,19,20,20,21,21,22,22,23,23,24,24],"right_children":[2,4,6,-1,-1,8,10,12,14,16,-1,18,20,22,-1,-1,24,26,-1,28,30,32,34,36,38,-1,-1,-1,-1,-1,-1,-1,-1,-1,-1,-1,-1,-1,-1],"split_conditions":[2.5E0,1E0,1E0,-2.4164899E-1,3.8600116E0,1E0,2E0,1E0,1.570453E9,1.3E1,-2.4722414E-1,1E0,1E0,1.5558376E9,-2.4696009E-1,-2.4687076E-1,1.6124179E9,2.4E1,6.736074E-1,3.4528787E0,2E0,2.75E0,1E0,1E0,2E0,-1.661445E-1,3.4967177E-2,-2.4071784E-1,2.1752365E0,4.2225182E-1,-2.4602892E-1,1.8379363E0,1.8547939E-1,3.33808E0,8.4084404E-1,3.403477E-1,-1.8685551E-1,-2.431093E-1,2.9277208E0],"split_indices":[0,4,107,0,0,4,3,5,113,1,0,22,104,113,0,0,113,1,0,0,3,0,106,4,105,0,0,0,0,0,0,0,0,0,0,0,0,0,0],"split_type":[0,0,0,0,0,0,0,0,0,0,0,0,0,0,0,0,0,0,0,0,0,0,0,0,0,0,0,0,0,0,0,0,0,0,0,0,0,0,0],"sum_hessian":[8.783711E3,6.1803726E1,8.721907E3,4.1504223E1,2.0299503E1,6.60663E3,2.1152778E3,3.5484766E3,3.058153E3,1.1148945E3,1.00038336E3,3.1535068E3,3.949698E2,2.5750469E3,4.8310608E2,4.1110648E2,7.037881E2,3.1226665E3,3.0840307E1,9.47613E1,3.002085E2,2.5256995E3,4.934752E1,6.3065906E2,7.312901E1,2.5050283E3,6.1763824E2,3.564375E1,5.911755E1,1.2963211E2,1.7057639E2,4.0952156E1,2.4847473E3,2.3399971E1,2.5947548E1,1.4783382E2,4.8282526E2,5.5734097E1,1.7394913E1],"tree_param":{"num_deleted":"0","num_feature":"116","num_nodes":"39","size_leaf_vector":"1"}},{"base_weights":[2.562585E-3,-8.2300626E-2,4.176238E0,-1.1641065E-1,6.14336E0,8.329933E0,-2.052016E-1,-1.7627388E-1,8.3006865E-1,1.6608367E0,3.763832E0,4.961341E0,6.419015E-2,5.5905994E-2,-3.3919647E-1,-1.9222833E-1,2.283341E0,1.8575116E0,-9.491288E-2,-8.324993E-2,-2.3911132E-1,-2.0614082E-1,1.9509764E0,1.6824938E0,-1.6837304E-2,-1.5683316E-1,2.8324678E0,-2.4209958E-1,8.406134E-1,-1.569574E-1,-3.1011863E-2,1.6412587E0,3.121972E-1,1.6396715E-1,-1.6930291E-1,1.9456944E0,4.8235792E-1,2.8061315E-2,-1.8518463E-1],"categories":[],"categories_nodes":[],"categories_segments":[],"categories_sizes":[],"default_left":[0,0,0,0,0,0,0,0,0,0,0,0,0,0,0,0,0,0,0,0,0,0,0,0,0,0,0,0,0,0,0,0,0,0,0,0,0,0,0],"id":3,"left_children":[1,3,5,7,9,11,13,15,17,-1,-1,-1,-1,-1,19,21,23,25,27,-1,-1,29,31,-1,-1,33,35,37,-1,-1,-1,-1,-1,-1,-1,-1,-1,-1,-1],"loss_changes":[3.1014902E3,1.8231805E3,3.1774312E3,4.8380624E2,1.961626E2,1.5928701E3,3.7639463E0,3.1552353E2,4.829279E2,0E0,0E0,0E0,0E0,0E0,1.5703182E0,2.3829944E2,1.5370605E2,4.7315808E2,7.443267E1,0E0,0E0,1.404183E2,9.90022E1,0E0,0E0,8.192369E0,3.737329E2,1.1301976E1,0E0,0E0,0E0,0E0,0E0,0E0,0E0,0E0,0E0,0E0,0E0],"parents":[2147483647,0,0,1,1,2,2,3,3,4,4,5,5,6,6,7,7,8,8,14,14,15,15,16,16,17,17,18,18,21,21,22,22,25,25,26,26,27,27],"right_children":[2,4,6,8,10,12,14,16,18,-1,-1,-1,-1,-1,20,22,24,26,28,-1,-1,30,32,-1,-1,34,36,38,-1,-1,-1,-1,-1,-1,-1,-1,-1,-1,-1],"split_conditions":[1.6659578E9,1E0,1.6704246E9,1.6E1,1E0,2E0,1E0,1E0,3E0,1.6608367E0,3.763832E0,4.961341E0,6.419015E-2,5.5905994E-2,3.5175595E0,3E0,2E0,1E0,1E0,-8.324993E-2,-2.3911132E-1,1E0,1E0,1.6824938E0,-1.6837304E-2,3.378992E0,1E0,1.3E1,8.406134E-1,-1.569574E-1,-3.1011863E-2,1.6412587E0,3.121972E-1,1.6396715E-1,-1.6930291E-1,1.9456944E0,4.8235792E-1,2.8061315E-2,-1.8518463E-1],"split_indices":[113,20,114,104,107,3,4,90,106,0,0,0,0,0,0,107,3,107,2,0,0,4,106,0,0,0,105,1,0,0,0,0,0,0,0,0,0,0,0],"split_type":[0,0,0,0,0,0,0,0,0,0,0,0,0,0,0,0,0,0,0,0,0,0,0,0,0,0,0,0,0,0,0,0,0,0,0,0,0,0,0],"sum_hessian":[8.754563E3,8.581065E3,1.7349825E2,8.535282E3,4.5783005E1,8.860126E1,8.4896996E1,8.0283184E3,5.0696402E2,1.9953058E1,2.5829945E1,6.981757E1,1.8783682E1,2.4897669E1,5.999933E1,7.9774937E3,5.082464E1,2.3970187E2,2.6726215E2,3.1397333E1,2.8601995E1,7.9269404E3,5.055346E1,3.2422222E1,1.8402416E1,7.8452095E1,1.6124977E2,2.486089E2,1.8653244E1,4.1770967E3,3.7498435E3,2.2408468E1,2.8144993E1,2.2205704E1,5.624639E1,9.356163E1,6.768814E1,8.274817E1,1.6586073E2],"tree_param":{"num_deleted":"0","num_feature":"116","num_nodes":"39","size_leaf_vector":"1"}},{"base_weights":[2.5335602E-3,-1.7169163E-1,2.1166205E0,-2.6331702E-1,6.5772873E-1,1.6844347E0,4.5349708E0,-3.034704E-1,1.9906074E0,3.036646E0,1.500894E-1,2.1184003E0,3.7366974E-1,-3.558711E-1,1.6790335E-1,-3.006591E-1,4.382549E0,5.3527136E0,1.0516775E0,-3.4900356E-2,2.7276473E0,2.4951625E0,1.2845117E-1,-8.437934E-2,5.8162826E-1,-3.9581686E-1,-2.9214114E-1,3.59994E-1,-2.1191944E-1,6.2085986E-2,-1.9571304E-1,3.2598658E0,1.2693012E0,1.184441E0,2.0641948E-1,2.9429847E-1,-2.9817995E-1,2.8052135E0,3.5617914E-2,1.9602019E0,4.8061633E0,4.0374842E-1,-2.5178865E-1,-5.2150716E-3,1.2024723E0,-1.8937938E-1,2.1715161E-1,-1.4573517E-1,6.550888E-2,1.0501302E-1,4.2230338E-1,-1.6113517E-1,4.7124375E-2,-7.24103E-2,2.3357446E-1,2.3330043E-1,4.885759E-4,-9.919646E-2,-2.1486269E-1,1.3134664E0,-1.3690867E-1,3.5292177E0,9.0357447E-1,-4.0493153E-2,-2.3531428E-1,1.5841842E-1,-1.9354379E-1,2.4529026E-1,9.73472E-1],"categories":[],"categories_nodes":[],"categories_segments":[],"categories_sizes":[],"default_left":[0,0,0,0,0,0,0,0,0,0,0,0,0,0,0,0,0,0,0,0,0,0,0,0,0,0,0,0,0,0,0,0,0,0,0,0,0,0,0,0,0,0,0,0,0,0,0,0,0,0,0,0,0,0,0,0,0,0,0,0,0,0,0,0,0,0,0,0,0],"id":4,"left_children":[1,3,5,7,9,11,-1,13,15,17,19,21,23,25,27,29,-1,31,33,35,37,39,41,-1,43,45,47,49,51,-1,-1,-1,-1,-1,53,55,57,-1,-1,59,61,-1,63,65,67,-1,-1,-1,-1,-1,-1,-1,-1,-1,-1,-1,-1,-1,-1,-1,-1,-1,-1,-1,-1,-1,-1,-1,-1],"loss_changes":[3.228464E3,6.155781E2,2.141895E3,6.606409E2,9.7272546E2,3.5877942E2,0E0,1.7706775E2,2.135921E3,6.456688E2,3.1727237E2,3.5556836E2,1.830094E1,1.6303345E1,5.243414E1,4.8732758E0,0E0,2.5015979E2,9.48593E1,5.3965607E1,3.7889157E2,4.8393945E2,2.1370693E1,0E0,4.2027615E1,1.7240295E1,1.7550354E1,3.4869488E1,9.760949E0,0E0,0E0,0E0,0E0,0E0,5.268924E0,1.6191763E1,4.6831875E0,0E0,0E0,6.0175195E2,5.58635E2,0E0,2.0458376E0,8.440582E0,3.1789986E1,0E0,0E0,0E0,0E0,0E0,0E0,0E0,0E0,0E0,0E0,0E0,0E0,0E0,0E0,0E0,0E0,0E0,0E0,0E0,0E0,0E0,0E0,0E0,0E0],"parents":[2147483647,0,0,1,1,2,2,3,3,4,4,5,5,7,7,8,8,9,9,10,10,11,11,12,12,13,13,14,14,15,15,17,17,18,18,19,19,20,20,21,21,22,22,24,24,25,25,26,26,27,27,28,28,34,34,35,35,36,36,39,39,40,40,42,42,43,43,44,44],"right_children":[2,4,6,8,10,12,-1,14,16,18,20,22,24,26,28,30,-1,32,34,36,38,40,42,-1,44,46,48,50,52,-1,-1,-1,-1,-1,54,56,58,-1,-1,60,62,-1,64,66,68,-1,-1,-1,-1,-1,-1,-1,-1,-1,-1,-1,-1,-1,-1,-1,-1,-1,-1,-1,-1,-1,-1,-1,-1],"split_conditions":[1.6243218E9,2E0,8E0,4.377606E0,3E0,1E0,4.5349708E0,1.5985688E9,1E0,1E0,2E0,1E0,1.2E1,1E0,2E0,1E0,4.382549E0,1E0,1.5E1,7E0,1E0,1.6704246E9,3.5849626E0,-8.437934E-2,3E0,1E0,1E0,1.6124179E9,1.6243356E9,6.2085986E-2,-1.9571304E-1,3.2598658E0,1.2693012E0,1.184441E0,1.6E1,3E0,2.9E1,2.8052135E0,3.5617914E-2,1.6659578E9,4E0,4.0374842E-1,1.6587654E9,1.6709947E9,1.6516223E9,-1.8937938E-1,2.1715161E-1,-1.4573517E-1,6.550888E-2,1.0501302E-1,4.2230338E-1,-1.6113517E-1,4.7124375E-2,-7.24103E-2,2.3357446E-1,2.3330043E-1,4.885759E-4,-9.919646E-2,-2.1486269E-1,1.3134664E0,-1.3690867E-1,3.5292177E0,9.0357447E-1,-4.0493153E-2,-2.3531428E-1,1.5841842E-1,-1.9354379E-1,2.4529026E-1,9.73472E-1],"split_indices":[113,105,2,0,104,107,0,114,107,108,2,6,1,108,3,112,0,4,1,104,4,114,0,0,104,20,5,113,114,0,0,0,0,0,1,105,104,0,0,113,104,0,113,113,114,0,0,0,0,0,0,0,0,0,0,0,0,0,0,0,0,0,0,0,0,0,0,0,0],"split_type":[0,0,0,0,0,0,0,0,0,0,0,0,0,0,0,0,0,0,0,0,0,0,0,0,0,0,0,0,0,0,0,0,0,0,0,0,0,0,0,0,0,0,0,0,0,0,0,0,0,0,0,0,0,0,0,0,0,0,0,0,0,0,0,0,0,0,0,0,0],"sum_hessian":[8.763221E3,8.0968643E3,6.6635645E2,7.2920054E3,8.0485913E2,6.31127E2,3.5229385E1,7.165223E3,1.2678225E2,1.4066907E2,6.641901E2,4.7368436E2,1.5744267E2,6.448603E3,7.1662E2,9.7179276E1,2.9602978E1,6.413708E1,7.653198E1,6.2063403E2,4.3556065E1,3.9806396E2,7.56204E1,4.3106583E1,1.1433608E2,3.960785E3,2.487818E3,4.759609E2,2.4065912E2,2.0197943E1,7.698133E1,3.9578888E1,2.455819E1,2.739581E1,4.9136173E1,2.7573877E2,3.4489526E2,1.9145603E1,2.4410463E1,3.2473993E2,7.332404E1,2.556037E1,5.0060028E1,5.928729E1,5.5048794E1,3.9381482E3,2.2636656E1,2.397238E3,9.058008E1,3.7948502E2,9.647588E1,1.7008528E2,7.057383E1,2.2055822E1,2.708035E1,1.6369104E2,1.1204772E2,2.2211882E2,1.2277645E2,2.3783292E2,8.690702E1,3.7353607E1,3.5970432E1,3.0703724E1,1.9356302E1,3.227981E1,2.7007477E1,3.1538528E1,2.3510267E1],"tree_param":{"num_deleted":"0","num_feature":"116","num_nodes":"69","size_leaf_vector":"1"}},{"base_weights":[-8.724609E-4,-7.856002E-2,9.136171E-1,-2.5095695E-1,1.4347108E-1,4.0253907E-1,1.8133624E0,-4.3095025E-1,-1.5465122E-1,-2.170887E-2,6.817079E-1,5.482208E-2,7.003551E-1,2.641812E0,8.6192775E-1,-4.4371104E-1,2.859959E-1,-1.2102984E-1,-2.2144707E-1,-9.736903E-2,3.6138988E-1,1.3286089E0,6.597871E-2,-2.923029E-2,4.18439E-1,1.3063837E0,4.9710453E-1,3.5558963E0,8.1529063E-1,5.686528E-1,9.068852E-1,-2.2666258E-1,-3.8659638E-1,-1.6312213E-1,1.0270741E0,-3.0278084E-1,-4.005495E-2,1.1404362E-1,2.1082819E0,8.801417E-1,2.7691061E0,3.8628516E-1,-2.4583614E-1,-2.0884208E-1,1.1635855E-1,8.5737556E-1,1.0190941E0,3.4544745E-1,6.48608E-1,2.7652593E0,2.3825169E0,2.5283614E-1,4.628755E-1,6.123806E-1,2.199375E-1,-1.9377904E-1,-6.713037E-2,-8.689714E-2,1.5388925E-1,1.2013619E0,1.03556745E-1,-2.0049377E-1,-6.370279E-2,4.0584886E-3,-2.0412198E-1,-1.6265549E-1,1.1076883E-1,6.42958E-1,1.5090462E0,5.052045E-1,-2.0338315E-1,6.173032E-1,1.5048565E0,4.1707852E-1,-1.6321382E-2,-1.5587842E-1,7.6020276E-3,3.359504E-1,-2.5362452E-2,6.4460266E-1,2.5410506E-1,-5.2706443E-2,2.5377646E-1,8.850548E-1,2.1306748E0,2.2016954E-1,-3.2490257E-2],"categories":[],"categories_nodes":[],"categories_segments":[],"categories_sizes":[],"default_left":[0,0,0,0,0,0,0,0,0,0,0,0,0,0,0,0,0,0,0,0,0,0,0,0,0,0,0,0,0,0,0,0,0,0,0,0,0,0,0,0,0,0,0,0,0,0,0,0,0,0,0,0,0,0,0,0,0,0,0,0,0,0,0,0,0,0,0,0,0,0,0,0,0,0,0,0,0,0,0,0,0,0,0,0,0,0,0],"id":5,"left_children":[1,3,5,7,9,11,13,15,17,19,21,23,25,27,29,31,-1,33,-1,35,37,39,41,43,-1,45,47,49,51,53,-1,-1,55,57,59,61,63,65,67,69,71,73,-1,75,77,-1,79,81,-1,83,-1,-1,-1,-1,85,-1,-1,-1,-1,-1,-1,-1,-1,-1,-1,-1,-1,-1,-1,-1,-1,-1,-1,-1,-1,-1,-1,-1,-1,-1,-1,-1,-1,-1,-1,-1,-1],"loss_changes":[6.244893E2,3.1015414E2,3.1576288E2,7.899631E1,3.1490155E2,4.5549347E1,1.9402264E2,2.1284546E1,3.1335152E1,7.8616196E1,3.3120505E2,1.42851925E1,2.8548431E1,2.1855804E2,3.532363E1,3.0484314E0,0E0,1.3000629E2,0E0,2.6650543E1,1.9304532E2,2.5955304E2,8.042843E1,4.8983555E0,0E0,6.7558136E0,2.3316326E1,8.963989E1,1.5734997E0,2.3394535E1,0E0,0E0,3.4730759E0,2.6432068E1,1.159667E2,1.002877E1,3.379064E1,2.1764982E1,4.063182E1,7.7512146E1,5.41532E1,5.7876675E1,0E0,2.2880204E0,1.0513987E1,0E0,5.900852E0,1.35539E1,0E0,8.4502014E1,0E0,0E0,0E0,0E0,4.60021E0,0E0,0E0,0E0,0E0,0E0,0E0,0E0,0E0,0E0,0E0,0E0,0E0,0E0,0E0,0E0,0E0,0E0,0E0,0E0,0E0,0E0,0E0,0E0,0E0,0E0,0E0,0E0,0E0,0E0,0E0,0E0,0E0],"parents":[2147483647,0,0,1,1,2,2,3,3,4,4,5,5,6,6,7,7,8,8,9,9,10,10,11,11,12,12,13,13,14,14,15,15,17,17,19,19,20,20,21,21,22,22,23,23,25,25,26,26,27,27,28,28,29,29,32,32,33,33,34,34,35,35,36,36,37,37,38,38,39,39,40,40,41,41,43,43,44,44,46,46,47,47,49,49,54,54],"right_children":[2,4,6,8,10,12,14,16,18,20,22,24,26,28,30,32,-1,34,-1,36,38,40,42,44,-1,46,48,50,52,54,-1,-1,56,58,60,62,64,66,68,70,72,74,-1,76,78,-1,80,82,-1,84,-1,-1,-1,-1,86,-1,-1,-1,-1,-1,-1,-1,-1,-1,-1,-1,-1,-1,-1,-1,-1,-1,-1,-1,-1,-1,-1,-1,-1,-1,-1,-1,-1,-1,-1,-1,-1],"split_conditions":[1.2E1,2E0,1.409796E9,1E0,1E0,1E0,2E0,1.5656945E9,1.6254171E9,2.8E1,1E0,1E0,2.1E1,1.6160205E9,6.5E1,1E0,2.859959E-1,1.6147183E9,-2.2144707E-1,1E0,1E0,1E0,1.4E1,1.6E1,4.18439E-1,1.5E1,3.5775344E0,1.9E1,3.3371754E0,3E0,9.068852E-1,-2.2666258E-1,1.3198536E9,4E0,1.6243251E9,1E0,1.6254171E9,1E0,3E0,4.377606E0,3.3035088E0,1.502676E9,-2.4583614E-1,1E0,1E0,8.5737556E-1,3.6368423E0,1E1,6.48608E-1,4E0,2.3825169E0,2.5283614E-1,4.628755E-1,6.123806E-1,5E0,-1.9377904E-1,-6.713037E-2,-8.689714E-2,1.5388925E-1,1.2013619E0,1.03556745E-1,-2.0049377E-1,-6.370279E-2,4.0584886E-3,-2.0412198E-1,-1.6265549E-1,1.1076883E-1,6.42958E-1,1.5090462E0,5.052045E-1,-2.0338315E-1,6.173032E-1,1.5048565E0,4.1707852E-1,-1.6321382E-2,-1.5587842E-1,7.6020276E-3,3.359504E-1,-2.5362452E-2,6.4460266E-1,2.5410506E-1,-5.2706443E-2,2.5377646E-1,8.850548E-1,2.1306748E0,2.2016954E-1,-3.2490257E-2],"split_indices":[104,3,113,108,107,107,108,114,113,1,106,2,104,113,104,112,0,113,0,104,112,108,2,104,0,104,0,1,0,108,0,0,113,105,114,112,113,104,3,0,0,114,0,4,4,0,0,1,0,106,0,0,0,0,108,0,0,0,0,0,0,0,0,0,0,0,0,0,0,0,0,0,0,0,0,0,0,0,0,0,0,0,0,0,0,0,0],"split_type":[0,0,0,0,0,0,0,0,0,0,0,0,0,0,0,0,0,0,0,0,0,0,0,0,0,0,0,0,0,0,0,0,0,0,0,0,0,0,0,0,0,0,0,0,0,0,0,0,0,0,0,0,0,0,0,0,0,0,0,0,0,0,0,0,0,0,0,0,0,0,0,0,0,0,0,0,0,0,0,0,0,0,0,0,0,0,0],"sum_hessian":[8.78811E3,8.1008433E3,6.872673E2,4.5600464E3,3.5407969E3,4.3922424E2,2.4804306E2,1.5882211E3,2.9718252E3,2.710063E3,8.307338E2,2.0318196E2,2.3604228E2,1.3164134E2,1.1640171E2,1.5694668E3,1.8754223E1,2.6857078E3,2.8611746E2,2.2637324E3,4.4633044E2,4.0454776E2,4.2618607E2,1.8539207E2,1.778988E1,5.7918953E1,1.7812334E2,8.710351E1,4.453784E1,9.233529E1,2.4066422E1,9.575866E2,6.1188025E2,2.591553E3,9.415475E1,4.9290262E2,1.77083E3,3.9190506E2,5.4425407E1,3.0973087E2,9.481689E1,2.7583856E2,1.5034747E2,8.280354E1,1.0258854E2,1.899289E1,3.8926064E1,1.5301942E2,2.5103914E1,5.8734875E1,2.836863E1,1.80486E1,2.648924E1,2.9036982E1,6.329831E1,5.57473E2,5.440723E1,2.4863428E3,1.05210236E2,3.1988602E1,6.2166145E1,2.8501868E2,2.0788393E2,1.5762078E3,1.9462212E2,8.115412E1,3.1075092E2,3.3571777E1,2.085363E1,2.7082025E2,3.891059E1,2.1920328E1,7.289656E1,1.2603589E2,1.4980267E2,5.352196E1,2.928158E1,2.210241E1,8.048613E1,2.1595592E1,1.7330471E1,4.5343678E1,1.0767574E2,4.023781E1,1.8497065E1,3.3840103E1,2.9458206E1],"tree_param":{"num_deleted":"0","num_feature":"116","num_nodes":"87","size_leaf_vector":"1"}},{"base_weights":[2.5427395E-3,-2.4372798E-1,3.1964543E-1,-4.3825594E-1,-2.682612E-2,2.653962E-1,4.4041243E0,-4.4721723E-1,3.877004E-1,-5.3162124E-2,1.0265518E0,2.2563562E-1,2.4165514E0,-2.3581605E-1,3.645679E0,-4.9245134E-1,-3.7444466E-1,-7.774823E-2,1.3520482E0,4.6829155E-1,-4.4879818E-1,-2.4722867E-1,-4.3699557E-1,-3.9699218E-1,3.885651E-1,-1.4788218E-1,2.8817847E-1,-2.345917E-1,1.3844138E0,1.2096608E-1,1.2518002E0,-4.9669394E-1,2.3691857E-1,-2.2456765E-1,-3.379849E-2,-1.984121E-1,2.8279382E-1,1.5477617E-1,-1.05539024E-1,-1.4609915E-1,6.251787E-1,-1.3545292E-2,7.825838E-1,4.150704E-1,2.4187312E0,-2.4717847E-1,-1.11637115E-1,-2.4222527E-1,9.5915866E-1],"categories":[],"categories_nodes":[],"categories_segments":[],"categories_sizes":[],"default_left":[0,0,0,0,0,0,0,0,0,0,0,0,0,0,0,0,0,0,0,0,0,0,0,0,0,0,0,0,0,0,0,0,0,0,0,0,0,0,0,0,0,0,0,0,0,0,0,0,0],"id":6,"left_children":[1,3,5,7,9,11,13,15,-1,17,-1,19,-1,-1,-1,21,23,25,27,29,31,-1,33,35,-1,37,39,-1,-1,41,43,45,47,-1,-1,-1,-1,-1,-1,-1,-1,-1,-1,-1,-1,-1,-1,-1,-1],"loss_changes":[6.868634E2,2.088732E2,8.5076135E2,2.9809387E1,1.357762E2,7.3069763E2,8.213518E2,8.348206E0,0E0,8.008692E1,0E0,6.1647876E2,0E0,0E0,0E0,2.5000916E0,2.7253174E1,5.8458366E1,1.1775817E2,7.5359344E2,3.2858E1,0E0,8.039047E0,2.266809E1,0E0,6.867433E1,2.2700632E2,0E0,0E0,4.4123578E2,1.2234564E3,6.3074646E0,8.944215E1,0E0,0E0,0E0,0E0,0E0,0E0,0E0,0E0,0E0,0E0,0E0,0E0,0E0,0E0,0E0,0E0],"parents":[2147483647,0,0,1,1,2,2,3,3,4,4,5,5,6,6,7,7,9,9,11,11,15,15,16,16,17,17,18,18,19,19,20,20,22,22,23,23,25,25,26,26,29,29,30,30,31,31,32,32],"right_children":[2,4,6,8,10,12,14,16,-1,18,-1,20,-1,-1,-1,22,24,26,28,30,32,-1,34,36,-1,38,40,-1,-1,42,44,46,48,-1,-1,-1,-1,-1,-1,-1,-1,-1,-1,-1,-1,-1,-1,-1,-1],"split_conditions":[2E0,3E0,1E0,1.3E1,1E0,1E0,1.4346792E9,2E0,3.877004E-1,1E0,1.0265518E0,1E0,2.4165514E0,-2.3581605E-1,3.645679E0,1E0,1E0,8E0,2E0,3E0,1E0,-2.4722867E-1,3.75E0,1E0,3.885651E-1,1E0,3.4613202E0,-2.345917E-1,1.3844138E0,1E0,1E0,3.938722E0,1E0,-2.2456765E-1,-3.379849E-2,-1.984121E-1,2.8279382E-1,1.5477617E-1,-1.05539024E-1,-1.4609915E-1,6.251787E-1,-1.3545292E-2,7.825838E-1,4.150704E-1,2.4187312E0,-2.4717847E-1,-1.11637115E-1,-2.4222527E-1,9.5915866E-1],"split_indices":[3,104,68,2,54,60,113,104,0,25,0,107,0,0,0,4,54,106,108,104,112,0,0,25,0,106,0,0,0,108,5,0,2,0,0,0,0,0,0,0,0,0,0,0,0,0,0,0,0],"split_type":[0,0,0,0,0,0,0,0,0,0,0,0,0,0,0,0,0,0,0,0,0,0,0,0,0,0,0,0,0,0,0,0,0,0,0,0,0,0,0,0,0,0,0,0,0,0,0,0,0],"sum_hessian":[8.793444E3,4.949645E3,3.8437998E3,2.6088672E3,2.3407776E3,3.7944673E3,4.9332375E1,2.5910676E3,1.779964E1,2.314048E3,2.6729525E1,3.7646484E3,2.9818869E1,2.023265E1,2.9099724E1,1.5943077E3,9.967599E2,2.2751853E3,3.8862858E1,2.768772E3,9.958765E2,1.0190645E3,5.752433E2,9.7898584E2,1.7774082E1,1.9097551E3,3.6543002E2,1.8214243E1,2.0648617E1,1.9191686E3,8.4960345E2,9.311159E2,6.476064E1,5.2035876E2,5.4884514E1,9.5746686E2,2.1518923E1,2.6124957E2,1.6485056E3,2.3214622E2,1.332838E2,1.7496433E3,1.6952524E2,7.759514E2,7.365204E1,8.442072E2,8.690867E1,4.6173424E1,1.8587221E1],"tree_param":{"num_deleted":"0","num_feature":"116","num_nodes":"49","size_leaf_vector":"1"}},{"base_weights":[-5.688676E-4,-1.6138269E-2,2.160247E0,-1.12625405E-1,2.8861058E-1,2.6403744E0,4.8845467E-1,-3.2475833E-3,-4.5595062E-1,-8.498956E-2,7.533409E-1,1.4782629E0,9.214294E-1,1.5593348E-1,-1.4780515E-1,-4.193045E-1,-2.3337129E-1,1.6562376E0,-1.5965894E-1,2.1475074E0,5.702121E-2,-1.5670316E-1,2.5197282E-1,-6.7758E-2,-3.4741428E-1,-2.3231292E-1,-1.849036E-1,1.0692495E0,4.6406564E-1,-4.644228E-2,-4.3959498E-1,2.4528384E0,5.4022723E-1,4.79553E-1,-4.1033196E-1,-6.663042E-2,-2.004182E-1,6.795871E-2,3.8328925E-1,-7.866437E-2,2.2106692E-1,-1.14163704E-1,-1.9339024E-1,-1.1721216E-1,1.21296E-1,5.616296E-2,-2.0346656E-1,-8.607778E-2,-2.3355189E-1,1.2977914E0,5.308371E-1,4.4264108E-1,-5.629536E-2,1.5948789E-1,7.5441307E-1,-5.6198463E-2,-2.0998861E-1],"categories":[],"categories_nodes":[],"categories_segments":[],"categories_sizes":[],"default_left":[0,0,0,0,0,0,0,0,0,0,0,0,0,0,0,0,0,0,0,0,0,0,0,0,0,0,0,0,0,0,0,0,0,0,0,0,0,0,0,0,0,0,0,0,0,0,0,0,0,0,0,0,0,0,0,0,0],"id":7,"left_children":[1,3,5,7,9,11,-1,13,15,17,19,-1,-1,21,23,25,-1,27,29,31,33,35,37,39,41,-1,43,-1,-1,45,47,49,51,53,55,-1,-1,-1,-1,-1,-1,-1,-1,-1,-1,-1,-1,-1,-1,-1,-1,-1,-1,-1,-1,-1,-1],"loss_changes":[2.9574078E2,2.5666592E2,3.127893E1,2.4895645E2,3.645136E2,8.545654E0,0E0,1.15741486E2,2.0242615E0,1.5167227E2,9.080985E2,0E0,0E0,7.191622E1,4.2094925E1,1.3865982E1,0E0,1.740245E1,3.5398758E1,1.5159119E2,1.2360797E2,2.3009605E0,1.1065958E2,9.9667984E1,4.8414E0,0E0,5.5245414E0,0E0,0E0,5.0666996E1,4.443779E0,9.91792E1,1.3458481E1,5.15969E1,2.9043617E0,0E0,0E0,0E0,0E0,0E0,0E0,0E0,0E0,0E0,0E0,0E0,0E0,0E0,0E0,0E0,0E0,0E0,0E0,0E0,0E0,0E0,0E0],"parents":[2147483647,0,0,1,1,2,2,3,3,4,4,5,5,7,7,8,8,9,9,10,10,13,13,14,14,15,15,17,17,18,18,19,19,20,20,21,21,22,22,23,23,24,24,26,26,29,29,30,30,31,31,32,32,33,33,34,34],"right_children":[2,4,6,8,10,12,-1,14,16,18,20,-1,-1,22,24,26,-1,28,30,32,34,36,38,40,42,-1,44,-1,-1,46,48,50,52,54,56,-1,-1,-1,-1,-1,-1,-1,-1,-1,-1,-1,-1,-1,-1,-1,-1,-1,-1,-1,-1,-1,-1],"split_conditions":[1E0,1E0,3E0,1.3198536E9,1.5504625E9,1.5821573E9,4.8845467E-1,3.4685767E0,1.5937605E9,1E0,1.566007E9,1.4782629E0,9.214294E-1,1E0,1E0,1.5488207E9,-2.3337129E-1,3.5849626E0,1E0,1.6160049E9,1.6088494E9,6E0,1E0,1E0,3.788755E0,-2.3231292E-1,1.5889004E9,1.0692495E0,4.6406564E-1,1.4E1,1.8E1,7E0,5E0,1E0,1.6133828E9,-6.663042E-2,-2.004182E-1,6.795871E-2,3.8328925E-1,-7.866437E-2,2.2106692E-1,-1.14163704E-1,-1.9339024E-1,-1.1721216E-1,1.21296E-1,5.616296E-2,-2.0346656E-1,-8.607778E-2,-2.3355189E-1,1.2977914E0,5.308371E-1,4.4264108E-1,-5.629536E-2,1.5948789E-1,7.5441307E-1,-5.6198463E-2,-2.0998861E-1],"split_indices":[11,107,3,113,114,114,0,0,113,104,113,0,0,104,2,114,0,0,2,114,113,2,112,112,0,0,113,0,0,104,1,104,104,112,114,0,0,0,0,0,0,0,0,0,0,0,0,0,0,0,0,0,0,0,0,0,0],"split_type":[0,0,0,0,0,0,0,0,0,0,0,0,0,0,0,0,0,0,0,0,0,0,0,0,0,0,0,0,0,0,0,0,0,0,0,0,0,0,0,0,0,0,0,0,0,0,0,0,0,0,0,0,0,0,0,0,0],"sum_hessian":[8.788624E3,8.726737E3,6.1886524E1,6.6286562E3,2.0980815E3,4.2448208E1,1.9438318E1,5.0278687E3,1.6007876E3,1.163529E3,9.345525E2,2.2782337E1,1.9665869E1,2.3928635E3,2.6350051E3,8.211859E2,7.796017E2,4.6973175E1,1.1165559E3,3.1059573E2,6.239568E2,5.6217737E2,1.8306863E3,1.8817328E3,7.5327216E2,6.2651953E2,1.9466634E2,2.3474127E1,2.3499046E1,7.958501E2,3.207058E2,2.605699E2,5.0025867E1,3.2767828E2,2.9627847E2,5.3251166E2,2.96657E1,1.5351624E3,2.955239E2,1.5894277E3,2.923051E2,2.7997177E2,4.733004E2,1.706823E2,2.3984049E1,5.5691724E2,2.3893286E2,5.701182E1,2.63694E2,2.1248546E2,4.8084415E1,3.097207E1,1.9053797E1,2.9188968E2,3.5788616E1,3.154352E1,2.6473495E2],"tree_param":{"num_deleted":"0","num_feature":"116","num_nodes":"57","size_leaf_vector":"1"}},{"base_weights":[-2.845403E-3,-4.510482E-2,3.8834312E0,-6.566599E-2,2.889465E0,1.2227179E0,7.72265E0,-2.386947E-1,1.6330601E-1,1.2155817E0,-2.3789355E-1,4.6146107E0,2.6683612E0,-3.570197E-1,9.574727E-2,1.3539557E-1,2.5287075E0,-4.605709E-1,-2.7815208E-1,2.9849133E-1,-3.846651E-1,6.883938E-2,8.300109E-1,8.891455E-1,1.5235358E0,-1.9446282E-1,-2.4711134E-1,-8.287621E-2,-1.5938702E-1,-1.785829E-2,3.7369702E0,-2.1090521E-1,1.0235221E-1,8.946103E-2,-1.3431004E-1,4.984558E0,1.4367101E-2],"categories":[],"categories_nodes":[],"categories_segments":[],"categories_sizes":[],"default_left":[0,0,0,0,0,0,0,0,0,0,0,0,0,0,0,0,0,0,0,0,0,0,0,0,0,0,0,0,0,0,0,0,0,0,0,0,0],"id":8,"left_children":[1,3,5,7,-1,9,11,13,15,-1,-1,-1,-1,17,19,21,23,25,27,29,31,33,35,-1,-1,-1,-1,-1,-1,-1,-1,-1,-1,-1,-1,-1,-1],"loss_changes":[1.4417665E3,1.1005276E3,9.552112E2,3.429967E2,0E0,1.3407605E2,1.0803027E2,1.9516632E2,2.456786E2,0E0,0E0,0E0,0E0,2.9619843E1,1.2570658E2,1.7026205E2,1.3468262E1,4.597351E0,1.2534439E1,2.322715E3,1.4321171E1,1.4317899E2,2.5027808E3,0E0,0E0,0E0,0E0,0E0,0E0,0E0,0E0,0E0,0E0,0E0,0E0,0E0,0E0],"parents":[2147483647,0,0,1,1,2,2,3,3,5,5,6,6,7,7,8,8,13,13,14,14,15,15,16,16,17,17,18,18,19,19,20,20,21,21,22,22],"right_children":[2,4,6,8,-1,10,12,14,16,-1,-1,-1,-1,18,20,22,24,26,28,30,32,34,36,-1,-1,-1,-1,-1,-1,-1,-1,-1,-1,-1,-1,-1,-1],"split_conditions":[1E0,1E0,1.5558376E9,2E0,2.889465E0,1E0,1.5821573E9,1.530324E9,1E0,1.2155817E0,-2.3789355E-1,4.6146107E0,2.6683612E0,1E0,1.6329585E9,1.6321723E9,3.583617E0,1.8E1,1E0,1.6320973E9,2E1,1E0,1.6321727E9,8.891455E-1,1.5235358E0,-1.9446282E-1,-2.4711134E-1,-8.287621E-2,-1.5938702E-1,-1.785829E-2,3.7369702E0,-2.1090521E-1,1.0235221E-1,8.946103E-2,-1.3431004E-1,4.984558E0,1.4367101E-2],"split_indices":[9,62,113,3,0,107,114,114,25,0,0,0,0,108,114,114,0,1,4,114,1,107,114,0,0,0,0,0,0,0,0,0,0,0,0,0,0],"split_type":[0,0,0,0,0,0,0,0,0,0,0,0,0,0,0,0,0,0,0,0,0,0,0,0,0,0,0,0,0,0,0,0,0,0,0,0,0],"sum_hessian":[8.776785E3,8.683351E3,9.3434456E1,8.655454E3,2.78962E1,5.5966316E1,3.746814E1,4.929959E3,3.7254954E3,3.1128086E1,2.483823E1,1.7002241E1,2.0465899E1,3.6415256E3,1.2884332E3,3.683094E3,4.2401245E1,1.5722982E3,2.0692275E3,9.063242E2,3.8210907E2,3.3620505E3,3.2104364E2,2.3900253E1,1.8500992E1,8.857472E2,6.8655096E2,7.5804144E2,1.3111862E3,8.689276E2,3.7396606E1,3.4675882E2,3.535025E1,2.5069277E3,8.5512274E2,2.3474566E1,2.975691E2],"tree_param":{"num_deleted":"0","num_feature":"116","num_nodes":"37","size_leaf_vector":"1"}},{"base_weights":[-1.5191507E-4,-1.4623623E-2,1.679459E0,-8.110083E-2,3.7547606E-1,6.5974534E-1,2.2909365E0,-8.772336E-2,7.596019E-1,6.6599286E-1,-3.6231568E-1,5.79975E-1,-3.9379872E-2,-5.367989E-2,-3.3002064E-1,5.280254E-1,2.7468483E0,-5.226108E-2,-4.6187308E-1,1.5388095E-2,-1.5407453E-1,-2.7335736E-1,-4.5455256E-1,2.2234583E-1,1.251869E0,-9.6068375E-2,-2.3622769E-1,3.3552144E-3,7.0886445E-1,-4.2049266E-2,-1.517835E-1,-1.7061989E-1,-1.0568399E-1,-2.284836E-1,-6.510981E-2,4.6441683E-1,-7.300169E-2,1.5039414E0,2.8968181E-2],"categories":[],"categories_nodes":[],"categories_segments":[],"categories_sizes":[],"default_left":[0,0,0,0,0,0,0,0,0,0,0,0,0,0,0,0,0,0,0,0,0,0,0,0,0,0,0,0,0,0,0,0,0,0,0,0,0,0,0],"id":9,"left_children":[1,3,5,7,9,11,-1,13,-1,15,17,-1,-1,19,21,23,-1,-1,25,27,29,31,33,35,37,-1,-1,-1,-1,-1,-1,-1,-1,-1,-1,-1,-1,-1,-1],"loss_changes":[2.132251E2,2.2557475E2,2.3900641E2,8.3264465E1,2.7170276E2,2.4515316E1,0E0,6.1052784E1,0E0,6.425946E2,8.931225E0,0E0,0E0,4.5023872E1,6.3104324E0,1.958528E2,0E0,0E0,2.4277802E0,4.7333534E1,2.8763187E1,2.6623955E0,2.5448647E0,1.7915773E2,6.045058E2,0E0,0E0,0E0,0E0,0E0,0E0,0E0,0E0,0E0,0E0,0E0,0E0,0E0,0E0],"parents":[2147483647,0,0,1,1,2,2,3,3,4,4,5,5,7,7,9,9,10,10,13,13,14,14,15,15,18,18,19,19,20,20,21,21,22,22,23,23,24,24],"right_children":[2,4,6,8,10,12,-1,14,-1,16,18,-1,-1,20,22,24,-1,-1,26,28,30,32,34,36,38,-1,-1,-1,-1,-1,-1,-1,-1,-1,-1,-1,-1,-1,-1],"split_conditions":[1E0,2E0,4E0,1E0,3E0,2E0,2.2909365E0,1.6034104E9,7.596019E-1,1.7E1,2E0,5.79975E-1,-3.9379872E-2,2E0,1.6517165E9,2.3E1,2.7468483E0,-5.226108E-2,3.7E1,1E0,4E0,1.6160205E9,1E0,3E0,2.8E1,-9.6068375E-2,-2.3622769E-1,3.3552144E-3,7.0886445E-1,-4.2049266E-2,-1.517835E-1,-1.7061989E-1,-1.0568399E-1,-2.284836E-1,-6.510981E-2,4.6441683E-1,-7.300169E-2,1.5039414E0,2.8968181E-2],"split_indices":[49,2,106,8,3,104,0,113,0,2,104,0,0,3,113,1,0,0,1,60,104,113,112,2,1,0,0,0,0,0,0,0,0,0,0,0,0,0,0],"split_type":[0,0,0,0,0,0,0,0,0,0,0,0,0,0,0,0,0,0,0,0,0,0,0,0,0,0,0,0,0,0,0,0,0,0,0,0,0,0,0],"sum_hessian":[8.770216E3,8.696279E3,7.393678E1,7.430785E3,1.265494E3,5.6854233E1,1.708255E1,7.402706E3,2.8079294E1,9.0803766E2,3.574564E2,3.1857512E1,2.4996723E1,6.4918096E3,9.1089636E2,8.8541156E2,2.2626095E1,1.0191352E2,2.5554286E2,3.8464404E3,2.6453691E3,6.282372E2,2.8265918E2,6.2343976E2,2.6197183E2,3.366496E1,2.2187791E2,3.826096E3,2.0344393E1,1.9053611E3,7.40008E2,2.247258E2,4.0351135E2,2.5841757E2,2.4241611E1,2.0601405E2,4.174257E2,9.926291E1,1.6270894E2],"tree_param":{"num_deleted":"0","num_feature":"116","num_nodes":"39","size_leaf_vector":"1"}},{"base_weights":[1.6385042E-4,-7.929844E-2,6.607114E0,-2.9071182E-1,5.290981E-1,-5.7065036E-2,4.904574E0,-3.6893475E-1,-4.5926537E-2,-6.0512E-2,3.3069458E0,-3.8748267E-1,2.7495196E-1,1.9399165E-1,-2.0492159E-1,-1.3507612E-1,4.495589E-1,6.3896217E0,5.583664E-1,-4.041427E-1,-2.0114505E-1,-1.17381744E-1,1.2102945E0,3.0901697E-1,-2.2777677E-1,-2.8149003E-1,5.7648093E-2,-9.5161505E-2,-2.4583656E-1,-2.0967352E-1,1.4824368E0,9.785211E0,-8.945054E-2,1.04837604E-1,1.5782766E0,-1.9230376E-1,9.552208E-2,3.2369688E-1,-1.2104624E-1,1.8018052E-2,-1.0997216E-1,1.0856726E0,-8.72375E-2,5.7724718E-2,4.473159E-1,-1.5119518E-1,2.3261584E-2,-1.5242156E-1,8.861619E-2,3.6641392E-1,-9.663544E-3,-8.270027E-2,1.3131285E-1,9.8618135E-2,-1.4999151E-1,1.3000364E0,2.1742241E-1,4.8872967E0,3.6474516E0,-1.8711661E-1,8.272432E-2,1.700854E-1,-8.496392E-2,1.329431E0,2.3697911E-1],"categories":[],"categories_nodes":[],"categories_segments":[],"categories_sizes":[],"default_left":[0,0,0,0,0,0,0,0,0,0,0,0,0,0,0,0,0,0,0,0,0,0,0,0,0,0,0,0,0,0,0,0,0,0,0,0,0,0,0,0,0,0,0,0,0,0,0,0,0,0,0,0,0,0,0,0,0,0,0,0,0,0,0,0,0],"id":10,"left_children":[1,3,5,7,9,-1,-1,11,13,15,17,19,21,23,25,27,29,31,33,35,37,39,41,43,45,47,49,51,-1,53,55,57,59,61,63,-1,-1,-1,-1,-1,-1,-1,-1,-1,-1,-1,-1,-1,-1,-1,-1,-1,-1,-1,-1,-1,-1,-1,-1,-1,-1,-1,-1,-1,-1],"loss_changes":[4.6179917E3,1.1180931E3,2.6555947E3,1.235025E2,3.6718428E3,0E0,0E0,5.8488586E1,5.9674694E1,7.043021E1,3.3223066E3,1.4670898E1,5.058557E1,3.0324514E1,1.8929111E1,2.4786232E1,1.6114616E2,4.0692314E3,9.632618E1,7.741577E0,1.9307028E1,1.7630891E0,6.21904E1,5.8322353E1,3.445314E0,1.4116058E1,1.197147E1,4.370304E1,0E0,6.6095047E0,1.182962E2,6.0313477E1,5.3076553E0,1.0631676E1,8.391777E1,0E0,0E0,0E0,0E0,0E0,0E0,0E0,0E0,0E0,0E0,0E0,0E0,0E0,0E0,0E0,0E0,0E0,0E0,0E0,0E0,0E0,0E0,0E0,0E0,0E0,0E0,0E0,0E0,0E0,0E0],"parents":[2147483647,0,0,1,1,2,2,3,3,4,4,7,7,8,8,9,9,10,10,11,11,12,12,13,13,14,14,15,15,16,16,17,17,18,18,19,19,20,20,21,21,22,22,23,23,24,24,25,25,26,26,27,27,29,29,30,30,31,31,32,32,33,33,34,34],"right_children":[2,4,6,8,10,-1,-1,12,14,16,18,20,22,24,26,28,30,32,34,36,38,40,42,44,46,48,50,52,-1,54,56,58,60,62,64,-1,-1,-1,-1,-1,-1,-1,-1,-1,-1,-1,-1,-1,-1,-1,-1,-1,-1,-1,-1,-1,-1,-1,-1,-1,-1,-1,-1,-1,-1],"split_conditions":[4.48637E0,2.2E1,1E0,1E0,1E0,-5.7065036E-2,4.904574E0,3E0,1.3198536E9,6E0,2E0,1E0,1.4714582E9,2.2E1,2E0,1E0,1E0,1E0,2.8E1,7.5E1,2E0,1E0,1.6160049E9,7E0,2E0,1.3E1,3E0,1E0,-2.4583656E-1,2E0,1.3E1,2.4E1,2E0,1E0,1E0,-1.9230376E-1,9.552208E-2,3.2369688E-1,-1.2104624E-1,1.8018052E-2,-1.0997216E-1,1.0856726E0,-8.72375E-2,5.7724718E-2,4.473159E-1,-1.5119518E-1,2.3261584E-2,-1.5242156E-1,8.861619E-2,3.6641392E-1,-9.663544E-3,-8.270027E-2,1.3131285E-1,9.8618135E-2,-1.4999151E-1,1.3000364E0,2.1742241E-1,4.8872967E0,3.6474516E0,-1.8711661E-1,8.272432E-2,1.700854E-1,-8.496392E-2,1.329431E0,2.3697911E-1],"split_indices":[0,1,112,107,112,0,0,105,113,104,3,105,114,104,107,80,107,104,1,104,104,4,114,104,3,104,104,107,0,3,104,1,106,2,4,0,0,0,0,0,0,0,0,0,0,0,0,0,0,0,0,0,0,0,0,0,0,0,0,0,0,0,0,0,0],"split_type":[0,0,0,0,0,0,0,0,0,0,0,0,0,0,0,0,0,0,0,0,0,0,0,0,0,0,0,0,0,0,0,0,0,0,0,0,0,0,0,0,0,0,0,0,0,0,0,0,0,0,0,0,0,0,0,0,0,0,0,0,0,0,0,0,0],"sum_hessian":[8.79412E3,8.690586E3,1.0353433E2,6.4498364E3,2.2407493E3,3.755523E1,6.59791E1,4.8874946E3,1.5623422E3,1.8492222E3,3.9152713E2,4.7510337E3,1.3646083E2,6.226158E2,9.397264E2,1.6140145E3,2.3520766E2,1.8392305E2,2.0760406E2,4.3600425E3,3.9099097E2,9.675218E1,3.970865E1,4.8941037E2,1.3320543E2,7.275051E2,2.122212E2,1.4636285E3,1.5038606E2,1.4405916E2,9.11485E1,1.20342834E2,6.3580223E1,1.4446628E2,6.3137783E1,4.3396396E3,2.0403202E1,2.2202553E1,3.6878842E2,4.1495464E1,5.525672E1,2.1947767E1,1.776088E1,3.794473E2,1.0996307E2,9.981129E1,3.339414E1,6.691392E2,5.8365948E1,1.9946043E1,1.9227516E2,1.2059517E3,2.5767685E2,2.9321367E1,1.14737785E2,3.990606E1,5.124244E1,9.1531975E1,2.8810856E1,2.9218803E1,3.436142E1,7.604116E1,6.842512E1,2.8647058E1,3.4490726E1],"tree_param":{"num_deleted":"0","num_feature":"116","num_nodes":"65","size_leaf_vector":"1"}},{"base_weights":[4.4140723E-3,4.48128E0,-5.8460664E-2,4.362446E0,2.2102692E0,2.4752079E-1,-4.417511E-1,3.438578E0,-2.382723E-1,1.3979796E0,1.6803935E-1,-4.641564E-1,-2.130765E-2,2.6209219E0,-2.3570229E-1,3.9989328E0,5.0507516E-1,-1.4709349E-1,4.1086838E-1,-4.6949404E-1,3.1558648E-3,-2.4600922E-1,1.46004E0,5.825776E0,-2.3708127E-1,1.2248061E0,-3.201281E-1,-1.6551472E-1,7.2387534E-1,7.0122814E-1,-3.396847E-1,-4.721688E-1,-2.6955638E-2,2.3749742E-1,-2.359771E-1,4.1728077E0,1.6204835E0,1.0791719E0,-2.4231015E-1,-2.4466202E-1,2.2872517E-1,-9.951611E-2,1.415796E-1,1.7025377E-1,7.645356E-1,-3.147456E-2,-2.2525056E-1,-2.2437038E-1,-1.700853E-3],"categories":[],"categories_nodes":[],"categories_segments":[],"categories_sizes":[],"default_left":[0,0,0,0,0,0,0,0,0,0,0,0,0,0,0,0,0,0,0,0,0,0,0,0,0,0,0,0,0,0,0,0,0,0,0,0,0,0,0,0,0,0,0,0,0,0,0,0,0],"id":11,"left_children":[1,3,5,-1,7,9,11,13,-1,15,17,19,21,-1,-1,23,25,27,29,31,33,-1,-1,35,-1,37,39,41,-1,43,45,47,-1,-1,-1,-1,-1,-1,-1,-1,-1,-1,-1,-1,-1,-1,-1,-1,-1],"loss_changes":[2.470212E3,1.291394E3,1.0150802E3,0E0,2.803453E2,4.3987634E2,3.61839E1,4.815418E2,0E0,7.200084E2,3.4466153E2,9.10022E0,3.0531873E2,0E0,0E0,6.5501965E2,1.3853145E2,6.0902706E1,5.545758E2,3.9515991E0,1.0843825E1,0E0,0E0,3.7661987E2,0E0,2.3025946E2,1.760842E1,4.079179E1,0E0,5.728185E2,2.6555023E1,4.605896E0,0E0,0E0,0E0,0E0,0E0,0E0,0E0,0E0,0E0,0E0,0E0,0E0,0E0,0E0,0E0,0E0,0E0],"parents":[2147483647,0,0,1,1,2,2,4,4,5,5,6,6,7,7,9,9,10,10,11,11,12,12,15,15,16,16,17,17,18,18,19,19,20,20,23,23,25,25,26,26,27,27,29,29,30,30,31,31],"right_children":[2,4,6,-1,8,10,12,14,-1,16,18,20,22,-1,-1,24,26,28,30,32,34,-1,-1,36,-1,38,40,42,-1,44,46,48,-1,-1,-1,-1,-1,-1,-1,-1,-1,-1,-1,-1,-1,-1,-1,-1,-1],"split_conditions":[8E0,2E0,2E0,4.362446E0,1E0,1E1,5E0,1.558376E9,-2.382723E-1,2E0,1E0,1E0,3.8414474E0,2.6209219E0,-2.3570229E-1,1E0,7E0,1E0,1E0,1E1,1E0,-2.4600922E-1,1.46004E0,1E0,-2.3708127E-1,1.3198536E9,6E0,1E0,7.2387534E-1,1.4613768E9,1.5085512E9,1E0,-2.6955638E-2,2.3749742E-1,-2.359771E-1,4.1728077E0,1.6204835E0,1.0791719E0,-2.4231015E-1,-2.4466202E-1,2.2872517E-1,-9.951611E-2,1.415796E-1,1.7025377E-1,7.645356E-1,-3.147456E-2,-2.2525056E-1,-2.2437038E-1,-1.700853E-3],"split_indices":[1,104,3,0,112,1,3,113,0,104,4,25,0,0,0,112,104,60,107,106,2,0,0,104,0,113,106,6,0,113,114,76,0,0,0,0,0,0,0,0,0,0,0,0,0,0,0,0,0],"split_type":[0,0,0,0,0,0,0,0,0,0,0,0,0,0,0,0,0,0,0,0,0,0,0,0,0,0,0,0,0,0,0,0,0,0,0,0,0,0,0,0,0,0,0,0,0,0,0,0,0],"sum_hessian":[8.7738125E3,1.2054273E2,8.6532705E3,3.798553E1,8.2557205E1,4.812109E3,3.8411611E3,5.6655136E1,2.590207E1,3.0989703E2,4.502212E3,3.6467246E3,1.944367E2,3.6627697E1,2.0027437E1,7.830955E1,2.315875E2,1.9595667E3,2.5426453E3,3.605537E3,4.1187313E1,1.6826408E2,2.6172628E1,5.549135E1,2.2818203E1,1.2344031E2,1.0814718E2,1.9391957E3,2.0370975E1,1.8334288E3,7.0921643E2,3.5821614E3,2.3375868E1,2.0657167E1,2.0530146E1,2.3417244E1,3.2074104E1,7.649126E1,4.6949055E1,8.709106E1,2.1056126E1,1.7682163E3,1.7097937E2,1.3376232E3,4.9580566E2,2.3754695E2,4.7166946E2,3.5612903E3,2.0871061E1],"tree_param":{"num_deleted":"0","num_feature":"116","num_nodes":"49","size_leaf_vector":"1"}},{"base_weights":[8.395647E-3,-1.8279885E-1,5.1040487E0,-2.2087358E-1,5.3492904E0,-2.4023052E-1,2.8793657E0,-2.343106E-1,3.7238002E0,1.6437129E0,-2.9457954E-1,3.564263E-1,3.5116174E0,-3.121531E-1,8.2246464E-1,-2.4600913E-1,2.5667562E0,-9.149562E-2,-2.2377352E-1,2.6778185E0,-2.4504547E-1],"categories":[],"categories_nodes":[],"categories_segments":[],"categories_sizes":[],"default_left":[0,0,0,0,0,0,0,0,0,0,0,0,0,0,0,0,0,0,0,0,0],"id":12,"left_children":[1,3,-1,5,7,9,-1,-1,-1,11,13,15,-1,17,19,-1,-1,-1,-1,-1,-1],"loss_changes":[1.8145709E4,1.8207839E3,0E0,1.0504342E3,8.7867993E2,8.7647473E2,0E0,0E0,0E0,1.7862131E3,1.635105E2,8.81927E2,0E0,1.5659558E2,8.417919E2,0E0,0E0,0E0,0E0,0E0,0E0],"parents":[2147483647,0,0,1,1,3,3,4,4,5,5,9,9,10,10,11,11,13,13,14,14],"right_children":[2,4,-1,6,8,10,-1,-1,-1,12,14,16,-1,18,20,-1,-1,-1,-1,-1,-1],"split_conditions":[1E0,1E0,5.1040487E0,1E0,2E0,9E0,2.8793657E0,-2.343106E-1,3.7238002E0,1.5896179E9,1.6669572E9,1E0,3.5116174E0,3E0,1.6675516E9,-2.4600913E-1,2.5667562E0,-9.149562E-2,-2.2377352E-1,2.6778185E0,-2.4504547E-1],"split_indices":[80,45,0,33,106,1,0,0,0,113,113,67,0,104,113,0,0,0,0,0,0],"split_type":[0,0,0,0,0,0,0,0,0,0,0,0,0,0,0,0,0,0,0,0,0],"sum_hessian":[8.789741E3,8.637739E3,1.5200221E2,8.579649E3,5.8089565E1,8.554392E3,2.5257256E1,1.7803833E1,4.0285732E1,2.3904204E2,8.31535E3,1.9642592E2,4.261612E1,8.1872666E3,1.2808319E2,1.6825195E2,2.8173964E1,4.72371E3,3.463557E3,2.7066336E1,1.0101686E2],"tree_param":{"num_deleted":"0","num_feature":"116","num_nodes":"21","size_leaf_vector":"1"}},{"base_weights":[-7.3962645E-3,-7.2573006E-2,4.7525764E0,-1.5184171E-1,7.26723E-1,3.3873527E0,6.5879855E0,-1.9670905E-1,5.510733E-1,-2.1700835E-1,1.6331518E0,2.9133672E-1,2.8066611E0,1.9826654E0,4.092209E0,-2.0605047E-1,1.0270724E0,8.131218E-1,-2.4482475E-1,6.371858E-2,-2.4612597E-1,2.6464634E0,-2.4254477E-1,-3.441817E-1,-4.9661513E-2,5.726848E-1,2.0223067E0,-2.929081E-1,9.949781E-1,2.2652814E0,3.1755612E0,5.264132E-1,-2.4536233E-1,-1.6694798E-1,7.3645E-1,-3.2686498E-2,1.2879769E0,1.2634028E0,1.5584297E-1,4.0553012E-1,-2.457469E-1,1.794892E0,6.894883E-1],"categories":[],"categories_nodes":[],"categories_segments":[],"categories_sizes":[],"default_left":[0,0,0,0,0,0,0,0,0,0,0,0,0,0,0,0,0,0,0,0,0,0,0,0,0,0,0,0,0,0,0,0,0,0,0,0,0,0,0,0,0,0,0],"id":13,"left_children":[1,3,5,7,9,11,13,15,17,19,21,-1,-1,-1,-1,23,-1,25,-1,27,-1,29,31,33,35,37,-1,39,-1,41,-1,-1,-1,-1,-1,-1,-1,-1,-1,-1,-1,-1,-1],"loss_changes":[2.7173018E3,5.4755255E2,2.741399E2,2.4804555E2,6.673687E2,4.908761E2,2.0866748E2,1.6411508E2,1.3266634E2,3.270486E1,7.56823E2,0E0,0E0,0E0,0E0,1.5902905E2,0E0,3.1389404E2,0E0,1.4624374E2,0E0,3.8614282E2,5.33298E1,6.8906494E1,1.8739525E2,1.8078E2,0E0,4.521059E1,0E0,2.8839807E2,0E0,0E0,0E0,0E0,0E0,0E0,0E0,0E0,0E0,0E0,0E0,0E0,0E0],"parents":[2147483647,0,0,1,1,2,2,3,3,4,4,5,5,6,6,7,7,8,8,9,9,10,10,15,15,17,17,19,19,21,21,22,22,23,23,24,24,25,25,27,27,29,29],"right_children":[2,4,6,8,10,12,14,16,18,20,22,-1,-1,-1,-1,24,-1,26,-1,28,-1,30,32,34,36,38,-1,40,-1,42,-1,-1,-1,-1,-1,-1,-1,-1,-1,-1,-1,-1,-1],"split_conditions":[1.29E2,2E0,3.25E2,3E0,1E0,4E0,1E0,1E0,1.6118226E9,5E0,1.429668E9,2.9133672E-1,2.8066611E0,1.9826654E0,4.092209E0,1E0,1.0270724E0,1.6082392E9,-2.4482475E-1,1E0,-2.4612597E-1,3E0,1.5707587E9,1E0,5.7E1,5E0,2.0223067E0,2.807355E0,9.949781E-1,1E0,3.1755612E0,5.264132E-1,-2.4536233E-1,-1.6694798E-1,7.3645E-1,-3.2686498E-2,1.2879769E0,1.2634028E0,1.5584297E-1,4.0553012E-1,-2.457469E-1,1.794892E0,6.894883E-1],"split_indices":[104,105,104,108,4,105,112,39,114,104,113,0,0,0,0,4,0,114,0,107,0,107,114,40,1,106,0,0,0,106,0,0,0,0,0,0,0,0,0,0,0,0,0],"split_type":[0,0,0,0,0,0,0,0,0,0,0,0,0,0,0,0,0,0,0,0,0,0,0,0,0,0,0,0,0,0,0,0,0,0,0,0,0,0,0,0,0,0,0],"sum_hessian":[8.756611E3,8.639301E3,1.17310356E2,7.8605547E3,7.787459E2,6.890365E1,4.840671E1,7.389594E3,4.7096048E2,3.818951E2,3.9685083E2,3.3640873E1,3.526277E1,2.3886095E1,2.4520618E1,7.3615E3,2.8094402E1,3.784527E2,9.250776E1,1.9894392E2,1.829512E2,2.573897E2,1.3946112E2,3.9082876E3,3.4532122E3,3.5500125E2,2.3451464E1,1.7009796E2,2.8845953E1,2.3679578E2,2.0593924E1,2.3118301E1,1.1634282E2,3.8903179E3,1.796979E1,3.4300615E3,2.3150661E1,3.5733303E1,3.1926794E2,2.758306E1,1.4251491E2,8.0279976E1,1.565158E2],"tree_param":{"num_deleted":"0","num_feature":"116","num_nodes":"43","size_leaf_vector":"1"}},{"base_weights":[7.832172E-3,-2.9460156E-1,7.0006186E-1,-3.2221022E-1,2.3226416E0,4.542079E-1,4.430409E0,-5.0604683E-1,-1.01915374E-1,-1.0769026E-1,1.3539252E0,3.0710888E0,4.35429E0,-2.4738781E-1,-3.5848105E-1,-1.6381204E-1,8.2421434E-1,-1.4087817E-1,1.1728009E0,-3.781175E-1,2.600221E0,3.8366692E0,-2.3710485E-1,8.4214634E-1,-2.467265E-1,-3.3181384E-1,7.45739E-2,2.8225253E0,-4.14868E-2,-1.9807856E-1,7.580766E-1,8.0836266E-1,-2.4681926E-1,2.1483977E0,4.2004266E0,2.812146E0,3.787513E0,-1.7344752E-1,6.701847E-1,1.0595459E-1,-2.4632703E-1,-2.389782E-1,3.1535954E0,-2.4452175E-1,4.5963112E-1,6.362113E-2,-1.6383892E-1,-2.441354E-1,2.7596653E0,8.994634E-1,3.8400013E0,1.8928319E0,-2.3722258E-1],"categories":[],"categories_nodes":[],"categories_segments":[],"categories_sizes":[],"default_left":[0,0,0,0,0,0,0,0,0,0,0,0,0,0,0,0,0,0,0,0,0,0,0,0,0,0,0,0,0,0,0,0,0,0,0,0,0,0,0,0,0,0,0,0,0,0,0,0,0,0,0,0,0],"id":14,"left_children":[1,3,5,7,-1,9,11,13,15,17,19,21,-1,-1,23,25,27,29,-1,31,33,35,-1,-1,-1,37,39,41,43,45,47,-1,-1,49,-1,51,-1,-1,-1,-1,-1,-1,-1,-1,-1,-1,-1,-1,-1,-1,-1,-1,-1],"loss_changes":[1.8425303E3,8.827568E2,2.4522114E3,2.4673297E2,0E0,1.2699155E3,1.0474155E3,8.431885E0,1.5910898E2,1.3333093E2,2.0854673E3,3.582732E2,0E0,0E0,1.26042175E2,1.04166306E2,3.0095392E2,7.8740776E1,0E0,1.2298172E2,1.577375E3,4.3741833E2,0E0,0E0,0E0,9.481604E1,9.609171E1,6.7757587E2,5.957459E1,7.1189835E1,5.968621E2,0E0,0E0,7.527798E2,0E0,3.495464E2,0E0,0E0,0E0,0E0,0E0,0E0,0E0,0E0,0E0,0E0,0E0,0E0,0E0,0E0,0E0,0E0,0E0],"parents":[2147483647,0,0,1,1,2,2,3,3,5,5,6,6,7,7,8,8,9,9,10,10,11,11,14,14,15,15,16,16,17,17,19,19,20,20,21,21,25,25,26,26,27,27,28,28,29,29,30,30,33,33,35,35],"right_children":[2,4,6,8,-1,10,12,14,16,18,20,22,-1,-1,24,26,28,30,-1,32,34,36,-1,-1,-1,38,40,42,44,46,48,-1,-1,50,-1,52,-1,-1,-1,-1,-1,-1,-1,-1,-1,-1,-1,-1,-1,-1,-1,-1,-1],"split_conditions":[4E0,1E0,1E0,2E0,2.3226416E0,2E0,3.8279097E0,1.5974007E9,1E0,1E0,1E0,1E0,4.35429E0,-2.4738781E-1,1.607346E9,1E0,3.5068905E0,1.6321722E9,1.1728009E0,2.8638263E0,8E0,1E0,-2.3710485E-1,8.4214634E-1,-2.467265E-1,1E0,1E0,3.4182959E0,3.9219282E0,3E0,1.9E1,8.0836266E-1,-2.4681926E-1,1.6621221E9,4.2004266E0,8E0,3.787513E0,-1.7344752E-1,6.701847E-1,1.0595459E-1,-2.4632703E-1,-2.389782E-1,3.1535954E0,-2.4452175E-1,4.5963112E-1,6.362113E-2,-1.6383892E-1,-2.441354E-1,2.7596653E0,8.994634E-1,3.8400013E0,1.8928319E0,-2.3722258E-1],"split_indices":[104,15,6,3,0,3,0,113,6,68,4,107,0,0,114,4,0,113,0,0,106,105,0,0,0,68,107,0,0,106,1,0,0,113,0,104,0,0,0,0,0,0,0,0,0,0,0,0,0,0,0,0,0],"split_type":[0,0,0,0,0,0,0,0,0,0,0,0,0,0,0,0,0,0,0,0,0,0,0,0,0,0,0,0,0,0,0,0,0,0,0,0,0,0,0,0,0,0,0,0,0,0,0,0,0,0,0,0,0],"sum_hessian":[8.799059E3,6.124049E3,2.6750098E3,6.0927056E3,3.1343075E1,2.5106626E3,1.6434714E2,3.320469E3,2.7722368E3,1.5460145E3,9.646482E2,1.2927328E2,3.507385E1,2.9646143E3,3.5585464E2,2.5993367E3,1.7290013E2,1.527389E3,1.8625414E1,4.0395175E2,5.606964E2,1.0640088E2,2.2872414E1,2.4580929E1,3.312737E2,1.5245339E3,1.0748027E3,5.157905E1,1.2132108E2,1.4367485E3,9.064049E1,2.5399446E1,3.785523E2,5.243747E2,3.6321728E1,8.679972E1,1.960116E1,1.4951593E3,2.93746E1,8.595285E2,2.1527422E2,2.8138083E1,2.3440964E1,8.2901855E1,3.8419228E1,4.4381085E2,9.9293774E2,7.318459E1,1.7455893E1,5.050381E2,1.9336615E1,6.3653114E1,2.3146605E1],"tree_param":{"num_deleted":"0","num_feature":"116","num_nodes":"53","size_leaf_vector":"1"}},{"base_weights":[1.0660582E-3,1.00638404E-1,-1.3597323E-1,5.1478274E-2,1.1380439E0,4.4819828E-2,-2.598449E-1,-1.831211E-1,1.517815E-1,1.3846613E0,2.0742238E-2,-3.7461285E-2,9.958603E-1,-2.9727647E-1,-1.0247209E-1,-2.743949E-1,9.250216E-2,3.6850885E-1,-6.547452E-2,1.5805624E0,3.9813958E-2,-1.5903564E-1,1.9750592E-1,6.591346E-2,-3.001901E-1,1.6660608E0,-2.4678776E-1,-3.077326E-1,1.9094075E-1,-1.0909995E-2,-3.315963E-1,-3.2225123E-1,2.1634616E-1,-2.4921349E-1,7.2264415E-1,2.6175013E-1,1.307365E0,1.22082E-3,-2.3840357E-1,1.2103652E0,1.3556658E0,-4.4952735E-2,5.912623E-1,-3.4355283E-1,8.745347E-2,6.539159E-1,1.8545982E0,-2.3610985E-1,6.1303554E-3,-2.6234522E-1,-4.273244E-1,2.272868E-1,-5.084807E-2,2.5230327E-1,-2.0029275E-1,-2.1751887E-1,-7.7063896E-2,-6.560872E-2,-2.1095227E-1,2.1010196E-1,-2.372079E-1,4.367203E-2,-1.4764915E-1,6.515961E-1,-2.0429018E-1,2.6499426E-2,2.6699755E-1,9.7731745E-1,8.320394E-2,-1.989339E-2,3.5813987E-1,7.294764E-1,4.9124178E-2,-8.5833274E-2,7.815029E-2,6.6793674E-1,6.909672E-2,-1.8815365E-1,-1.6375415E-2,-1.7517366E-1,7.859188E-1,-1.3007753E-1,1.6697125E-1,-2.2984256E-1,-1.4459315E-1,-4.0979437E-3,3.330316E-1,-1.2230269E-1,1.423231E-1],"categories":[],"categories_nodes":[],"categories_segments":[],"categories_sizes":[],"default_left":[0,0,0,0,0,0,0,0,0,0,0,0,0,0,0,0,0,0,0,0,0,0,0,0,0,0,0,0,0,0,0,0,0,0,0,0,0,0,0,0,0,0,0,0,0,0,0,0,0,0,0,0,0,0,0,0,0,0,0,0,0,0,0,0,0,0,0,0,0,0,0,0,0,0,0,0,0,0,0,0,0,0,0,0,0,0,0,0,0],"id":15,"left_children":[1,3,5,7,9,11,13,15,17,19,21,23,25,27,29,31,33,35,37,39,-1,-1,-1,41,43,45,47,49,51,53,55,57,59,61,63,65,67,69,-1,71,-1,73,75,77,-1,79,-1,-1,-1,81,83,-1,-1,85,87,-1,-1,-1,-1,-1,-1,-1,-1,-1,-1,-1,-1,-1,-1,-1,-1,-1,-1,-1,-1,-1,-1,-1,-1,-1,-1,-1,-1,-1,-1,-1,-1,-1,-1],"loss_changes":[1.20162964E2,2.6005127E2,8.300505E1,1.1463792E2,6.3542023E1,1.18010826E2,1.2924805E1,3.673456E1,1.606978E2,4.8008392E1,6.207812E0,3.773118E1,1.0041902E2,9.125793E0,8.893927E0,2.5819633E1,7.850711E1,1.7089519E2,4.9936943E1,7.486493E1,0E0,0E0,0E0,5.811082E1,8.317997E0,1.7612944E2,2.8284895E0,9.32872E0,3.3314695E0,1.5207132E1,2.5521898E0,2.2711678E1,1.6305088E1,5.1463184E0,9.778477E1,9.576014E1,1.496398E2,4.8602585E1,0E0,4.756517E1,0E0,2.3742641E1,6.342891E1,6.076309E0,0E0,5.7686424E1,0E0,0E0,0E0,1.0197479E1,3.2732925E0,0E0,0E0,1.5086604E1,5.289518E0,0E0,0E0,0E0,0E0,0E0,0E0,0E0,0E0,0E0,0E0,0E0,0E0,0E0,0E0,0E0,0E0,0E0,0E0,0E0,0E0,0E0,0E0,0E0,0E0,0E0,0E0,0E0,0E0,0E0,0E0,0E0,0E0,0E0,0E0],"parents":[2147483647,0,0,1,1,2,2,3,3,4,4,5,5,6,6,7,7,8,8,9,9,10,10,11,11,12,12,13,13,14,14,15,15,16,16,17,17,18,18,19,19,23,23,24,24,25,25,26,26,27,27,28,28,29,29,30,30,31,31,32,32,33,33,34,34,35,35,36,36,37,37,39,39,41,41,42,42,43,43,45,45,49,49,50,50,53,53,54,54],"right_children":[2,4,6,8,10,12,14,16,18,20,22,24,26,28,30,32,34,36,38,40,-1,-1,-1,42,44,46,48,50,52,54,56,58,60,62,64,66,68,70,-1,72,-1,74,76,78,-1,80,-1,-1,-1,82,84,-1,-1,86,88,-1,-1,-1,-1,-1,-1,-1,-1,-1,-1,-1,-1,-1,-1,-1,-1,-1,-1,-1,-1,-1,-1,-1,-1,-1,-1,-1,-1,-1,-1,-1,-1,-1,-1],"split_conditions":[3E0,1E0,1E0,1E0,1E0,1.6299228E9,2.2E1,1E0,2E0,2.4E1,2.2E1,8E0,1E0,1.6E1,2.8E1,1E0,2.1E1,3E0,3.2E1,3.5849626E0,3.9813958E-2,-1.5903564E-1,1.9750592E-1,2E0,9E0,6E0,1.6606356E9,9E0,3.3414462E0,1E0,1E0,1.9E1,3E0,3.0957952E0,1E0,1E0,2.8E1,3E0,-2.3840357E-1,3.5032582E0,1.3556658E0,3.4594316E0,1.3E1,3E0,8.745347E-2,1.4E1,1.8545982E0,-2.3610985E-1,6.1303554E-3,5E0,2E0,2.272868E-1,-5.084807E-2,1.3945068E9,1.6208017E9,-2.1751887E-1,-7.7063896E-2,-6.560872E-2,-2.1095227E-1,2.1010196E-1,-2.372079E-1,4.367203E-2,-1.4764915E-1,6.515961E-1,-2.0429018E-1,2.6499426E-2,2.6699755E-1,9.7731745E-1,8.320394E-2,-1.989339E-2,3.5813987E-1,7.294764E-1,4.9124178E-2,-8.5833274E-2,7.815029E-2,6.6793674E-1,6.909672E-2,-1.8815365E-1,-1.6375415E-2,-1.7517366E-1,7.859188E-1,-1.3007753E-1,1.6697125E-1,-2.2984256E-1,-1.4459315E-1,-4.0979437E-3,3.330316E-1,-1.2230269E-1,1.423231E-1],"split_indices":[104,105,4,104,107,113,1,4,104,1,1,104,6,106,1,5,1,3,1,0,0,0,0,105,105,104,114,104,0,106,107,1,2,0,112,106,1,3,0,0,0,0,1,108,0,1,0,0,0,105,3,0,0,114,114,0,0,0,0,0,0,0,0,0,0,0,0,0,0,0,0,0,0,0,0,0,0,0,0,0,0,0,0,0,0,0,0,0,0],"split_type":[0,0,0,0,0,0,0,0,0,0,0,0,0,0,0,0,0,0,0,0,0,0,0,0,0,0,0,0,0,0,0,0,0,0,0,0,0,0,0,0,0,0,0,0,0,0,0,0,0,0,0,0,0,0,0,0,0,0,0,0,0,0,0,0,0,0,0,0,0,0,0,0,0,0,0,0,0,0,0,0,0,0,0,0,0,0,0,0,0],"sum_hessian":[8.804162E3,5.099295E3,3.7048672E3,4.8695864E3,2.297083E2,1.5065975E3,2.1982698E3,1.4581924E3,3.4113943E3,1.8797751E2,4.1730793E1,1.3875145E3,1.1908291E2,1.7751548E3,4.231149E2,1.0954379E3,3.6275446E2,1.7074264E3,1.7039679E3,1.631794E2,2.4798107E1,2.205018E1,1.9680613E1,9.962669E2,3.9124765E2,7.713874E1,4.1944168E1,1.7382954E3,3.6859398E1,3.0305597E2,1.2005892E2,9.984171E2,9.7020805E1,2.3559802E2,1.27156425E2,1.534244E3,1.7318236E2,1.4801631E3,2.2380478E2,1.282754E2,3.490399E1,8.234135E2,1.7285341E2,3.594242E2,3.1823456E1,5.416471E1,2.2974031E1,2.0781734E1,2.1162434E1,1.2623883E3,4.7590717E2,1.8383348E1,1.847605E1,1.266707E2,1.7638527E2,6.705656E1,5.3002365E1,4.0412955E2,5.9428754E2,7.390867E1,2.3112131E1,3.675937E1,1.9883865E2,8.094924E1,4.6207184E1,9.1510345E2,6.191405E2,1.0302405E2,7.015831E1,1.4009069E3,7.925627E1,9.824862E1,3.002678E1,4.9914133E2,3.2427222E2,5.992151E1,1.1293189E2,3.0510355E2,5.4320652E1,2.7195362E1,2.6969349E1,1.2368625E3,2.5525723E1,3.178224E2,1.5808478E2,8.096591E1,4.5704784E1,1.5837161E2,1.8013655E1],"tree_param":{"num_deleted":"0","num_feature":"116","num_nodes":"89","size_leaf_vector":"1"}},{"base_weights":[2.0154815E-3,-1.6942127E-2,2.6765258E0,-2.8514305E-1,3.300631E-1,-3.509022E-1,8.288643E-1,3.0304518E-1,2.492593E0,-4.080307E-1,-2.2904462E-1,2.2574455E-1,3.5327172E0,3.5519075E-1,-3.283851E-1,-4.326152E-1,-8.156247E-2,6.1722267E-2,-2.9420355E-1,4.332005E-2,1.0331653E0,3.0349287E-1,2.798879E0,-3.575227E-1,4.137498E-3,-2.0687293E-1,9.992126E-2,1.0182626E0,-2.159676E-1,-5.824265E-2,1.8623017E-1,-1.5475349E-1,-4.6442732E-2,2.419394E-1,-1.06501445E-1,1.624873E-1,-2.3605151E-1,-7.155936E-2,-1.9497085E-1],"categories":[],"categories_nodes":[],"categories_segments":[],"categories_sizes":[],"default_left":[0,0,0,0,0,0,0,0,0,0,0,0,0,0,0,0,0,0,0,0,0,0,0,0,0,0,0,0,0,0,0,0,0,0,0,0,0,0,0],"id":16,"left_children":[1,3,-1,5,7,9,11,13,-1,15,17,19,-1,21,23,25,27,29,31,33,-1,35,-1,37,-1,-1,-1,-1,-1,-1,-1,-1,-1,-1,-1,-1,-1,-1,-1],"loss_changes":[9.375162E2,8.100846E2,0E0,3.599496E2,5.0547546E2,3.2184692E1,1.0968512E3,1.2441785E2,0E0,2.5290588E1,2.809999E1,9.013103E1,0E0,1.00231995E3,2.8372211E0,1.0037598E1,1.87662E2,1.6788706E1,7.8810043E0,2.9312971E1,0E0,1.1242529E2,0E0,2.956131E0,0E0,0E0,0E0,0E0,0E0,0E0,0E0,0E0,0E0,0E0,0E0,0E0,0E0,0E0,0E0],"parents":[2147483647,0,0,1,1,3,3,4,4,5,5,6,6,7,7,9,9,10,10,11,11,13,13,14,14,15,15,16,16,17,17,18,18,19,19,21,21,23,23],"right_children":[2,4,-1,6,8,10,12,14,-1,16,18,20,-1,22,24,26,28,30,32,34,-1,36,-1,38,-1,-1,-1,-1,-1,-1,-1,-1,-1,-1,-1,-1,-1,-1,-1],"split_conditions":[1E0,2E0,2.6765258E0,3E0,1E0,4E0,2E0,1.6260314E9,2.492593E0,1.6155057E9,2E0,1.6153641E9,3.5327172E0,1.6243218E9,1E0,1E0,1.6254387E9,1.5362856E9,9E0,2E0,1.0331653E0,2.1E1,2.798879E0,1.6403424E9,4.137498E-3,-2.0687293E-1,9.992126E-2,1.0182626E0,-2.159676E-1,-5.824265E-2,1.8623017E-1,-1.5475349E-1,-4.6442732E-2,2.419394E-1,-1.06501445E-1,1.624873E-1,-2.3605151E-1,-7.155936E-2,-1.9497085E-1],"split_indices":[30,3,0,105,78,106,2,113,0,113,108,114,0,113,5,78,114,113,106,108,0,2,0,114,0,0,0,0,0,0,0,0,0,0,0,0,0,0,0],"split_type":[0,0,0,0,0,0,0,0,0,0,0,0,0,0,0,0,0,0,0,0,0,0,0,0,0,0,0,0,0,0,0,0,0,0,0,0,0,0,0],"sum_hessian":[8.730428E3,8.702294E3,2.8133749E1,4.908604E3,3.79369E3,4.6356494E3,2.729544E2,3.7741343E3,1.955574E1,3.154451E3,1.4811986E3,2.5120114E2,2.175327E1,3.486634E3,2.8750018E2,2.93324E3,2.2121089E2,2.7117105E2,1.2100276E3,2.3075783E2,2.0443323E1,3.4556099E3,3.1024166E1,2.6457388E2,2.2926273E1,2.9097893E3,2.3450804E1,3.1120174E1,1.9009071E2,1.7462721E2,9.654384E1,1.0334027E3,1.7662483E2,8.37555E1,1.4700232E2,3.290513E3,1.650969E2,5.666146E1,2.0791245E2],"tree_param":{"num_deleted":"0","num_feature":"116","num_nodes":"39","size_leaf_vector":"1"}},{"base_weights":[7.562189E-3,-1.1704119E-1,2.374344E0,-1.2877733E-1,2.0880065E0,1.375208E0,4.859975E0,-3.1373838E-1,4.5750402E-2,-1.8754426E-1,7.9383316E0,-4.098496E-1,8.237889E-1,-2.5171252E-2,1.2277775E0,4.465969E-1,-2.462851E-1,1.663712E0,4.77697E0,-4.3767947E-1,1.5477812E0,2.148151E-1,3.301497E0,9.354751E-2,-2.4715407E-1,4.3821597E0,-1.8621843E-2,-2.4303389E-1,1.4071839E0,-2.1979432E-1,4.5738047E-1,1.0759598E0,-4.6727404E-2,1.5227643E-2,4.2289495E0,-2.4617313E-1,2.0622613E0,2.1750677E0,-2.4049893E-1],"categories":[],"categories_nodes":[],"categories_segments":[],"categories_sizes":[],"default_left":[0,0,0,0,0,0,0,0,0,0,0,0,0,0,0,0,0,0,0,0,0,0,0,0,0,0,0,0,0,0,0,0,0,0,0,0,0,0,0],"id":17,"left_children":[1,3,5,7,-1,9,-1,11,13,15,17,19,21,23,25,27,-1,-1,-1,29,-1,31,-1,33,-1,-1,35,-1,37,-1,-1,-1,-1,-1,-1,-1,-1,-1,-1],"loss_changes":[2.5968135E3,4.4594855E2,3.467466E3,2.6938257E2,0E0,4.0238281E3,0E0,4.4326266E2,3.6002142E2,6.747918E1,6.8844385E2,3.847055E2,1.184598E3,2.3960312E2,2.4385215E3,1.0236058E2,0E0,0E0,0E0,1.4409503E2,0E0,1.8696588E2,0E0,1.777275E3,0E0,0E0,4.6808606E2,0E0,3.4126846E2,0E0,0E0,0E0,0E0,0E0,0E0,0E0,0E0,0E0,0E0],"parents":[2147483647,0,0,1,1,2,2,3,3,5,5,7,7,8,8,9,9,10,10,11,11,12,12,13,13,14,14,15,15,19,19,21,21,23,23,26,26,28,28],"right_children":[2,4,6,8,-1,10,-1,12,14,16,18,20,22,24,26,28,-1,-1,-1,30,-1,32,-1,34,-1,-1,36,-1,38,-1,-1,-1,-1,-1,-1,-1,-1,-1,-1],"split_conditions":[1E0,1E0,5E0,1E0,2.0880065E0,1.6320972E9,4.859975E0,9E0,1.6460835E9,2E0,3.5849626E0,1E0,3.88018E0,1.5756479E9,1.6474569E9,3.6133373E0,-2.462851E-1,1.663712E0,4.77697E0,1E0,1.5477812E0,1E1,3.301497E0,1.5749108E9,-2.4715407E-1,4.3821597E0,3E0,-2.4303389E-1,3.7216117E0,-2.1979432E-1,4.5738047E-1,1.0759598E0,-4.6727404E-2,1.5227643E-2,4.2289495E0,-2.4617313E-1,2.0622613E0,2.1750677E0,-2.4049893E-1],"split_indices":[6,28,2,4,0,113,0,104,113,104,0,67,0,114,113,0,0,0,0,76,0,104,0,114,0,0,108,0,0,0,0,0,0,0,0,0,0,0,0],"split_type":[0,0,0,0,0,0,0,0,0,0,0,0,0,0,0,0,0,0,0,0,0,0,0,0,0,0,0,0,0,0,0,0,0,0,0,0,0,0,0],"sum_hessian":[8.80353E3,8.364136E3,4.3939404E2,8.343523E3,2.0612919E1,3.9117325E2,4.8220795E1,4.0502986E3,4.2932246E3,3.1672818E2,7.444505E1,3.7353347E3,3.1496387E2,4.051135E3,2.420895E2,1.0909919E2,2.07629E2,2.541112E1,4.9033936E1,3.708218E3,2.7116653E1,2.8758786E2,2.7375996E1,3.2719028E3,7.792321E2,3.1601849E1,2.1048764E2,5.4769657E1,5.432953E1,3.6376052E3,7.0612915E1,3.7140625E1,2.5044724E2,3.250406E3,2.149688E1,1.8963382E2,2.0853825E1,1.9836193E1,3.4493336E1],"tree_param":{"num_deleted":"0","num_feature":"116","num_nodes":"39","size_leaf_vector":"1"}},{"base_weights":[2.029848E-3,-3.0188504E-1,1.31074E0,-3.4330627E-1,2.1733763E0,1.1006119E0,6.9322863E0,-3.6407256E-1,1.4731251E0,8.0081534E-1,3.7385552E0,2.009099E0,1.897912E-1,4.582503E0,5.049572E-1,-3.7675747E-1,1.4570383E0,-2.4283007E-1,2.518595E0,2.0731654E0,-2.4231094E-1,4.7402253E0,8.3277595E-1,1.1575519E0,-1.4913028E-1,-3.8550088E-1,1.0605624E0,1.6742204E0,-2.3783962E-1,2.0142252E0,-2.3688024E-1,3.5363479E0,6.8800807E0,1.5609668E0,-3.7196955E-1,3.8821337E0,1.0934934E-1,1.08571716E-1,-2.4644955E-1,-1.108567E-1,-2.1546085E-1,2.058078E0,-2.3836632E-1,3.596682E0,2.2274756E0,5.8999884E-1,2.3621786E0,-2.4607705E-1,1.8482074E-1,1.2696669E0,2.3519824E0,-1.2403306E-1,8.0508417E-1,2.1250182E-1,-2.4547412E-1],"categories":[],"categories_nodes":[],"categories_segments":[],"categories_sizes":[],"default_left":[0,0,0,0,0,0,0,0,0,0,0,0,0,0,0,0,0,0,0,0,0,0,0,0,0,0,0,0,0,0,0,0,0,0,0,0,0,0,0,0,0,0,0,0,0,0,0,0,0,0,0,0,0,0,0],"id":18,"left_children":[1,3,5,7,9,11,13,15,17,19,-1,21,23,-1,-1,25,27,-1,-1,29,-1,31,33,35,37,39,-1,-1,-1,-1,-1,41,43,45,47,49,51,53,-1,-1,-1,-1,-1,-1,-1,-1,-1,-1,-1,-1,-1,-1,-1,-1,-1],"loss_changes":[3.4913066E3,7.311231E2,1.9464888E3,2.648546E2,9.184317E2,1.3201505E3,9.537483E2,1.6061041E2,6.1144293E2,1.6126259E2,0E0,2.562519E3,2.619175E2,0E0,0E0,1.5860626E2,1.9869702E2,0E0,0E0,2.7779938E2,0E0,5.946577E2,4.914871E2,5.9103467E2,5.6879505E1,7.29043E1,0E0,0E0,0E0,0E0,0E0,5.184564E2,9.970215E1,3.6834802E2,2.4249056E1,6.193683E1,8.975524E1,7.540303E1,0E0,0E0,0E0,0E0,0E0,0E0,0E0,0E0,0E0,0E0,0E0,0E0,0E0,0E0,0E0,0E0,0E0],"parents":[2147483647,0,0,1,1,2,2,3,3,4,4,5,5,6,6,7,7,8,8,9,9,11,11,12,12,15,15,16,16,19,19,21,21,22,22,23,23,24,24,25,25,31,31,32,32,33,33,34,34,35,35,36,36,37,37],"right_children":[2,4,6,8,10,12,14,16,18,20,-1,22,24,-1,-1,26,28,-1,-1,30,-1,32,34,36,38,40,-1,-1,-1,-1,-1,42,44,46,48,50,52,54,-1,-1,-1,-1,-1,-1,-1,-1,-1,-1,-1,-1,-1,-1,-1,-1,-1],"split_conditions":[1E0,1E0,1E0,1E0,1.6005537E9,3.4713545E0,2E0,1E0,3.7843685E0,2E0,3.7385552E0,1E0,1.9E1,4.582503E0,5.049572E-1,1E0,3.2389011E0,-2.4283007E-1,2.518595E0,2E0,-2.4231094E-1,2E0,1.3198536E9,1E0,3.8414474E0,2E0,1.0605624E0,1.6742204E0,-2.3783962E-1,2.0142252E0,-2.3688024E-1,1E0,1E0,3.4528196E0,2E0,1.7E1,3.7159321E0,2E0,-2.4644955E-1,-1.108567E-1,-2.1546085E-1,2.058078E0,-2.3836632E-1,3.596682E0,2.2274756E0,5.8999884E-1,2.3621786E0,-2.4607705E-1,1.8482074E-1,1.2696669E0,2.3519824E0,-1.2403306E-1,8.0508417E-1,2.1250182E-1,-2.4547412E-1],"split_indices":[112,25,54,9,114,0,104,54,0,104,0,104,1,0,0,30,0,0,0,3,0,3,113,104,0,104,0,0,0,0,0,4,4,0,105,1,0,104,0,0,0,0,0,0,0,0,0,0,0,0,0,0,0,0,0],"split_type":[0,0,0,0,0,0,0,0,0,0,0,0,0,0,0,0,0,0,0,0,0,0,0,0,0,0,0,0,0,0,0,0,0,0,0,0,0,0,0,0,0,0,0,0,0,0,0,0,0,0,0,0,0,0,0],"sum_hessian":[8.775944E3,7.1226562E3,1.6532877E3,7.006274E3,1.1638228E2,1.5948688E3,5.8418903E1,6.927871E3,7.840311E1,9.484224E1,2.1540037E1,7.978536E2,7.970152E2,3.9243664E1,1.9175238E1,6.8807363E3,4.713455E1,5.232052E1,2.6082588E1,4.788573E1,4.695651E1,2.3927878E2,5.585748E2,2.0609981E2,5.909154E2,6.8587144E3,2.2021866E1,2.2440975E1,2.4693575E1,2.5519596E1,2.2366133E1,1.5482643E2,8.4452354E1,3.4795984E2,2.1061496E2,5.6510098E1,1.495897E2,3.4970367E2,2.4121175E2,2.1869548E3,4.67176E3,1.2864656E2,2.6179873E1,6.121778E1,2.3234571E1,3.2025397E2,2.7705854E1,1.7649883E2,3.411613E1,2.8691645E1,2.7818453E1,1.21979935E2,2.7609776E1,2.2679189E2,1.2291178E2],"tree_param":{"num_deleted":"0","num_feature":"116","num_nodes":"55","size_leaf_vector":"1"}},{"base_weights":[-7.6242294E-3,-1.8167725E-1,8.156481E0,-2.1846353E-1,6.614712E0,-2.3763484E-1,9.472172E0,-2.4543656E-1,3.0221243E0,1.510281E0,4.0949006E0,4.733416E0,3.517955E0,-2.7628E-1,1.0911113E0,-3.73414E-1,-3.693213E-2,6.673897E-1,1.8457772E0,-1.7967986E-1,1.22504145E-1,1.2614408E0,-1.7247324E-1,1.9152673E-1,1.3317714E0],"categories":[],"categories_nodes":[],"categories_segments":[],"categories_sizes":[],"default_left":[0,0,0,0,0,0,0,0,0,0,0,0,0,0,0,0,0,0,0,0,0,0,0,0,0],"id":19,"left_children":[1,3,5,7,9,-1,11,13,-1,-1,-1,-1,-1,15,17,19,21,23,-1,-1,-1,-1,-1,-1,-1],"loss_changes":[1.2494633E4,2.1538987E3,2.0959365E3,1.5296628E3,2.97708E2,0E0,1.01958984E2,3.5194537E2,0E0,0E0,0E0,0E0,0E0,1.9384735E2,2.2719583E2,2.6011597E1,2.1400737E3,9.390751E1,0E0,0E0,0E0,0E0,0E0,0E0,0E0],"parents":[2147483647,0,0,1,1,2,2,3,3,4,4,6,6,7,7,13,13,14,14,15,15,16,16,17,17],"right_children":[2,4,6,8,10,-1,12,14,-1,-1,-1,-1,-1,16,18,20,22,24,-1,-1,-1,-1,-1,-1,-1],"split_conditions":[1E0,1E0,1.8E1,1E0,1.4236273E9,-2.3763484E-1,3.697846E0,1E0,3.0221243E0,1.510281E0,4.0949006E0,4.733416E0,3.517955E0,1.441332E9,1E0,1E0,1.4993928E9,2E0,1.8457772E0,-1.7967986E-1,1.22504145E-1,1.2614408E0,-1.7247324E-1,1.9152673E-1,1.3317714E0],"split_indices":[23,10,1,39,113,0,0,13,0,0,0,0,0,113,2,68,114,3,0,0,0,0,0,0,0],"split_type":[0,0,0,0,0,0,0,0,0,0,0,0,0,0,0,0,0,0,0,0,0,0,0,0,0],"sum_hessian":[8.790882E3,8.608336E3,1.8254596E2,8.562955E3,4.538018E1,2.4158674E1,1.5838728E2,8.529142E3,3.3813923E1,1.7987297E1,2.7392881E1,1.2161668E2,3.6770607E1,8.33753E3,1.9161122E2,5.930292E3,2.4072383E3,1.6762376E2,2.398746E1,5.8666665E3,6.3625824E1,2.594823E2,2.1477559E3,1.5048692E2,1.7136837E1],"tree_param":{"num_deleted":"0","num_feature":"116","num_nodes":"25","size_leaf_vector":"1"}},{"base_weights":[-2.1264318E-3,-1.3912848E-1,4.6985212E-1,-1.8039295E-1,1.5334194E0,8.485986E-1,-1.751471E-1,-6.500862E-2,-4.2907745E-1,-4.540132E-1,7.048648E0,1.039075E0,-3.7861347E-1,-3.864058E-1,-3.37208E-2,-8.513799E-2,1.2101473E0,-3.686953E-1,-4.7615036E-1,-2.4509114E-1,-3.4264263E-2,2.0354075E0,4.1015296E0,1.3008903E0,3.4983572E-1,-2.2463292E-1,-1.2989312E-1,-2.0007998E-1,-2.025907E-1,1.2211273E-1,-3.0558178E-1,-1.5443559E-2,-3.621583E-1,1.5572843E-1,-3.8554123E-1,-2.099236E-1,-2.4694972E-1,1.6582819E0,8.1856406E-1,5.6222E-1,-2.0075975E-1,-2.3936729E-1,2.2716127E-1,3.0984439E-2,-1.6474822E-1,3.8564244E-1,-2.8082532E-1,-3.6792573E-1,4.9577966E-2,8.112015E-3,-1.5478717E-1,-1.406683E-1,-2.377267E-1,-1.8744007E-1,7.503093E-3,5.133567E-1,9.6132135E-1,1.754869E-1,7.418806E-1,3.3074042E-1,9.994847E-3,1.7750116E-1,-1.683209E-1,2.4187519E-1,-2.3609596E-1,-1.8151854E-1,-9.000365E-3,-6.717025E-2,-2.1920623E-1],"categories":[],"categories_nodes":[],"categories_segments":[],"categories_sizes":[],"default_left":[0,0,0,0,0,0,0,0,0,0,0,0,0,0,0,0,0,0,0,0,0,0,0,0,0,0,0,0,0,0,0,0,0,0,0,0,0,0,0,0,0,0,0,0,0,0,0,0,0,0,0,0,0,0,0,0,0,0,0,0,0,0,0,0,0,0,0,0,0],"id":20,"left_children":[1,3,5,7,9,11,13,15,17,19,21,23,25,27,29,31,-1,33,35,-1,-1,-1,-1,37,39,-1,41,-1,43,45,47,49,51,-1,53,-1,-1,55,57,59,61,-1,-1,-1,-1,63,65,67,-1,-1,-1,-1,-1,-1,-1,-1,-1,-1,-1,-1,-1,-1,-1,-1,-1,-1,-1,-1,-1],"loss_changes":[5.6940906E2,4.7130597E2,4.841056E2,1.9111679E2,1.8055544E3,2.9219415E2,2.1909523E1,2.4084613E2,5.824768E0,2.9717216E0,1.577732E2,1.9459082E2,3.9962635E0,1.9197006E0,1.8703821E1,8.72175E1,0E0,1.1058128E1,1.5197144E0,0E0,0E0,0E0,0E0,1.3360645E2,3.5067772E1,0E0,1.1423597E1,0E0,2.0333688E0,2.9923845E1,4.154689E0,3.6767914E1,8.099106E0,0E0,4.088867E0,0E0,0E0,9.437573E1,1.1208423E2,1.609275E1,7.6594725E0,0E0,0E0,0E0,0E0,1.9289288E1,3.0131216E0,2.9665089E0,0E0,0E0,0E0,0E0,0E0,0E0,0E0,0E0,0E0,0E0,0E0,0E0,0E0,0E0,0E0,0E0,0E0,0E0,0E0,0E0,0E0],"parents":[2147483647,0,0,1,1,2,2,3,3,4,4,5,5,6,6,7,7,8,8,9,9,10,10,11,11,12,12,13,13,14,14,15,15,17,17,18,18,23,23,24,24,26,26,28,28,29,29,30,30,31,31,32,32,34,34,37,37,38,38,39,39,40,40,45,45,46,46,47,47],"right_children":[2,4,6,8,10,12,14,16,18,20,22,24,26,28,30,32,-1,34,36,-1,-1,-1,-1,38,40,-1,42,-1,44,46,48,50,52,-1,54,-1,-1,56,58,60,62,-1,-1,-1,-1,64,66,68,-1,-1,-1,-1,-1,-1,-1,-1,-1,-1,-1,-1,-1,-1,-1,-1,-1,-1,-1,-1,-1],"split_conditions":[4E0,1E0,1E0,2.2E1,1.9E1,2E0,5E0,1E0,2.6E1,1E0,3.6133373E0,3.54978E0,2E0,1.6133828E9,1.6082392E9,1E0,1.2101473E0,3.3035088E0,3E0,-2.4509114E-1,-3.4264263E-2,2.0354075E0,4.1015296E0,5E0,2.1E1,-2.2463292E-1,1E0,-2.0007998E-1,3.3221793E0,1E0,1E1,6E0,6E0,1.5572843E-1,3E0,-2.099236E-1,-2.4694972E-1,3E0,7E0,3.7419627E0,2E0,-2.3936729E-1,2.2716127E-1,3.0984439E-2,-1.6474822E-1,2.2E1,3.4549868E0,1.5816164E9,4.9577966E-2,8.112015E-3,-1.5478717E-1,-1.406683E-1,-2.377267E-1,-1.8744007E-1,7.503093E-3,5.133567E-1,9.6132135E-1,1.754869E-1,7.418806E-1,3.3074042E-1,9.994847E-3,1.7750116E-1,-1.683209E-1,2.4187519E-1,-2.3609596E-1,-1.8151854E-1,-9.000365E-3,-6.717025E-2,-2.1920623E-1],"split_indices":[106,13,107,1,1,3,106,78,1,108,0,0,108,114,114,107,0,0,2,0,0,0,0,104,1,0,4,0,0,105,106,104,104,0,106,0,0,104,106,0,108,0,0,0,0,1,0,113,0,0,0,0,0,0,0,0,0,0,0,0,0,0,0,0,0,0,0,0,0],"split_type":[0,0,0,0,0,0,0,0,0,0,0,0,0,0,0,0,0,0,0,0,0,0,0,0,0,0,0,0,0,0,0,0,0,0,0,0,0,0,0,0,0,0,0,0,0,0,0,0,0,0,0,0,0,0,0,0,0,0,0,0,0,0,0,0,0,0,0,0,0],"sum_hessian":[8.803917E3,6.8238506E3,1.9800659E3,6.6604194E3,1.6343121E2,1.2473188E3,7.32747E2,4.5503945E3,2.110025E3,1.2081336E2,4.2617855E1,1.0798655E3,1.6745338E2,2.9313617E2,4.3961087E2,4.5167456E3,3.3649014E1,9.2820886E2,1.181816E3,1.0297351E2,1.7839855E1,1.7270779E1,2.5347076E1,7.819468E2,2.979187E2,1.1986468E2,4.7588703E1,2.4283017E2,5.0305984E1,2.7978564E2,1.5982521E2,3.609661E3,9.0708453E2,2.1426968E1,9.067819E2,7.083036E2,4.7351242E2,4.477427E2,3.342041E2,2.1497433E2,8.294436E1,2.9537024E1,1.805168E1,1.7937407E1,3.2368576E1,1.6918086E2,1.10604805E2,1.3884344E2,2.098177E1,3.2690872E3,3.405737E2,6.248137E2,2.8227084E2,8.821728E2,2.4609116E1,1.7932903E2,2.6841367E2,2.1049767E2,1.2370642E2,1.7109299E2,4.3881344E1,1.7321442E1,6.562292E1,1.4842574E2,2.0755125E1,7.8954666E1,3.1650135E1,4.2183937E1,9.665951E1],"tree_param":{"num_deleted":"0","num_feature":"116","num_nodes":"69","size_leaf_vector":"1"}},{"base_weights":[2.323106E-3,-4.639114E-1,5.466885E-1,-4.7016814E-1,1.8296818E-1,4.757402E-1,7.068232E0,-4.7604108E-1,-1.3158636E-1,1.1380463E0,6.813136E-2,2.5749135E0,3.7544014E0,-4.8810977E-1,-3.5465574E-1,-2.434111E-1,4.5298716E-1,4.6398304E-2,1.9413928E0,-2.581068E-1,3.517112E-1,-2.313763E-1,-1.178952E-1,-2.0241651E-1,-2.462377E-1,-4.7101757E-1,1.2688812E0,2.2232447E0,-2.4476175E-1,-3.5848904E-1,-2.1438468E-2,7.300707E-1,-2.2479546E-1,-2.4370182E-1,-3.3159595E-2,-2.2999889E-1,-3.1703785E-2,-2.4096023E-1,8.00073E-1,1.5801406E0,7.048314E-1,-1.1928497E-1,-2.2705843E-1,-1.5084559E-1,2.8002855E-1,1.068372E-1,7.913714E-1,-3.8876396E-2,-2.4602659E-1],"categories":[],"categories_nodes":[],"categories_segments":[],"categories_sizes":[],"default_left":[0,0,0,0,0,0,0,0,0,0,0,0,0,0,0,0,0,0,0,0,0,0,0,0,0,0,0,0,0,0,0,0,0,0,0,0,0,0,0,0,0,0,0,0,0,0,0,0,0],"id":21,"left_children":[1,3,5,7,-1,9,11,13,15,17,19,-1,-1,21,23,-1,-1,25,27,29,31,-1,-1,33,-1,35,37,39,-1,41,43,45,47,-1,-1,-1,-1,-1,-1,-1,-1,-1,-1,-1,-1,-1,-1,-1,-1],"loss_changes":[2.2305637E3,2.5393982E1,1.8726549E3,9.282959E0,0E0,1.0830107E3,1.8612549E1,6.5942383E0,3.459268E1,1.3402759E3,2.2995274E2,0E0,0E0,1.5130615E0,1.0579025E1,0E0,0E0,4.110866E2,6.114785E2,2.7455177E1,2.901914E2,0E0,0E0,9.155479E0,0E0,2.883583E0,1.4683545E2,6.4299316E2,0E0,1.0384949E1,6.336168E1,3.8202048E2,2.2210114E1,0E0,0E0,0E0,0E0,0E0,0E0,0E0,0E0,0E0,0E0,0E0,0E0,0E0,0E0,0E0,0E0],"parents":[2147483647,0,0,1,1,2,2,3,3,5,5,6,6,7,7,8,8,9,9,10,10,13,13,14,14,17,17,18,18,19,19,20,20,23,23,25,25,26,26,27,27,29,29,30,30,31,31,32,32],"right_children":[2,4,6,8,-1,10,12,14,16,18,20,-1,-1,22,24,-1,-1,26,28,30,32,-1,-1,34,-1,36,38,40,-1,42,44,46,48,-1,-1,-1,-1,-1,-1,-1,-1,-1,-1,-1,-1,-1,-1,-1,-1],"split_conditions":[1E0,1E0,1.6738593E9,1E0,1.8296818E-1,3E0,3.3758147E0,3.9749374E0,3.4632804E0,1E0,2E0,2.5749135E0,3.7544014E0,1E0,4E1,-2.434111E-1,4.5298716E-1,2E0,2E0,1E0,7E0,-2.313763E-1,-1.178952E-1,1E0,-2.462377E-1,3.824863E0,2E0,2E0,-2.4476175E-1,1.3198536E9,1.5924396E9,1E0,2.2E1,-2.4370182E-1,-3.3159595E-2,-2.2999889E-1,-3.1703785E-2,-2.4096023E-1,8.00073E-1,1.5801406E0,7.048314E-1,-1.1928497E-1,-2.2705843E-1,-1.5084559E-1,2.8002855E-1,1.068372E-1,7.913714E-1,-3.8876396E-2,-2.4602659E-1],"split_indices":[108,93,113,54,0,104,0,0,0,4,108,0,0,86,1,0,0,3,3,107,104,0,0,2,0,0,106,104,0,113,114,107,104,0,0,0,0,0,0,0,0,0,0,0,0,0,0,0,0],"split_type":[0,0,0,0,0,0,0,0,0,0,0,0,0,0,0,0,0,0,0,0,0,0,0,0,0,0,0,0,0,0,0,0,0,0,0,0,0,0,0,0,0,0,0,0,0,0,0,0,0],"sum_hessian":[8.786601E3,4.733032E3,4.0535688E3,4.69894E3,3.409235E1,4.0110059E3,4.2563038E1,4.6184243E3,8.0515434E1,1.5274027E3,2.483603E3,1.7512459E1,2.5050577E1,4.198016E3,4.2040814E2,5.9950798E1,2.0564636E1,6.479615E2,8.794412E2,1.1549762E3,1.3286268E3,4.1684404E3,2.9575756E1,2.2079321E2,1.9961493E2,4.557008E2,1.9226067E2,7.891067E2,9.033459E1,8.106334E2,3.4434274E2,8.020063E2,5.266206E2,6.465195E1,1.5614127E2,4.38339E2,1.7361832E1,3.7007854E1,1.552528E2,3.1009067E2,4.79016E2,4.35581E2,3.7505246E2,2.3220885E2,1.12133896E2,5.238766E2,2.781297E2,3.5632312E2,1.7029745E2],"tree_param":{"num_deleted":"0","num_feature":"116","num_nodes":"49","size_leaf_vector":"1"}},{"base_weights":[1.8172465E-2,1.8353376E-1,-2.6977676E-1,2.7127394E-1,-3.6713603E-1,-3.7852243E-1,1.6982192E-1,1.09379284E-1,8.8180065E-1,-4.133131E-1,5.067732E-1,-4.1516185E-1,7.485147E-2,7.7827775E-1,-4.3075642E-1,-3.5853717E-2,3.485755E-1,1.4146188E0,4.4683974E-2,-4.624215E-1,4.2543015E-1,-4.2925602E-1,2.0405853E-1,7.92769E-1,-2.7409837E-1,1.4611323E-1,1.4916999E0,-2.4489157E-1,3.0357365E-2,-8.7496035E-2,6.9073874E-1,2.0002376E-1,1.0323092E0,1.080337E0,2.7967262E0,1.6944312E0,-1.7777744E-1,-5.0982004E-1,-1.9028403E-1,-4.3626317E-1,1.702772E-2,-2.3450036E-1,5.8308536E-1,4.7740005E-2,-2.4060301E-1,5.1469743E-1,-2.4256621E-1,7.2325684E-2,2.4934592E0,-3.1680474E-1,2.9214782E-1,-6.2720954E-2,2.4347468E-1,7.511944E-1,1.9952722E-1,-1.85955E-1,1.3544354E-1,7.2495776E-1,-2.5433236E-1,-2.851419E-2,9.649062E-1,2.249247E0,6.322633E-1,6.6519684E-1,-1.4840084E-1,-2.5514603E-1,-1.49381785E-2,-2.5187516E-1,1.6556379E-1,-2.0940226E-1,-2.6852624E-2,-2.3806354E-1,3.6180803E-1,-4.7519873E-3,7.3614305E-1,-2.5051892E-1,4.189431E-1,2.217934E0,2.8708625E-1],"categories":[],"categories_nodes":[],"categories_segments":[],"categories_sizes":[],"default_left":[0,0,0,0,0,0,0,0,0,0,0,0,0,0,0,0,0,0,0,0,0,0,0,0,0,0,0,0,0,0,0,0,0,0,0,0,0,0,0,0,0,0,0,0,0,0,0,0,0,0,0,0,0,0,0,0,0,0,0,0,0,0,0,0,0,0,0,0,0,0,0,0,0,0,0,0,0,0,0],"id":22,"left_children":[1,3,5,7,9,11,13,15,17,19,-1,21,23,25,27,29,31,33,35,37,-1,39,41,-1,43,45,47,-1,49,51,53,55,57,59,61,-1,63,65,67,69,-1,-1,-1,71,-1,73,-1,75,77,-1,-1,-1,-1,-1,-1,-1,-1,-1,-1,-1,-1,-1,-1,-1,-1,-1,-1,-1,-1,-1,-1,-1,-1,-1,-1,-1,-1,-1,-1],"loss_changes":[3.5517825E2,2.290284E2,1.3014328E2,4.0392142E2,4.3766502E1,3.6272766E1,1.9778261E2,1.1228849E2,3.819997E2,4.1197952E1,0E0,1.7706116E1,9.2194725E1,1.2099153E2,1.1024712E1,7.555185E1,1.2381987E2,2.387937E2,2.6395248E2,7.7710114E0,0E0,6.452301E0,3.3516945E1,0E0,1.0282153E1,3.5173355E1,1.7919589E2,0E0,1.8737188E1,5.134604E1,3.15802E1,5.1783512E1,1.7253952E2,4.6441104E2,2.8382947E2,0E0,6.8628586E1,7.485199E0,1.72565E1,5.116699E0,0E0,0E0,0E0,2.3414322E1,0E0,5.073065E1,0E0,2.6592245E1,3.0401242E2,0E0,0E0,0E0,0E0,0E0,0E0,0E0,0E0,0E0,0E0,0E0,0E0,0E0,0E0,0E0,0E0,0E0,0E0,0E0,0E0,0E0,0E0,0E0,0E0,0E0,0E0,0E0,0E0,0E0,0E0],"parents":[2147483647,0,0,1,1,2,2,3,3,4,4,5,5,6,6,7,7,8,8,9,9,11,11,12,12,13,13,14,14,15,15,16,16,17,17,18,18,19,19,21,21,22,22,24,24,25,25,26,26,28,28,29,29,30,30,31,31,32,32,33,33,34,34,36,36,37,37,38,38,39,39,43,43,45,45,47,47,48,48],"right_children":[2,4,6,8,10,12,14,16,18,20,-1,22,24,26,28,30,32,34,36,38,-1,40,42,-1,44,46,48,-1,50,52,54,56,58,60,62,-1,64,66,68,70,-1,-1,-1,72,-1,74,-1,76,78,-1,-1,-1,-1,-1,-1,-1,-1,-1,-1,-1,-1,-1,-1,-1,-1,-1,-1,-1,-1,-1,-1,-1,-1,-1,-1,-1,-1,-1,-1],"split_conditions":[2E0,1.6000054E9,2E0,1.402884E9,1.6798244E9,2E0,2E0,3E0,1E0,3.8279097E0,5.067732E-1,6E0,3E0,1E0,2E0,1E0,1.9E1,7E0,1.4601672E9,1E0,4.2543015E-1,6.3E1,1.6063032E9,7.92769E-1,3.4549868E0,3.932138E0,3.8820488E0,-2.4489157E-1,2.2E1,1E0,3.32734E0,1E1,1E0,1.4993928E9,1.5057E9,1.6944312E0,1E0,1E0,3.4528196E0,1E0,1.702772E-2,-2.3450036E-1,5.8308536E-1,4E0,-2.4060301E-1,3.7504647E0,-2.4256621E-1,4E0,3E0,-3.1680474E-1,2.9214782E-1,-6.2720954E-2,2.4347468E-1,7.511944E-1,1.9952722E-1,-1.85955E-1,1.3544354E-1,7.2495776E-1,-2.5433236E-1,-2.851419E-2,9.649062E-1,2.249247E0,6.322633E-1,6.6519684E-1,-1.4840084E-1,-2.5514603E-1,-1.49381785E-2,-2.5187516E-1,1.6556379E-1,-2.0940226E-1,-2.6852624E-2,-2.3806354E-1,3.6180803E-1,-4.7519873E-3,7.3614305E-1,-2.5051892E-1,4.189431E-1,2.217934E0,2.8708625E-1],"split_indices":[3,114,2,114,114,105,104,104,107,0,0,106,104,4,108,84,1,104,114,112,0,104,114,0,0,0,0,0,1,93,0,1,105,114,114,0,108,6,0,11,0,0,0,105,0,0,0,2,3,0,0,0,0,0,0,0,0,0,0,0,0,0,0,0,0,0,0,0,0,0,0,0,0,0,0,0,0,0,0],"split_type":[0,0,0,0,0,0,0,0,0,0,0,0,0,0,0,0,0,0,0,0,0,0,0,0,0,0,0,0,0,0,0,0,0,0,0,0,0,0,0,0,0,0,0,0,0,0,0,0,0,0,0,0,0,0,0,0,0,0,0,0,0,0,0,0,0,0,0,0,0,0,0,0,0,0,0,0,0,0,0],"sum_hessian":[7.457235E3,4.737171E3,2.720064E3,4.0865532E3,6.506176E2,2.180742E3,5.393219E2,3.2309695E3,8.555838E2,6.310903E2,1.9527346E1,2.017761E3,1.6298112E2,2.67757E2,2.715649E2,2.0108748E3,1.2200946E3,5.223941E2,3.3318964E2,6.0897546E2,2.2114834E1,1.9731564E3,4.4604515E1,2.8452871E1,1.3452824E2,1.4260197E2,1.2515502E2,2.2810931E2,4.3455597E1,1.8782577E3,1.3261697E2,1.00338605E3,2.1670863E2,4.2208795E2,1.00306175E2,1.8797106E1,3.1439255E2,5.178989E2,9.1076515E1,1.9439438E3,2.9212515E1,2.6859882E1,1.7744635E1,5.7135067E1,7.739318E1,9.161984E1,5.0982136E1,5.2227306E1,7.292772E1,1.9760506E1,2.3695093E1,1.7478107E3,1.3044711E2,2.9352175E1,1.0326479E2,1.2737115E2,8.760149E2,1.6422504E2,5.2483597E1,1.9354102E2,2.2854694E2,4.1778023E1,5.852815E1,2.4151342E1,2.902412E2,4.8698026E2,3.0918684E1,5.5745216E1,3.53313E1,1.9087245E3,3.521947E1,3.2481056E1,2.4654013E1,6.162098E1,2.9998863E1,3.0218176E1,2.2009129E1,3.2963223E1,3.9964497E1],"tree_param":{"num_deleted":"0","num_feature":"116","num_nodes":"79","size_leaf_vector":"1"}},{"base_weights":[1.4538077E-2,1.7150591E-1,-2.7470395E-1,3.053376E-1,-1.4258829E-1,-2.983362E-1,2.412304E-1,-9.1805145E-2,4.3209022E-1,-1.1368141E-1,-2.2090124E-1,-2.8344387E-1,-9.0082014E-1,-3.3227164E-1,9.401499E-1,6.8690345E-2,-2.4829572E-1,5.1352787E-1,-2.6689667E-1,-4.7661256E-2,-2.6251015E-1,-2.9300255E-1,1.2620795E-1,-1.055158E0,-2.5646082E-1,-1.1575296E-1,-2.3783813E-1,2.5834054E-1,-2.986416E-1,-3.7343186E-1,-1.2115693E-1,5.720063E-1,3.472824E-2,-4.4033217E-1,-2.7196992E-2,-8.827431E-2,4.5123112E-1,-3.3250913E-1,-8.850106E-2,-2.2306398E-1,-3.3930132E-1,-5.2421406E-2,2.4895646E-1,-6.17483E-1,-3.3477E-1,-2.611716E-1,1.7015857E-1,1.9560072E-1,-2.4899599E-1,-2.214866E-2,-1.7072281E-1,-1.9273132E-1,-7.894213E-2,-8.708503E-3,-2.062591E-1,2.4304174E-1,1.0324208E0,-1.861925E-1,1.6728652E-1,-2.3725809E-1,-1.2048108E-1,1.2154543E-1,-1.8798435E-1,-6.641678E-2,1.892693E-1,4.2730445E-1,-1.6914521E-1,3.3485424E-2,-1.7000258E-1,1.3977474E-1,-1.0694749E-1,-1.13078974E-1,2.1089987E-1,-1.4755556E-1,-2.0917843E-1],"categories":[],"categories_nodes":[],"categories_segments":[],"categories_sizes":[],"default_left":[0,0,0,0,0,0,0,0,0,0,0,0,0,0,0,0,0,0,0,0,0,0,0,0,0,0,0,0,0,0,0,0,0,0,0,0,0,0,0,0,0,0,0,0,0,0,0,0,0,0,0,0,0,0,0,0,0,0,0,0,0,0,0,0,0,0,0,0,0,0,0,0,0,0,0],"id":23,"left_children":[1,3,5,7,9,11,13,15,17,19,-1,21,23,25,-1,27,29,31,33,35,37,39,41,43,-1,45,-1,47,49,51,53,55,57,59,61,63,65,67,69,71,73,-1,-1,-1,-1,-1,-1,-1,-1,-1,-1,-1,-1,-1,-1,-1,-1,-1,-1,-1,-1,-1,-1,-1,-1,-1,-1,-1,-1,-1,-1,-1,-1,-1,-1],"loss_changes":[3.5308224E2,2.1194798E2,3.3428253E1,1.7799765E2,1.4102524E1,2.3219955E1,1.2138614E2,2.15199E1,1.5269641E2,1.3596941E1,0E0,1.0040649E1,2.8888397E0,3.3325768E0,0E0,2.9576267E1,6.854698E0,6.71994E1,1.164175E1,1.950491E1,5.1520977E0,8.009048E0,5.6613626E0,2.802349E0,0E0,8.872013E0,0E0,3.4428055E1,2.2670126E0,1.4849072E0,7.010289E0,1.975799E2,3.6070805E1,1.735651E0,1.2624358E1,2.2795345E1,2.690838E1,3.365509E0,6.6058598E0,1.098053E1,4.0493164E0,0E0,0E0,0E0,0E0,0E0,0E0,0E0,0E0,0E0,0E0,0E0,0E0,0E0,0E0,0E0,0E0,0E0,0E0,0E0,0E0,0E0,0E0,0E0,0E0,0E0,0E0,0E0,0E0,0E0,0E0,0E0,0E0,0E0,0E0],"parents":[2147483647,0,0,1,1,2,2,3,3,4,4,5,5,6,6,7,7,8,8,9,9,11,11,12,12,13,13,15,15,16,16,17,17,18,18,19,19,20,20,21,21,22,22,23,23,25,25,27,27,28,28,29,29,30,30,31,31,32,32,33,33,34,34,35,35,36,36,37,37,38,38,39,39,40,40],"right_children":[2,4,6,8,10,12,14,16,18,20,-1,22,24,26,-1,28,30,32,34,36,38,40,42,44,-1,46,-1,48,50,52,54,56,58,60,62,64,66,68,70,72,74,-1,-1,-1,-1,-1,-1,-1,-1,-1,-1,-1,-1,-1,-1,-1,-1,-1,-1,-1,-1,-1,-1,-1,-1,-1,-1,-1,-1,-1,-1,-1,-1,-1,-1],"split_conditions":[2E0,4E0,9E0,1.3E1,1.6276243E9,1E0,1E0,1E0,1E0,3E0,-2.2090124E-1,1E0,3E0,1E0,9.401499E-1,1E0,1E0,1.5445873E9,3E0,1.610548E9,3.5175595E0,3.4713545E0,3E0,3.2655833E0,-2.5646082E-1,1.1E1,-2.3783813E-1,4E0,2.9219282E0,1E0,1.5642579E9,1.5093324E9,1E0,3.7159321E0,3E0,1E0,5E0,2.8638263E0,3.5841837E0,4E0,3E0,-5.2421406E-2,2.4895646E-1,-6.17483E-1,-3.3477E-1,-2.611716E-1,1.7015857E-1,1.9560072E-1,-2.4899599E-1,-2.214866E-2,-1.7072281E-1,-1.9273132E-1,-7.894213E-2,-8.708503E-3,-2.062591E-1,2.4304174E-1,1.0324208E0,-1.861925E-1,1.6728652E-1,-2.3725809E-1,-1.2048108E-1,1.2154543E-1,-1.8798435E-1,-6.641678E-2,1.892693E-1,4.2730445E-1,-1.6914521E-1,3.3485424E-2,-1.7000258E-1,1.3977474E-1,-1.0694749E-1,-1.13078974E-1,2.1089987E-1,-1.4755556E-1,-2.0917843E-1],"split_indices":[3,106,2,1,114,13,5,106,2,108,0,11,104,104,0,112,4,113,2,114,0,0,106,0,0,2,0,2,0,5,113,113,107,0,104,112,104,0,0,2,3,0,0,0,0,0,0,0,0,0,0,0,0,0,0,0,0,0,0,0,0,0,0,0,0,0,0,0,0,0,0,0,0,0,0],"split_type":[0,0,0,0,0,0,0,0,0,0,0,0,0,0,0,0,0,0,0,0,0,0,0,0,0,0,0,0,0,0,0,0,0,0,0,0,0,0,0,0,0,0,0,0,0,0,0,0,0,0,0,0,0,0,0,0,0,0,0,0,0,0,0,0,0,0,0,0,0,0,0,0,0,0,0],"sum_hessian":[7.7748135E3,5.0400513E3,2.7347622E3,3.5341997E3,1.5058513E3,2.615387E3,1.19375404E2,8.551402E2,2.6790596E3,1.3840876E3,1.2176367E2,2.5537336E3,6.1653374E1,9.0504295E1,2.8871103E1,4.22445E2,4.326952E2,2.399736E3,2.7932346E2,9.5969086E2,4.2439685E2,2.4957825E3,5.7951153E1,4.171933E1,1.9934044E1,4.0696114E1,4.980818E1,2.7879987E2,1.4364516E2,2.1708876E2,2.1560643E2,2.1383706E3,2.6136542E2,1.6157692E2,1.1774655E2,8.8820807E2,7.1482796E1,3.0199994E2,1.2239693E2,9.964182E2,1.4993643E3,3.6860065E1,2.1091085E1,2.255692E1,1.9162409E1,2.1130013E1,1.9566103E1,2.3307303E2,4.5726837E1,2.8996532E1,1.1464863E2,1.8514429E2,3.1944468E1,1.6343764E2,5.2168793E1,2.0659617E3,7.240896E1,1.1146156E2,1.4990384E2,1.1985775E2,4.171917E1,6.679539E1,5.095116E1,8.030065E2,8.520154E1,4.5745415E1,2.573738E1,1.9059223E1,2.829407E2,3.2010727E1,9.03862E1,9.733836E2,2.3034594E1,1.1924323E3,3.0693192E2],"tree_param":{"num_deleted":"0","num_feature":"116","num_nodes":"75","size_leaf_vector":"1"}},{"base_weights":[3.4460276E-2,1.4232129E-1,-3.5109615E-1,3.7693188E-1,-1.4123084E-1,-4.3630368E-1,1.4127912E-1,8.386684E-2,1.1343726E0,3.0905506E-1,-3.1135917E-1,-5.148218E-1,-1.17433086E-1,1.180264E0,-6.704341E-2,5.59093E-1,-1.771043E-1,1.7955377E0,6.364995E-1,6.56006E-1,-2.5531033E-1,-3.3996016E-1,9.073587E-1,-2.6113573E-1,-6.0261175E-2,2.2833134E-1,-2.595974E-1,5.8836025E-1,-3.003185E-1,4.446551E-1,1.8424543E0,-1.6628895E-2,-4.2371067E-1,5.1749855E-1,2.795159E0,1.3067015E0,-5.4567385E-2,9.9209994E-1,-2.7797395E-1,-3.6816117E-1,1.0188843E0,-2.836153E-1,3.1466973E-1,-2.6133925E-1,5.526517E-1,-2.5336555E-1,3.6357236E-1,-7.742763E-2,4.1824073E-1,-6.023376E-2,9.388797E-1,-2.4795708E-1,1.0706056E0,-2.5450024E-1,1.042357E0,8.037607E-1,2.1465733E0,3.2426484E-2,9.824464E-1,-1.1951439E-1,5.5934566E-1,-2.5050572E-1,5.9261227E-1,-1.1669031E-1,-2.2075175E-1,-2.3545235E-1,1.3502159E0,3.8804048E-1,-2.3642708E-1],"categories":[],"categories_nodes":[],"categories_segments":[],"categories_sizes":[],"default_left":[0,0,0,0,0,0,0,0,0,0,0,0,0,0,0,0,0,0,0,0,0,0,0,0,0,0,0,0,0,0,0,0,0,0,0,0,0,0,0,0,0,0,0,0,0,0,0,0,0,0,0,0,0,0,0,0,0,0,0,0,0,0,0,0,0,0,0,0,0],"id":24,"left_children":[1,3,5,7,9,11,13,15,17,19,21,23,25,-1,27,29,31,33,35,37,-1,39,-1,-1,41,43,-1,-1,45,47,-1,49,51,53,55,57,59,61,-1,63,65,-1,-1,-1,67,-1,-1,-1,-1,-1,-1,-1,-1,-1,-1,-1,-1,-1,-1,-1,-1,-1,-1,-1,-1,-1,-1,-1,-1],"loss_changes":[3.2266367E2,4.0335983E2,7.122038E1,7.364E2,2.1043355E2,3.6146667E1,1.2339537E2,2.9692114E2,3.03516E2,2.2240167E2,1.27893524E2,1.9958374E1,4.3003635E1,0E0,7.126756E1,3.2270755E2,6.116258E1,5.0576086E2,2.4531386E2,2.2449591E2,0E0,7.582501E1,0E0,0E0,3.586954E1,4.0894302E1,0E0,0E0,5.0253105E1,2.2045924E2,0E0,2.0851016E2,1.6692249E2,3.1417108E2,4.178921E2,2.5708456E2,6.459387E1,1.6910336E2,0E0,2.3053192E1,1.13863976E2,0E0,0E0,0E0,3.257599E1,0E0,0E0,0E0,0E0,0E0,0E0,0E0,0E0,0E0,0E0,0E0,0E0,0E0,0E0,0E0,0E0,0E0,0E0,0E0,0E0,0E0,0E0,0E0,0E0],"parents":[2147483647,0,0,1,1,2,2,3,3,4,4,5,5,6,6,7,7,8,8,9,9,10,10,11,11,12,12,14,14,15,15,16,16,17,17,18,18,19,19,21,21,24,24,25,25,28,28,29,29,31,31,32,32,33,33,34,34,35,35,36,36,37,37,39,39,40,40,44,44],"right_children":[2,4,6,8,10,12,14,16,18,20,22,24,26,-1,28,30,32,34,36,38,-1,40,-1,-1,42,44,-1,-1,46,48,-1,50,52,54,56,58,60,62,-1,64,66,-1,-1,-1,68,-1,-1,-1,-1,-1,-1,-1,-1,-1,-1,-1,-1,-1,-1,-1,-1,-1,-1,-1,-1,-1,-1,-1,-1],"split_conditions":[1.5093324E9,2E0,3E0,3.5726237E0,1E0,1E0,4E0,1E0,1E0,1E0,1.489032E9,4E0,1.6005537E9,1.180264E0,4E0,1E0,3.3414462E0,1E0,1.9E1,2.8E1,-2.5531033E-1,1E0,9.073587E-1,-2.6113573E-1,1E0,1.5690936E9,-2.595974E-1,5.8836025E-1,6E0,1E0,1.8424543E0,3.3278196E0,1E0,1E0,2.3E1,3.6292198E0,3E0,3.324863E0,-2.7797395E-1,2E0,3.308695E0,-2.836153E-1,3.1466973E-1,-2.6133925E-1,1.570453E9,-2.5336555E-1,3.6357236E-1,-7.742763E-2,4.1824073E-1,-6.023376E-2,9.388797E-1,-2.4795708E-1,1.0706056E0,-2.5450024E-1,1.042357E0,8.037607E-1,2.1465733E0,3.2426484E-2,9.824464E-1,-1.1951439E-1,5.5934566E-1,-2.5050572E-1,5.9261227E-1,-1.1669031E-1,-2.2075175E-1,-2.3545235E-1,1.3502159E0,3.8804048E-1,-2.3642708E-1],"split_indices":[114,3,108,0,104,2,106,108,106,112,114,105,114,0,104,54,0,104,1,1,0,21,0,0,112,113,0,0,107,104,0,0,6,4,1,0,108,0,0,104,0,0,0,0,113,0,0,0,0,0,0,0,0,0,0,0,0,0,0,0,0,0,0,0,0,0,0,0,0],"split_type":[0,0,0,0,0,0,0,0,0,0,0,0,0,0,0,0,0,0,0,0,0,0,0,0,0,0,0,0,0,0,0,0,0,0,0,0,0,0,0,0,0,0,0,0,0,0,0,0,0,0,0,0,0,0,0,0,0,0,0,0,0,0,0,0,0,0,0,0,0],"sum_hessian":[7.7566533E3,6.0615425E3,1.6951108E3,3.3168538E3,2.744689E3,1.4451378E3,2.4997305E2,2.3923347E3,9.24519E2,7.524174E2,1.9922716E3,1.1591068E3,2.8603104E2,1.9407543E1,2.3056552E2,8.4764264E2,1.5446921E3,3.9601407E2,5.285049E2,5.343827E2,2.1803468E2,1.9679015E3,2.4370052E1,1.0696791E3,8.9427765E1,1.591415E2,1.26889534E2,3.414255E1,1.9642296E2,8.2066364E2,2.697899E1,9.3640686E2,6.082853E2,1.7446906E2,2.2154503E2,2.6785056E2,2.6065436E2,4.209037E2,1.1347902E2,1.9286049E3,3.9296597E1,5.1389805E1,3.8037956E1,4.6467075E1,1.12674416E2,1.6133768E2,3.5085285E1,3.4491748E2,4.7574615E2,8.882039E2,4.82029E1,5.8702026E2,2.1265001E1,1.0775783E2,6.671123E1,1.374943E2,8.4050735E1,1.0335594E2,1.6449461E2,2.253501E2,3.5304245E1,6.170326E1,3.592004E2,8.6922363E2,1.0593813E3,2.1931578E1,1.736502E1,8.994508E1,2.272933E1],"tree_param":{"num_deleted":"0","num_feature":"116","num_nodes":"69","size_leaf_vector":"1"}},{"base_weights":[-3.099609E-2,-1.3208697E-2,-1.0224094E0,-1.24680266E-1,2.7005383E-1,-2.0645265E-1,3.2035384E-1,6.2925285E-1,1.0923753E-2,-2.1740878E-1,6.8501633E-1,1.1488385E0,2.7001303E-1,3.807968E-1,1.2186036E0,-1.04627654E-1,7.1432996E-1,-1.6198936E-1,-3.1854784E-1,-1.5643371E-2,4.90497E-1,2.1789593E-1,9.556876E-1,-4.3776673E-1,5.193233E-1,1.422619E0,-1.7560181E-1,1.8861331E-1,-2.7280688E-1,1.4228622E0,1.5555656E-1,-1.1944885E-1,3.555065E-2,-1.6111106E-1,4.4384282E-2,7.878964E-2,6.031568E-1,-2.9217386E-1,-1.2626481E-1,5.7605386E-2,3.5199076E-1,2.9436514E-1,9.4023633E-1,3.148074E-1,-4.1436173E-2,4.086131E-2,-1.5655038E-1,4.5145336E-1,1.1249359E0,5.01243E-1,-4.32369E-2],"categories":[],"categories_nodes":[],"categories_segments":[],"categories_sizes":[],"default_left":[0,0,0,0,0,0,0,0,0,0,0,0,0,0,0,0,0,0,0,0,0,0,0,0,0,0,0,0,0,0,0,0,0,0,0,0,0,0,0,0,0,0,0,0,0,0,0,0,0,0,0],"id":25,"left_children":[1,3,-1,5,7,9,11,13,15,17,19,-1,21,23,25,27,29,31,33,-1,-1,35,-1,37,39,41,-1,43,45,47,49,-1,-1,-1,-1,-1,-1,-1,-1,-1,-1,-1,-1,-1,-1,-1,-1,-1,-1,-1,-1],"loss_changes":[2.849234E2,2.3524417E2,0E0,1.9462163E2,1.9582397E2,4.4266068E1,8.758655E1,1.2864035E2,9.949765E1,2.4963028E1,1.4004736E1,0E0,7.374072E1,7.0721016E1,8.521393E1,5.190844E1,6.815968E1,6.2196213E1,1.4663467E1,0E0,0E0,4.2534542E1,0E0,2.6232147E0,4.7642593E1,1.0382843E2,0E0,5.0727478E1,1.4096291E1,3.1769821E1,2.194981E1,0E0,0E0,0E0,0E0,0E0,0E0,0E0,0E0,0E0,0E0,0E0,0E0,0E0,0E0,0E0,0E0,0E0,0E0,0E0,0E0],"parents":[2147483647,0,0,1,1,3,3,4,4,5,5,6,6,7,7,8,8,9,9,10,10,12,12,13,13,14,14,15,15,16,16,17,17,18,18,21,21,23,23,24,24,25,25,27,27,28,28,29,29,30,30],"right_children":[2,4,-1,6,8,10,12,14,16,18,20,-1,22,24,26,28,30,32,34,-1,-1,36,-1,38,40,42,-1,44,46,48,50,-1,-1,-1,-1,-1,-1,-1,-1,-1,-1,-1,-1,-1,-1,-1,-1,-1,-1,-1,-1],"split_conditions":[1E0,1E0,-1.0224094E0,1.5476977E9,2E0,1E0,2.807355E0,1E0,2.4E1,3E0,2E0,1.1488385E0,4E0,2E0,1.33E2,1.4013288E9,4E0,2E0,3E0,-1.5643371E-2,4.90497E-1,1E0,9.556876E-1,1E1,1E0,1E0,-1.7560181E-1,1.5E1,3.0021722E0,6E0,3.085055E0,-1.1944885E-1,3.555065E-2,-1.6111106E-1,4.4384282E-2,7.878964E-2,6.031568E-1,-2.9217386E-1,-1.2626481E-1,5.7605386E-2,3.5199076E-1,2.9436514E-1,9.4023633E-1,3.148074E-1,-4.1436173E-2,4.086131E-2,-1.5655038E-1,4.5145336E-1,1.1249359E0,5.01243E-1,-4.32369E-2],"split_indices":[33,107,0,113,106,20,0,108,104,104,3,0,105,3,104,113,106,106,2,0,0,90,0,1,4,4,0,1,0,107,0,0,0,0,0,0,0,0,0,0,0,0,0,0,0,0,0,0,0,0,0],"split_type":[0,0,0,0,0,0,0,0,0,0,0,0,0,0,0,0,0,0,0,0,0,0,0,0,0,0,0,0,0,0,0,0,0,0,0,0,0,0,0,0,0,0,0,0,0,0,0,0,0,0,0],"sum_hessian":[7.509196E3,7.4480938E3,6.1102066E1,5.345179E3,2.1029146E3,4.5159385E3,8.2924084E2,8.806933E2,1.2222213E3,4.4618584E3,5.407996E1,1.8209644E1,8.110312E2,6.2067694E2,2.6001636E2,1.0505023E3,1.7171904E2,2.8841067E3,1.5777518E3,1.8127855E1,3.5952103E1,7.8870496E2,2.2326206E1,8.952238E1,5.3115454E2,2.3054553E2,2.947082E1,3.8284464E2,6.676577E2,7.503158E1,9.668747E1,2.0854797E3,7.98627E2,1.4964188E3,8.133299E1,7.534786E2,3.5226387E1,4.2191444E1,4.7330936E1,1.9296487E2,3.381897E2,9.657957E1,1.3396597E2,1.3977634E2,2.4306828E2,9.349469E1,5.74163E2,5.1778374E1,2.3253204E1,2.0022228E1,7.666524E1],"tree_param":{"num_deleted":"0","num_feature":"116","num_nodes":"51","size_leaf_vector":"1"}},{"base_weights":[-3.0270578E-2,-1.524489E-1,7.249807E-1,-2.2223637E-1,2.1423471E-1,1.6237535E0,5.717979E-1,-2.741079E-1,1.3205796E-1,3.8649035E-1,-2.0024112E-1,1.8348663E0,2.0512797E-2,1.9669527E-1,8.886517E-1,-2.9784974E-1,3.6139518E-1,-7.745974E-4,4.3186533E-1,4.8561805E-1,-3.3971062E-1,-3.4149617E-1,-1.006902E-2,2.427088E0,1.0362457E0,-2.1626025E-1,3.4814316E-1,1.5530978E0,6.260084E-1,-3.490616E-1,-2.299117E-1,-1.6430308E-1,3.0673903E-1,-1.1925134E-1,1.8448831E-1,5.523847E-1,2.982922E-1,4.0850317E-1,6.452391E-1,-2.077099E-1,-3.3071566E-1,-2.1103784E-1,2.1525216E-1,-1.1600322E-1,3.0855584E-1,9.447487E-1,1.3247515E0,2.7966776E-1,6.2006533E-1,5.448157E-1,2.6190215E-1,7.325798E-1,1.8747026E0,-1.28597E-1,7.7360404E-1,-1.6796757E-1,2.8479025E-1,-1.1619471E-1,1.9664666E-1,1.2150278E-2,-2.2905545E-1,-9.364063E-2,2.6796848E-1,2.038119E-1,-1.4896107E-1,4.074272E-2,3.2433116E-1,2.51914E-1,-3.1132665E-2,-2.0351505E-1,1.6467239E-1,-1.3091464E-1,3.750279E-2,5.0733674E-2,2.9275954E-1,6.040046E-1,7.5398823E-3,2.8008327E-1,1.0833957E0,8.163554E-1,2.8202584E-1],"categories":[],"categories_nodes":[],"categories_segments":[],"categories_sizes":[],"default_left":[0,0,0,0,0,0,0,0,0,0,0,0,0,0,0,0,0,0,0,0,0,0,0,0,0,0,0,0,0,0,0,0,0,0,0,0,0,0,0,0,0,0,0,0,0,0,0,0,0,0,0,0,0,0,0,0,0,0,0,0,0,0,0,0,0,0,0,0,0,0,0,0,0,0,0,0,0,0,0,0,0],"id":26,"left_children":[1,3,5,7,9,11,13,15,17,19,21,23,-1,25,27,29,31,33,35,37,39,41,43,45,47,-1,49,51,53,55,57,59,-1,61,63,-1,65,67,-1,69,-1,-1,-1,71,-1,-1,-1,-1,-1,-1,73,75,77,-1,79,-1,-1,-1,-1,-1,-1,-1,-1,-1,-1,-1,-1,-1,-1,-1,-1,-1,-1,-1,-1,-1,-1,-1,-1,-1,-1],"loss_changes":[7.078319E2,1.690058E2,1.461297E2,1.0198401E2,7.5484856E1,5.163159E1,1.0847391E2,7.3121704E1,2.8240728E1,5.3899323E1,8.3439045E0,6.2141693E1,0E0,4.1775383E1,8.545767E1,1.615207E1,2.6548382E1,1.0829929E1,2.1094528E1,4.4047256E1,4.1464806E0,1.5152164E1,9.452293E0,6.918701E0,6.5806427E0,0E0,2.3410385E1,3.5473297E1,4.7489655E1,1.6576782E1,2.0904762E1,3.8266218E0,0E0,1.6422646E1,2.3885933E1,0E0,1.5225441E1,3.586921E1,0E0,8.52149E0,0E0,0E0,0E0,3.6711063E0,0E0,0E0,0E0,0E0,0E0,0E0,1.7058855E1,1.6002823E1,5.2106598E1,0E0,5.0650726E1,0E0,0E0,0E0,0E0,0E0,0E0,0E0,0E0,0E0,0E0,0E0,0E0,0E0,0E0,0E0,0E0,0E0,0E0,0E0,0E0,0E0,0E0,0E0,0E0,0E0,0E0],"parents":[2147483647,0,0,1,1,2,2,3,3,4,4,5,5,6,6,7,7,8,8,9,9,10,10,11,11,13,13,14,14,15,15,16,16,17,17,18,18,19,19,20,20,21,21,22,22,23,23,24,24,26,26,27,27,28,28,29,29,30,30,31,31,33,33,34,34,36,36,37,37,39,39,43,43,50,50,51,51,52,52,54,54],"right_children":[2,4,6,8,10,12,14,16,18,20,22,24,-1,26,28,30,32,34,36,38,40,42,44,46,48,-1,50,52,54,56,58,60,-1,62,64,-1,66,68,-1,70,-1,-1,-1,72,-1,-1,-1,-1,-1,-1,74,76,78,-1,80,-1,-1,-1,-1,-1,-1,-1,-1,-1,-1,-1,-1,-1,-1,-1,-1,-1,-1,-1,-1,-1,-1,-1,-1,-1,-1],"split_conditions":[1.6321727E9,2E0,1.6403424E9,1.5985688E9,1E0,1.6E1,1E0,4E0,2E0,1.3198536E9,2E0,2E0,2.0512797E-2,1.6446337E9,1.6606356E9,1E0,4.032336E0,1E0,3E0,1.4E1,2E0,1E0,1.9E1,1.6338522E9,3.4316235E0,-2.1626025E-1,1.6534737E9,1.6462149E9,1.6254171E9,1E0,2.8E1,9E0,3.0673903E-1,3.8820488E0,2E0,5.523847E-1,1.6124179E9,3E0,6.452391E-1,1.6121556E9,-3.3071566E-1,-2.1103784E-1,2.1525216E-1,1.563731E9,3.0855584E-1,9.447487E-1,1.3247515E0,2.7966776E-1,6.2006533E-1,5.448157E-1,1.662999E9,5E0,1.1E1,-1.28597E-1,1.6517165E9,-1.6796757E-1,2.8479025E-1,-1.1619471E-1,1.9664666E-1,1.2150278E-2,-2.2905545E-1,-9.364063E-2,2.6796848E-1,2.038119E-1,-1.4896107E-1,4.074272E-2,3.2433116E-1,2.51914E-1,-3.1132665E-2,-2.0351505E-1,1.6467239E-1,-1.3091464E-1,3.750279E-2,5.0733674E-2,2.9275954E-1,6.040046E-1,7.5398823E-3,2.8008327E-1,1.0833957E0,8.163554E-1,2.8202584E-1],"split_indices":[114,105,114,114,107,104,4,3,108,113,108,3,0,114,114,106,0,107,104,105,2,5,1,113,0,0,114,114,113,20,1,2,0,0,3,0,113,105,0,114,0,0,0,114,0,0,0,0,0,0,113,106,1,0,113,0,0,0,0,0,0,0,0,0,0,0,0,0,0,0,0,0,0,0,0,0,0,0,0,0,0],"split_type":[0,0,0,0,0,0,0,0,0,0,0,0,0,0,0,0,0,0,0,0,0,0,0,0,0,0,0,0,0,0,0,0,0,0,0,0,0,0,0,0,0,0,0,0,0,0,0,0,0,0,0,0,0,0,0,0,0,0,0,0,0,0,0,0,0,0,0,0,0,0,0,0,0,0,0,0,0,0,0,0,0],"sum_hessian":[7.668671E3,6.6015283E3,1.0671426E3,5.546339E3,1.0551892E3,1.5399629E2,9.1314624E2,4.8382124E3,7.081268E2,7.454491E2,3.0974017E2,1.3570656E2,1.828974E1,4.1888098E2,4.9426526E2,4.6644824E3,1.7372958E2,4.9140326E2,2.1672354E2,6.56207E2,8.924212E1,1.7727158E2,1.324686E2,7.675176E1,5.89548E1,7.833866E1,3.4054233E2,1.3863283E2,3.5563242E2,2.6572798E3,2.0072028E3,6.16228E1,1.1210678E2,2.9994373E2,1.914595E2,3.205011E1,1.8467343E2,6.046894E2,5.1517548E1,6.64673E1,2.2774822E1,1.5699246E2,2.0279108E1,1.14934265E2,1.7534334E1,3.892397E1,3.782779E1,2.380609E1,3.514871E1,3.175404E1,3.0878827E2,3.995995E1,9.8672874E1,5.0071976E1,3.0556046E2,2.6399714E3,1.7308447E1,1.9592117E3,4.799104E1,3.926482E1,2.235798E1,2.6964166E2,3.030208E1,1.2824126E2,6.321825E1,1.202238E2,6.444963E1,4.787198E2,1.2596962E2,4.7603893E1,1.8863405E1,6.2765114E1,5.216915E1,2.1655843E2,9.222986E1,2.2236948E1,1.7723001E1,2.4878952E1,7.379392E1,4.6355415E1,2.5920505E2],"tree_param":{"num_deleted":"0","num_feature":"116","num_nodes":"81","size_leaf_vector":"1"}},{"base_weights":[7.3845856E-2,-4.737369E-2,3.6020818E-1,-1.24472104E-1,3.9670697E-1,3.1880146E-1,1.4441099E0,-2.5540096E-1,2.5925796E-2,6.496089E-1,-3.158261E-1,2.2902974E-1,6.550655E-1,1.014536E0,1.1626936E0,-2.7403098E-1,3.7351015E-1,-7.86649E-3,8.073784E-1,4.7045034E-1,1.8458661E0,-1.6469805E-1,1.4936045E-3,3.448107E-1,4.9378064E-2,7.180864E-1,-1.0433943E-1,7.127516E-1,9.671831E-1,-3.955723E-1,-1.9759417E-1,3.8981402E-1,-1.2245341E-2,-7.838116E-2,2.6547462E-1,8.4627444E-1,5.2770823E-1,3.9692998E-1,6.901162E-1,1.1834505E-1,2.5416636E0,5.5845773E-1,2.3851435E-1,-1.3216351E-1,3.0005404E-1,7.802158E-1,-7.780197E-2,6.250401E-1,2.4047775E-2,-2.1299794E-1,-1.4097953E-1,-6.0002316E-2,-1.431873E-1,-1.8135716E-1,-1.2353061E-2,4.7233414E-2,2.8042808E-1,5.186905E-1,9.448184E-2,2.634679E-1,-2.4103774E-2,1.3582671E0,8.2498175E-1,2.2196963E-1,6.028481E-1,4.5482665E-1,9.817538E-2,-8.794629E-2,2.0746797E-1,2.5266823E-1,1.1419772E-2,2.9201117E-1,5.321668E-1],"categories":[],"categories_nodes":[],"categories_segments":[],"categories_sizes":[],"default_left":[0,0,0,0,0,0,0,0,0,0,0,0,0,0,0,0,0,0,0,0,0,0,0,0,0,0,0,0,0,0,0,0,0,0,0,0,0,0,0,0,0,0,0,0,0,0,0,0,0,0,0,0,0,0,0,0,0,0,0,0,0,0,0,0,0,0,0,0,0,0,0,0,0],"id":27,"left_children":[1,3,5,7,9,11,13,15,17,19,21,23,25,-1,27,29,31,33,35,37,39,-1,-1,41,43,45,-1,47,-1,49,51,-1,-1,53,55,-1,57,59,-1,-1,61,63,65,67,69,71,-1,-1,-1,-1,-1,-1,-1,-1,-1,-1,-1,-1,-1,-1,-1,-1,-1,-1,-1,-1,-1,-1,-1,-1,-1,-1,-1],"loss_changes":[2.6364807E2,1.8277026E2,1.0091882E2,8.956488E1,1.425127E2,6.55677E1,1.389772E1,2.8591446E1,5.592534E1,1.24116776E2,2.171379E0,3.575583E1,2.5451218E1,0E0,2.2953026E1,2.1866562E1,1.2716137E1,3.9163425E1,2.3209759E1,3.6445717E1,8.33064E1,0E0,0E0,2.3613525E1,3.0765522E1,2.3584488E1,0E0,1.6973742E1,0E0,4.7578735E0,1.0774265E1,0E0,0E0,2.5762072E1,2.2566046E1,0E0,1.2818071E1,3.4213783E1,0E0,0E0,8.911682E0,2.1446037E1,1.5368713E1,1.2180901E1,1.8373487E1,2.1739944E1,0E0,0E0,0E0,0E0,0E0,0E0,0E0,0E0,0E0,0E0,0E0,0E0,0E0,0E0,0E0,0E0,0E0,0E0,0E0,