{"learner":{"attributes":{"best_iteration":"74","best_score":"1.4263036722786815"},"feature_names":[],"feature_types":[],"gradient_booster":{"model":{"gbtree_model_param":{"num_parallel_tree":"1","num_trees":"1650"},"iteration_indptr":[0,22,44,66,88,110,132,154,176,198,220,242,264,286,308,330,352,374,396,418,440,462,484,506,528,550,572,594,616,638,660,682,704,726,748,770,792,814,836,858,880,902,924,946,968,990,1012,1034,1056,1078,1100,1122,1144,1166,1188,1210,1232,1254,1276,1298,1320,1342,1364,1386,1408,1430,1452,1474,1496,1518,1540,1562,1584,1606,1628,1650],"tree_info":[0,1,2,3,4,5,6,7,8,9,10,11,12,13,14,15,16,17,18,19,20,21,0,1,2,3,4,5,6,7,8,9,10,11,12,13,14,15,16,17,18,19,20,21,0,1,2,3,4,5,6,7,8,9,10,11,12,13,14,15,16,17,18,19,20,21,0,1,2,3,4,5,6,7,8,9,10,11,12,13,14,15,16,17,18,19,20,21,0,1,2,3,4,5,6,7,8,9,10,11,12,13,14,15,16,17,18,19,20,21,0,1,2,3,4,5,6,7,8,9,10,11,12,13,14,15,16,17,18,19,20,21,0,1,2,3,4,5,6,7,8,9,10,11,12,13,14,15,16,17,18,19,20,21,0,1,2,3,4,5,6,7,8,9,10,11,12,13,14,15,16,17,18,19,20,21,0,1,2,3,4,5,6,7,8,9,10,11,12,13,14,15,16,17,18,19,20,21,0,1,2,3,4,5,6,7,8,9,10,11,12,13,14,15,16,17,18,19,20,21,0,1,2,3,4,5,6,7,8,9,10,11,12,13,14,15,16,17,18,19,20,21,0,1,2,3,4,5,6,7,8,9,10,11,12,13,14,15,16,17,18,19,20,21,0,1,2,3,4,5,6,7,8,9,10,11,12,13,14,15,16,17,18,19,20,21,0,1,2,3,4,5,6,7,8,9,10,11,12,13,14,15,16,17,18,19,20,21,0,1,2,3,4,5,6,7,8,9,10,11,12,13,14,15,16,17,18,19,20,21,0,1,2,3,4,5,6,7,8,9,10,11,12,13,14,15,16,17,18,19,20,21,0,1,2,3,4,5,6,7,8,9,10,11,12,13,14,15,16,17,18,19,20,21,0,1,2,3,4,5,6,7,8,9,10,11,12,13,14,15,16,17,18,19,20,21,0,1,2,3,4,5,6,7,8,9,10,11,12,13,14,15,16,17,18,19,20,21,0,1,2,3,4,5,6,7,8,9,10,11,12,13,14,15,16,17,18,19,20,21,0,1,2,3,4,5,6,7,8,9,10,11,12,13,14,15,16,17,18,19,20,21,0,1,2,3,4,5,6,7,8,9,10,11,12,13,14,15,16,17,18,19,20,21,0,1,2,3,4,5,6,7,8,9,10,11,12,13,14,15,16,17,18,19,20,21,0,1,2,3,4,5,6,7,8,9,10,11,12,13,14,15,16,17,18,19,20,21,0,1,2,3,4,5,6,7,8,9,10,11,12,13,14,15,16,17,18,19,20,21,0,1,2,3,4,5,6,7,8,9,10,11,12,13,14,15,16,17,18,19,20,21,0,1,2,3,4,5,6,7,8,9,10,11,12,13,14,15,16,17,18,19,20,21,0,1,2,3,4,5,6,7,8,9,10,11,12,13,14,15,16,17,18,19,20,21,0,1,2,3,4,5,6,7,8,9,10,11,12,13,14,15,16,17,18,19,20,21,0,1,2,3,4,5,6,7,8,9,10,11,12,13,14,15,16,17,18,19,20,21,0,1,2,3,4,5,6,7,8,9,10,11,12,13,14,15,16,17,18,19,20,21,0,1,2,3,4,5,6,7,8,9,10,11,12,13,14,15,16,17,18,19,20,21,0,1,2,3,4,5,6,7,8,9,10,11,12,13,14,15,16,17,18,19,20,21,0,1,2,3,4,5,6,7,8,9,10,11,12,13,14,15,16,17,18,19,20,21,0,1,2,3,4,5,6,7,8,9,10,11,12,13,14,15,16,17,18,19,20,21,0,1,2,3,4,5,6,7,8,9,10,11,12,13,14,15,16,17,18,19,20,21,0,1,2,3,4,5,6,7,8,9,10,11,12,13,14,15,16,17,18,19,20,21,0,1,2,3,4,5,6,7,8,9,10,11,12,13,14,15,16,17,18,19,20,21,0,1,2,3,4,5,6,7,8,9,10,11,12,13,14,15,16,17,18,19,20,21,0,1,2,3,4,5,6,7,8,9,10,11,12,13,14,15,16,17,18,19,20,21,0,1,2,3,4,5,6,7,8,9,10,11,12,13,14,15,16,17,18,19,20,21,0,1,2,3,4,5,6,7,8,9,10,11,12,13,14,15,16,17,18,19,20,21,0,1,2,3,4,5,6,7,8,9,10,11,12,13,14,15,16,17,18,19,20,21,0,1,2,3,4,5,6,7,8,9,10,11,12,13,14,15,16,17,18,19,20,21,0,1,2,3,4,5,6,7,8,9,10,11,12,13,14,15,16,17,18,19,20,21,0,1,2,3,4,5,6,7,8,9,10,11,12,13,14,15,16,17,18,19,20,21,0,1,2,3,4,5,6,7,8,9,10,11,12,13,14,15,16,17,18,19,20,21,0,1,2,3,4,5,6,7,8,9,10,11,12,13,14,15,16,17,18,19,20,21,0,1,2,3,4,5,6,7,8,9,10,11,12,13,14,15,16,17,18,19,20,21,0,1,2,3,4,5,6,7,8,9,10,11,12,13,14,15,16,17,18,19,20,21,0,1,2,3,4,5,6,7,8,9,10,11,12,13,14,15,16,17,18,19,20,21,0,1,2,3,4,5,6,7,8,9,10,11,12,13,14,15,16,17,18,19,20,21,0,1,2,3,4,5,6,7,8,9,10,11,12,13,14,15,16,17,18,19,20,21,0,1,2,3,4,5,6,7,8,9,10,11,12,13,14,15,16,17,18,19,20,21,0,1,2,3,4,5,6,7,8,9,10,11,12,13,14,15,16,17,18,19,20,21,0,1,2,3,4,5,6,7,8,9,10,11,12,13,14,15,16,17,18,19,20,21,0,1,2,3,4,5,6,7,8,9,10,11,12,13,14,15,16,17,18,19,20,21,0,1,2,3,4,5,6,7,8,9,10,11,12,13,14,15,16,17,18,19,20,21,0,1,2,3,4,5,6,7,8,9,10,11,12,13,14,15,16,17,18,19,20,21,0,1,2,3,4,5,6,7,8,9,10,11,12,13,14,15,16,17,18,19,20,21,0,1,2,3,4,5,6,7,8,9,10,11,12,13,14,15,16,17,18,19,20,21,0,1,2,3,4,5,6,7,8,9,10,11,12,13,14,15,16,17,18,19,20,21,0,1,2,3,4,5,6,7,8,9,10,11,12,13,14,15,16,17,18,19,20,21,0,1,2,3,4,5,6,7,8,9,10,11,12,13,14,15,16,17,18,19,20,21,0,1,2,3,4,5,6,7,8,9,10,11,12,13,14,15,16,17,18,19,20,21,0,1,2,3,4,5,6,7,8,9,10,11,12,13,14,15,16,17,18,19,20,21,0,1,2,3,4,5,6,7,8,9,10,11,12,13,14,15,16,17,18,19,20,21,0,1,2,3,4,5,6,7,8,9,10,11,12,13,14,15,16,17,18,19,20,21,0,1,2,3,4,5,6,7,8,9,10,11,12,13,14,15,16,17,18,19,20,21,0,1,2,3,4,5,6,7,8,9,10,11,12,13,14,15,16,17,18,19,20,21,0,1,2,3,4,5,6,7,8,9,10,11,12,13,14,15,16,17,18,19,20,21,0,1,2,3,4,5,6,7,8,9,10,11,12,13,14,15,16,17,18,19,20,21,0,1,2,3,4,5,6,7,8,9,10,11,12,13,14,15,16,17,18,19,20,21,0,1,2,3,4,5,6,7,8,9,10,11,12,13,14,15,16,17,18,19,20,21,0,1,2,3,4,5,6,7,8,9,10,11,12,13,14,15,16,17,18,19,20,21],"trees":[{"base_weights":[3.2003936E-3,-5.804538E-2,4.319252E0,1.5856668E0,-7.935629E-2,-2.5341082E-1,2.735412E-1,-3.963041E-1,-1.2027129E-1,9.474421E-1,-7.1665004E-2,-2.1090746E-1,-4.8585403E-1,-3.0111283E-1,4.1168717E-1,6.660728E-1,2.5039325E0,-2.1610124E-1,7.948097E-1,-2.908474E-1,6.593589E-1,-2.9099524E-1,-2.2681116E-1,3.6152422E-1,-4.4614893E-1,1.627633E0,-2.3674046E-1,2.821542E-1,2.0832193E0,-2.9078704E-1,-6.246219E-2,2.6054611E0,-2.9002932E-1,5.726416E-1,-2.882132E-1,1.4533304E-1,-2.8998208E-1,-1.05451845E-1,1.6285062E0,-2.1818827E-1,-4.7923595E-1,2.3994265E0,-2.8872064E-1,-2.9050815E-1,1.4555293E-1,5.35114E-1,-6.677812E-2,-2.8821775E-1,3.2070403E0,4.5217633E-1,-3.2463783E-1,4.608246E-1,2.2813468E0,8.477105E-1,-2.904812E-1,4.1291544E-1,-2.9015622E-1,-2.9097238E-1,-2.5103998E-1,1.9705555E0,1.9650124E0,3.41819E-1,-2.8920296E-1,-3.3770916E-1,6.486327E-1,3.8131151E0,2.2927845E-1,9.143214E-1,-2.8967574E-1,-1.2482957E-1,-2.906309E-1,-2.9010814E-1,1.3489437E-1,1.5960678E0,3.7715796E-1,-2.9054642E-1,2.0232844E-1,-2.8921723E-1,1.7143928E0,2.3278276E-2,-2.8937677E-1,5.6698406E-1,1.47397E0,-2.891897E-1,1.6581911E-1],"categories":[],"categories_nodes":[],"categories_segments":[],"categories_sizes":[],"default_left":[0,0,0,0,0,0,0,0,0,0,0,0,0,0,0,0,0,0,0,0,0,0,0,0,0,0,0,0,0,0,0,0,0,0,0,0,0,0,0,0,0,0,0,0,0,0,0,0,0,0,0,0,0,0,0,0,0,0,0,0,0,0,0,0,0,0,0,0,0,0,0,0,0,0,0,0,0,0,0,0,0,0,0,0,0],"id":0,"left_children":[1,3,-1,-1,5,7,9,11,13,15,17,19,21,23,25,27,-1,29,31,-1,33,-1,35,37,39,41,43,45,47,-1,49,51,-1,-1,-1,-1,-1,53,-1,55,57,59,-1,-1,61,-1,63,-1,65,67,69,-1,-1,-1,-1,-1,-1,-1,71,73,-1,-1,-1,75,-1,-1,-1,77,-1,79,-1,-1,-1,-1,-1,-1,-1,-1,81,83,-1,-1,-1,-1,-1],"loss_changes":[7.259336E3,9.3939276E2,0E0,0E0,9.2315393E2,1.914336E2,1.1549525E3,8.048773E1,5.0148907E2,1.6806403E3,4.111276E2,4.3072626E2,3.190033E1,3.7401746E2,1.0432386E3,8.4794696E2,0E0,1.328229E2,1.1203984E3,0E0,1.8350145E2,0E0,6.0379753E1,8.389419E2,2.3970703E1,7.637866E2,9.44919E1,2.918319E2,9.732905E2,0E0,2.5350392E2,5.2345764E2,0E0,0E0,0E0,0E0,0E0,4.0399323E2,0E0,1.1911313E2,2.806897E1,1.5809546E2,0E0,0E0,1.1611725E2,0E0,2.7219415E2,0E0,2.3684023E3,2.8576376E2,4.9256042E1,0E0,0E0,0E0,0E0,0E0,0E0,0E0,6.1055965E1,2.870216E2,0E0,0E0,0E0,8.689184E1,0E0,0E0,0E0,4.9491788E2,0E0,3.644132E1,0E0,0E0,0E0,0E0,0E0,0E0,0E0,0E0,1.7732922E2,6.7921715E1,0E0,0E0,0E0,0E0,0E0],"parents":[2147483647,0,0,1,1,4,4,5,5,6,6,7,7,8,8,9,9,10,10,11,11,12,12,13,13,14,14,15,15,17,17,18,18,20,20,22,22,23,23,24,24,25,25,26,26,27,27,28,28,30,30,31,31,37,37,39,39,40,40,41,41,44,44,46,46,48,48,49,49,50,50,58,58,59,59,63,63,67,67,69,69,78,78,79,79],"right_children":[2,4,-1,-1,6,8,10,12,14,16,18,20,22,24,26,28,-1,30,32,-1,34,-1,36,38,40,42,44,46,48,-1,50,52,-1,-1,-1,-1,-1,54,-1,56,58,60,-1,-1,62,-1,64,-1,66,68,70,-1,-1,-1,-1,-1,-1,-1,72,74,-1,-1,-1,76,-1,-1,-1,78,-1,80,-1,-1,-1,-1,-1,-1,-1,-1,82,84,-1,-1,-1,-1,-1],"split_conditions":[5.8169837E0,3.2390978E0,4.319252E0,1.5856668E0,4.2803946E0,1E0,4.416889E0,3.863465E0,2E0,4.4057646E0,2.7E1,3.7898982E0,4.219528E0,3.5739348E0,3E0,1E0,2.5039325E0,6E0,3.6E1,-2.908474E-1,1E0,-2.9099524E-1,4.2359815E0,3.5555332E0,3.676466E0,4E0,4.121219E0,2E0,1E0,-2.9078704E-1,9E0,4.965108E0,-2.9002932E-1,5.726416E-1,-2.882132E-1,1.4533304E-1,-2.8998208E-1,1E1,1.6285062E0,1E0,4.182006E0,1E0,-2.8872064E-1,-2.9050815E-1,3E0,5.35114E-1,1E1,-2.8821775E-1,3E0,4.791444E0,1.6E1,4.608246E-1,2.2813468E0,8.477105E-1,-2.904812E-1,4.1291544E-1,-2.9015622E-1,-2.9097238E-1,1.2E1,4.110577E0,1.9650124E0,3.41819E-1,-2.8920296E-1,4.3737607E0,6.486327E-1,3.8131151E0,2.2927845E-1,4.5108995E0,-2.8967574E-1,5.033564E0,-2.906309E-1,-2.9010814E-1,1.3489437E-1,1.5960678E0,3.7715796E-1,-2.9054642E-1,2.0232844E-1,-2.8921723E-1,3E0,4.555313E0,-2.8937677E-1,5.6698406E-1,1.47397E0,-2.891897E-1,1.6581911E-1],"split_indices":[0,0,0,0,0,5,0,0,4,0,5,0,0,0,5,664,0,5,5,0,177,0,0,0,0,4,0,4,5,0,5,0,0,0,0,0,0,5,0,10,0,664,0,0,4,0,5,0,5,0,5,0,0,0,0,0,0,0,5,0,0,0,0,0,0,0,0,0,0,0,0,0,0,0,0,0,0,0,4,0,0,0,0,0,0],"split_type":[0,0,0,0,0,0,0,0,0,0,0,0,0,0,0,0,0,0,0,0,0,0,0,0,0,0,0,0,0,0,0,0,0,0,0,0,0,0,0,0,0,0,0,0,0,0,0,0,0,0,0,0,0,0,0,0,0,0,0,0,0,0,0,0,0,0,0,0,0,0,0,0,0,0,0,0,0,0,0,0,0,0,0,0,0],"sum_hessian":[1.5254579E4,1.5136247E4,1.1833188E2,1.09025856E2,1.5027222E4,1.00638545E4,4.963367E3,4.8531685E3,5.210686E3,1.6806702E3,3.2826968E3,1.581767E3,3.2714014E3,3.8890283E3,1.3216577E3,1.5586089E3,1.2206137E2,2.8143174E3,4.6837952E2,1.1641866E3,4.1758035E2,2.8541982E3,4.1720303E2,6.980955E2,3.1909329E3,4.591463E2,8.625115E2,1.2273162E3,3.3129263E2,9.37564E2,1.8767533E3,1.9678822E2,2.715913E2,3.1764536E2,9.993499E1,1.5715796E2,2.6004507E2,5.915251E2,1.0657042E2,4.0540375E2,2.785529E3,3.3765836E2,1.2148792E2,4.9317783E2,3.6933365E2,4.1531027E2,8.120059E2,1.0009447E2,2.3119817E2,6.3316174E2,1.2435916E3,9.0798E1,1.0599023E2,1.19967514E2,4.715576E2,9.7045E1,3.0835876E2,2.331179E3,4.5435E2,2.4713243E2,9.052593E1,2.1665715E2,1.5267648E2,6.66412E2,1.4559396E2,9.955377E1,1.316444E2,4.293731E2,2.0378864E2,6.20303E2,6.2328864E2,2.9331647E2,1.6103352E2,1.4484117E2,1.0229126E2,5.2752277E2,1.3888919E2,1.5384184E2,2.7553125E2,4.5210358E2,1.681994E2,1.5954276E2,1.1598849E2,1.5160692E2,3.0049664E2],"tree_param":{"num_deleted":"0","num_feature":"1262","num_nodes":"85","size_leaf_vector":"1"}},{"base_weights":[1.6723786E-3,3.3154085E-1,-3.516607E-1,1.6779615E-1,1.993124E0,-3.7583378E-1,6.49603E-1,3.3131236E-1,-3.460074E-1,2.245131E0,8.3574104E-1,3.399678E-2,-4.5454955E-1,6.469793E-2,1.8566449E0,-1.3667148E-1,-4.137355E-1,6.065007E-1,1.2954202E-1,4.9483743E-2,-2.8835374E-1,-4.2336613E-1,-4.9462998E-1,-1.381841E-1,3.9121717E-1,-1.0603571E-1,2.8394172E0,-1.5268928E-1,1.9354668E-1,-4.6491882E-1,-2.0174594E-1,-3.8693497E-1,-4.5559976E-1,-2.837195E-1,-3.671796E-1,4.696373E-1,-2.6905656E-1,-1.338639E-1,6.446596E-1,4.6991583E-2,-1.4060591E-1,4.57871E0,7.636923E-1,-4.0954992E-1,-2.8545436E-1,-2.0232129E-1,4.6916045E-2,-2.9015535E-1,-3.547253E-1,-2.7070153E-1,-3.8071576E-1,-8.58972E-2,-2.89413E-1,5.7695574E-1,-1.0204023E-1,-7.6724544E-2,4.6664074E-1,1.3493472E0,3.187434E0,2.211223E-1,5.602147E-1,-2.6342538E-1,-1.6268183E-1,-2.1477002E-1,-1.4502145E-1,-3.110507E-1,-2.8946614E-1,-2.1805498E-1,-2.8849518E-1,-2.2527634E-1,-3.645927E-3],"categories":[],"categories_nodes":[],"categories_segments":[],"categories_sizes":[],"default_left":[0,0,0,0,0,0,0,0,0,0,0,0,0,0,0,0,0,0,0,0,0,0,0,0,0,0,0,0,0,0,0,0,0,0,0,0,0,0,0,0,0,0,0,0,0,0,0,0,0,0,0,0,0,0,0,0,0,0,0,0,0,0,0,0,0,0,0,0,0,0,0],"id":1,"left_children":[1,3,5,7,9,11,-1,13,15,-1,17,19,21,23,25,27,29,-1,-1,-1,-1,31,33,35,37,39,41,-1,-1,43,45,47,49,-1,51,53,-1,-1,55,-1,-1,57,59,61,-1,-1,-1,-1,63,-1,65,-1,-1,-1,-1,-1,-1,-1,-1,-1,-1,-1,-1,-1,-1,67,-1,69,-1,-1,-1],"loss_changes":[1.7794854E3,2.1479604E3,2.7139734E2,6.0407666E2,1.6744021E3,2.341272E2,0E0,2.21779E3,2.4555847E1,0E0,6.963138E1,3.5658943E1,7.399292E0,3.0765277E2,1.5653848E3,2.8611574E1,1.4132248E1,0E0,0E0,0E0,0E0,3.8526611E0,5.2000732E0,6.026148E2,2.8526816E2,7.6322236E0,1.9486113E3,0E0,0E0,2.6375275E0,1.1957255E1,6.8562317E0,4.096283E0,0E0,9.665615E0,3.8630347E2,0E0,0E0,1.9408295E2,0E0,0E0,7.175332E2,2.1742401E1,3.618988E0,0E0,0E0,0E0,0E0,3.7952576E0,0E0,5.1302032E0,0E0,0E0,0E0,0E0,0E0,0E0,0E0,0E0,0E0,0E0,0E0,0E0,0E0,0E0,6.94059E0,0E0,1.0046288E1,0E0,0E0,0E0],"parents":[2147483647,0,0,1,1,2,2,3,3,4,4,5,5,7,7,8,8,10,10,11,11,12,12,13,13,14,14,15,15,16,16,21,21,22,22,23,23,24,24,25,25,26,26,29,29,30,30,31,31,32,32,34,34,35,35,38,38,41,41,42,42,43,43,48,48,50,50,65,65,67,67],"right_children":[2,4,6,8,10,12,-1,14,16,-1,18,20,22,24,26,28,30,-1,-1,-1,-1,32,34,36,38,40,42,-1,-1,44,46,48,50,-1,52,54,-1,-1,56,-1,-1,58,60,62,-1,-1,-1,-1,64,-1,66,-1,-1,-1,-1,-1,-1,-1,-1,-1,-1,-1,-1,-1,-1,68,-1,70,-1,-1,-1],"split_conditions":[3E0,4E0,6E0,1.8E1,2E0,1E0,6.49603E-1,2E0,2.2E1,2.245131E0,5.8E1,4E0,4E0,2E0,1.2E1,3E0,4.3E1,6.065007E-1,1.2954202E-1,4.9483743E-2,-2.8835374E-1,2E0,4E0,2E0,2E0,2E0,1.5E1,-1.5268928E-1,1.9354668E-1,2.8E1,3E0,2E0,3.7E1,-2.837195E-1,5E0,1E0,-2.6905656E-1,-1.338639E-1,6E0,4.6991583E-2,-1.4060591E-1,1.3E1,1.6E1,2.6E1,-2.8545436E-1,-2.0232129E-1,4.6916045E-2,-2.9015535E-1,1.2E1,-2.7070153E-1,5E0,-8.58972E-2,-2.89413E-1,5.7695574E-1,-1.0204023E-1,-7.6724544E-2,4.6664074E-1,1.3493472E0,3.187434E0,2.211223E-1,5.602147E-1,-2.6342538E-1,-1.6268183E-1,-2.1477002E-1,-1.4502145E-1,6.4E1,-2.8946614E-1,4E0,-2.8849518E-1,-2.2527634E-1,-3.645927E-3],"split_indices":[3,4,4,8,3,8,0,4,8,0,8,3,3,8,8,4,8,0,0,0,0,4,4,3,3,3,8,0,0,8,4,8,8,0,3,8,0,0,8,0,0,8,8,8,0,0,0,0,8,0,4,0,0,0,0,0,0,0,0,0,0,0,0,0,0,8,0,4,0,0,0],"split_type":[0,0,0,0,0,0,0,0,0,0,0,0,0,0,0,0,0,0,0,0,0,0,0,0,0,0,0,0,0,0,0,0,0,0,0,0,0,0,0,0,0,0,0,0,0,0,0,0,0,0,0,0,0,0,0,0,0,0,0,0,0,0,0,0,0,0,0,0,0,0,0],"sum_hessian":[1.5265548E4,7.894954E3,7.3705938E3,7.1877236E3,7.0723047E2,7.255996E3,1.1459801E2,5.452758E3,1.734966E3,2.5455624E2,4.5267422E2,1.1691948E3,6.086801E3,4.642358E3,8.104E2,4.248488E2,1.3101171E3,3.1728397E2,1.3539023E2,1.064089E3,1.05105865E2,3.4298618E3,2.6569392E3,2.8636265E3,1.7787313E3,2.7069366E2,5.3970636E2,3.310264E2,9.382237E1,1.0543572E3,2.5575996E2,1.6162004E3,1.8136613E3,2.3595032E3,2.9743594E2,1.0385874E3,1.8250392E3,5.0908963E2,1.2696417E3,1.1804295E2,1.5265071E2,2.9299442E2,2.4671193E2,4.9799652E2,5.563606E2,1.6302077E2,9.27392E1,3.080682E2,1.3081323E3,1.2726569E3,5.4100446E2,1.2559401E2,1.7184195E2,5.5497644E2,4.8361093E2,2.5330988E2,1.0163318E3,1.0356377E2,1.8943063E2,9.986122E1,1.4685071E2,3.1893167E2,1.7906485E2,9.749968E2,3.3313547E2,3.635323E2,1.7747218E2,2.5265921E2,1.1087307E2,1.335029E2,1.1915633E2],"tree_param":{"num_deleted":"0","num_feature":"1262","num_nodes":"71","size_leaf_vector":"1"}},{"base_weights":[2.9107703E-2,5.9137014E-3,1.3180732E0,-7.900488E-2,3.8943654E-1,1.2649199E0,-2.8796726E-1,-9.00043E-2,2.3677047E-1,4.870135E-1,-2.8998834E-1,-8.120611E-2,-2.898795E-1,5.4769504E-1,-2.8901225E-1,-7.67047E-2,-2.886546E-1,2.7617526E-1,4.5096868E-1,-7.2499685E-2,-2.8843302E-1,-6.455487E-2,-3.3798844E-2],"categories":[],"categories_nodes":[],"categories_segments":[],"categories_sizes":[],"default_left":[0,0,0,0,0,0,0,0,0,0,0,0,0,0,0,0,0,0,0,0,0,0,0],"id":2,"left_children":[1,3,5,7,9,-1,-1,11,-1,13,-1,15,-1,17,-1,19,-1,-1,-1,21,-1,-1,-1],"loss_changes":[4.5476938E2,4.8672873E2,4.742106E2,6.801215E1,2.4114758E2,0E0,0E0,4.543477E1,0E0,1.4986353E2,0E0,2.3113487E1,0E0,3.0500916E1,0E0,2.1573875E1,0E0,0E0,0E0,5.8639107E0,0E0,0E0,0E0],"parents":[2147483647,0,0,1,1,2,2,3,3,4,4,7,7,9,9,11,11,13,13,15,15,19,19],"right_children":[2,4,6,8,10,-1,-1,12,-1,14,-1,16,-1,18,-1,20,-1,-1,-1,22,-1,-1,-1],"split_conditions":[1E0,4E0,3E0,1E0,6E0,1.2649199E0,-2.8796726E-1,1E0,2.3677047E-1,1E0,-2.8998834E-1,1E0,-2.898795E-1,5E0,-2.8901225E-1,1E0,-2.886546E-1,2.7617526E-1,4.5096868E-1,2E0,-2.8843302E-1,-6.455487E-2,-3.3798844E-2],"split_indices":[608,3,3,588,3,0,0,1074,0,1074,0,1044,0,3,0,1075,0,0,0,3,0,0,0],"split_type":[0,0,0,0,0,0,0,0,0,0,0,0,0,0,0,0,0,0,0,0,0,0,0],"sum_hessian":[1.5210838E4,1.4942954E4,2.6788306E2,1.2234761E4,2.708193E3,1.7587877E2,9.200429E1,1.1974789E4,2.599721E2,2.446669E3,2.6152426E2,1.1736731E4,2.3805792E2,2.3080522E3,1.3861662E2,1.1618557E4,1.18174484E2,1.9381602E3,3.698921E2,1.1510293E4,1.0826363E2,2.4275159E3,9.082777E3],"tree_param":{"num_deleted":"0","num_feature":"1262","num_nodes":"23","size_leaf_vector":"1"}},{"base_weights":[-4.740267E-3,7.971569E-2,-4.6402404E-1,4.6499178E-1,5.6402963E-3,-2.7478424E-1,-1.8823465E-2,9.976286E-1,-5.526833E-2,-1.6010647E-1,1.8851322E-1,3.0534003E-2,2.4872158E0,3.5617717E-2,-3.8116243E-1,-2.0974015E-1,3.485324E-2,2.6980987E-1,-1.9846728E-1,-2.5758007E-1,2.0124635E-1,2.7795389E0,1.0719944E0,-1.0078801E-1,1.4399871E-1,-1.6418564E-1,-2.712481E-1,-3.4441835E-1,-1.3993928E-1,-7.618049E-2,4.0271822E-1,1.3173392E-2,3.819035E-1,-4.5282695E-1,7.322052E-2,-2.7049047E-1,-5.1748253E-2,1.6518357E-1,-1.3726915E-2,1.3671322E0,1.8432354E0,4.582422E-2,1.8402997E-1,-2.0454764E-1,-1.5300049E-1,-1.6439274E-1,8.8817075E-2,-2.9469525E-2,-2.0010418E-1,6.845744E-1,-1.7119484E-1,-1.06874034E-1,2.124049E-1,1.1584148E-1,6.4927965E-1,-2.8975055E-1,-2.1705613E-1,5.256923E-1,-3.6757925E-1,-7.466993E-2,1.7604816E-1,-1.8050578E-1,9.557303E-2,-8.100871E-2,2.426611E-1,-1.745155E-1,1.220095E-1,5.900551E-1,-8.407109E-2,1.8641062E-1,-1.1102051E-1,8.2756746E-1,3.1280792E-1,-1.3754794E-1,-2.8241408E-1,-1.6608514E-1,-2.8837198E-1,-2.2945677E-1,3.5268616E-2,5.6260943E-1,5.536546E-2,1.308025E-1,3.02381E-1,5.558535E-1,1.1806308E0,3.3542532E-2,8.904976E-1,-2.971247E-1,-1.2652612E-1,-7.827453E-2,-2.0021251E-1,-9.687592E-2,1.7159775E-1,7.5514907E-1,2.5508133E-1,1.174252E0,3.6551133E-1,-2.2976966E-1,1.7556153E-1,-7.3731214E-2,-3.751677E-1,1.7142208E-1,-1.8016264E-1,3.20079E-1,1.1856791E-2,4.5958716E-1,-2.064836E-2,2.7516302E-1,-9.59189E-2,-2.3369546E-1,-1.515765E-1,4.870991E-2,1.9215278E-1,-1.4567372E-1,-2.1638325E-1,5.1144475E-1,2.85166E-2,-8.470077E-2,1.896784E-1,3.5813233E-1,1.5356602E-1,-1.9954254E-1,5.823836E-2,1.5582383E-1,3.4718022E-1,-1.0938113E-1,2.7492655E-2,-2.7648345E-1,-1.4654425E-1,-9.527707E-2,1.1751544E-1,-2.1460581E-1,-2.02588E-1,-2.1623896E-1,-8.7818846E-2,-2.0161703E-1,1.0989495E-2,-2.3681566E-2,-1.976584E-1,-1.4130916E-1,9.787056E-2,2.085314E-1,-3.2797042E-2],"categories":[],"categories_nodes":[],"categories_segments":[],"categories_sizes":[],"default_left":[0,0,0,0,0,0,0,0,0,0,0,0,0,0,0,0,0,0,0,0,0,0,0,0,0,0,0,0,0,0,0,0,0,0,0,0,0,0,0,0,0,0,0,0,0,0,0,0,0,0,0,0,0,0,0,0,0,0,0,0,0,0,0,0,0,0,0,0,0,0,0,0,0,0,0,0,0,0,0,0,0,0,0,0,0,0,0,0,0,0,0,0,0,0,0,0,0,0,0,0,0,0,0,0,0,0,0,0,0,0,0,0,0,0,0,0,0,0,0,0,0,0,0,0,0,0,0,0,0,0,0,0,0,0,0,0,0,0,0,0,0,0,0],"id":3,"left_children":[1,3,5,7,9,-1,-1,11,13,15,17,19,21,23,25,27,29,31,33,35,37,39,-1,-1,41,-1,-1,43,45,47,49,51,53,55,57,-1,-1,-1,-1,-1,-1,59,-1,-1,-1,61,-1,63,-1,-1,-1,65,67,69,71,-1,-1,-1,73,-1,-1,75,-1,-1,-1,77,-1,79,-1,81,-1,83,85,-1,-1,87,-1,89,-1,-1,-1,91,-1,93,95,97,-1,99,101,-1,-1,-1,103,-1,105,-1,-1,-1,107,-1,109,111,113,115,117,119,-1,-1,-1,-1,-1,-1,-1,121,-1,123,-1,125,-1,-1,-1,127,129,-1,-1,-1,-1,131,133,-1,-1,135,-1,-1,137,-1,-1,139,-1,-1,141,-1,-1],"loss_changes":[5.9079834E2,3.6716595E2,3.095111E1,5.74962E2,3.2713098E2,0E0,0E0,1.4767778E3,3.112764E1,5.4790512E1,1.6148233E2,3.0675413E1,6.0493164E1,1.9363882E1,1.9563065E0,4.237448E1,4.699038E1,1.2199164E2,6.1634224E1,8.701488E0,8.499129E0,3.6911255E1,0E0,0E0,1.0070861E1,0E0,0E0,2.4152985E0,2.1825844E1,1.1711722E1,1.5756165E2,3.0881615E1,2.0989551E2,1.761734E0,1.6648965E2,0E0,0E0,0E0,0E0,0E0,0E0,1.767911E1,0E0,0E0,0E0,1.49366455E1,0E0,4.1272343E1,0E0,0E0,0E0,1.7829645E1,6.676491E1,3.3015057E1,8.804065E1,0E0,0E0,0E0,4.7307777E0,0E0,0E0,1.2723244E1,0E0,0E0,0E0,8.7488785E0,0E0,4.926815E1,0E0,2.4008972E1,0E0,9.158441E1,1.8412462E2,0E0,0E0,1.3020889E1,0E0,6.2424374E0,0E0,0E0,0E0,1.308786E1,0E0,1.3133905E2,2.020495E2,2.6823969E1,0E0,7.4376373E0,3.09811E1,0E0,0E0,0E0,2.195532E1,0E0,2.3797144E1,0E0,0E0,0E0,3.5745213E1,0E0,1.7203827E0,4.292348E0,1.178875E1,2.4650154E1,1.4249872E1,7.7539825E0,0E0,0E0,0E0,0E0,0E0,0E0,0E0,1.5510548E1,0E0,7.15699E0,0E0,5.2226543E0,0E0,0E0,0E0,4.511677E0,1.0440208E1,0E0,0E0,0E0,0E0,2.3966637E0,9.412196E0,0E0,0E0,9.356829E0,0E0,0E0,9.185785E0,0E0,0E0,1.2157798E1,0E0,0E0,1.2388029E1,0E0,0E0],"parents":[2147483647,0,0,1,1,2,2,3,3,4,4,7,7,8,8,9,9,10,10,11,11,12,12,13,13,14,14,15,15,16,16,17,17,18,18,19,19,20,20,21,21,24,24,27,27,28,28,29,29,30,30,31,31,32,32,33,33,34,34,41,41,45,45,47,47,51,51,52,52,53,53,54,54,58,58,61,61,65,65,67,67,69,69,71,71,72,72,75,75,77,77,81,81,83,83,84,84,85,85,87,87,88,88,92,92,94,94,98,98,100,100,101,101,102,102,103,103,104,104,105,105,113,113,115,115,117,117,121,121,122,122,127,127,128,128,131,131,134,134,137,137,140,140],"right_children":[2,4,6,8,10,-1,-1,12,14,16,18,20,22,24,26,28,30,32,34,36,38,40,-1,-1,42,-1,-1,44,46,48,50,52,54,56,58,-1,-1,-1,-1,-1,-1,60,-1,-1,-1,62,-1,64,-1,-1,-1,66,68,70,72,-1,-1,-1,74,-1,-1,76,-1,-1,-1,78,-1,80,-1,82,-1,84,86,-1,-1,88,-1,90,-1,-1,-1,92,-1,94,96,98,-1,100,102,-1,-1,-1,104,-1,106,-1,-1,-1,108,-1,110,112,114,116,118,120,-1,-1,-1,-1,-1,-1,-1,122,-1,124,-1,126,-1,-1,-1,128,130,-1,-1,-1,-1,132,134,-1,-1,136,-1,-1,138,-1,-1,140,-1,-1,142,-1,-1],"split_conditions":[1E0,1E0,4.3506846E0,2.7E1,4.2397637E0,-2.7478424E-1,-1.8823465E-2,1E0,4.3241863E0,1E0,5.1137815E0,2E1,2.5E1,1E0,4.2E1,3.9141595E0,2E0,2E0,1.36E2,1.6E1,3.8404026E0,3.8492239E0,1.0719944E0,-1.0078801E-1,4.066677E0,-1.6418564E-1,-2.712481E-1,3.8441064E0,4E0,1.1E1,2.3E1,1.6E1,4.436007E0,8.2E1,5.6234426E0,-2.7049047E-1,-5.1748253E-2,1.6518357E-1,-1.3726915E-2,1.3671322E0,1.8432354E0,3E1,1.8402997E-1,-2.0454764E-1,-1.5300049E-1,3.1E1,8.8817075E-2,4E0,-2.0010418E-1,6.845744E-1,-1.7119484E-1,1E0,4.482123E0,4.3E1,4.7556267E0,-2.8975055E-1,-2.1705613E-1,5.256923E-1,5.3E1,-7.466993E-2,1.7604816E-1,1E0,9.557303E-2,-8.100871E-2,2.426611E-1,8.2E1,1.220095E-1,5.1E1,-8.407109E-2,6.1E1,-1.1102051E-1,3.7E1,1.05E2,-1.3754794E-1,-2.8241408E-1,1E1,-2.8837198E-1,4.436007E0,3.5268616E-2,5.6260943E-1,5.536546E-2,3.8E1,3.02381E-1,5E1,4E0,6.6E1,8.904976E-1,7E0,1.3E1,-7.827453E-2,-2.0021251E-1,-9.687592E-2,5.1E1,7.5514907E-1,4.5878234E0,1.174252E0,3.6551133E-1,-2.2976966E-1,8.5E1,-7.3731214E-2,9E0,4.1071563E0,2.7E1,3E0,3.3E1,3.1E1,-2.064836E-2,2.7516302E-1,-9.59189E-2,-2.3369546E-1,-1.515765E-1,4.870991E-2,1.9215278E-1,4.1787057E0,-2.1638325E-1,4.2E1,2.85166E-2,2.8E1,1.896784E-1,3.5813233E-1,1.5356602E-1,2E0,3.9E1,1.5582383E-1,3.4718022E-1,-1.0938113E-1,2.7492655E-2,1.7E1,3.96772E0,-9.527707E-2,1.1751544E-1,3.6E1,-2.02588E-1,-2.1623896E-1,4.1595926E0,-2.0161703E-1,1.0989495E-2,3.7E1,-1.976584E-1,-1.4130916E-1,1.9E1,2.085314E-1,-3.2797042E-2],"split_indices":[10,8,0,2,0,0,0,11,0,11,0,2,2,11,2,0,4,4,2,2,0,0,0,0,0,0,0,0,4,8,8,8,0,2,0,0,0,0,0,0,0,2,0,0,0,8,0,8,0,0,0,11,0,8,0,0,0,0,8,0,0,1219,0,0,0,2,0,2,0,2,0,8,2,0,0,8,0,0,0,0,0,2,0,2,4,2,0,8,8,0,0,0,2,0,0,0,0,0,2,0,8,0,8,4,8,8,0,0,0,0,0,0,0,0,0,2,0,8,0,0,0,4,2,0,0,0,0,8,0,0,0,2,0,0,0,0,0,2,0,0,8,0,0],"split_type":[0,0,0,0,0,0,0,0,0,0,0,0,0,0,0,0,0,0,0,0,0,0,0,0,0,0,0,0,0,0,0,0,0,0,0,0,0,0,0,0,0,0,0,0,0,0,0,0,0,0,0,0,0,0,0,0,0,0,0,0,0,0,0,0,0,0,0,0,0,0,0,0,0,0,0,0,0,0,0,0,0,0,0,0,0,0,0,0,0,0,0,0,0,0,0,0,0,0,0,0,0,0,0,0,0,0,0,0,0,0,0,0,0,0,0,0,0,0,0,0,0,0,0,0,0,0,0,0,0,0,0,0,0,0,0,0,0,0,0,0,0,0,0],"sum_hessian":[1.5229026E4,1.2864287E4,2.3647388E3,2.0736545E3,1.0790633E4,2.2083577E3,1.5638109E2,1.024186E3,1.0494685E3,5.6604297E3,5.130203E3,6.216249E2,4.025612E2,8.2131036E2,2.2815808E2,4.511737E3,1.1486931E3,4.239809E3,8.9039417E2,2.310943E2,3.9053055E2,2.6159576E2,1.4096542E2,2.733633E2,5.47947E2,1.2872624E2,9.943184E1,1.5387814E3,2.9729553E3,8.8297516E2,2.65718E2,1.2892378E3,2.950571E3,4.5951764E2,4.3087653E2,9.57393E1,1.35355E2,2.7386682E2,1.16663734E2,1.6754263E2,9.405313E1,3.6022632E2,1.8772072E2,1.1431937E3,3.9558755E2,2.7491404E3,2.2381488E2,7.591678E2,1.238074E2,1.22309204E2,1.4340878E2,8.0477954E2,4.8445825E2,1.4796383E3,1.4709329E3,2.1516539E2,2.4435226E2,1.442111E2,2.866654E2,2.1665605E2,1.4357027E2,2.6239114E3,1.2522923E2,6.081244E2,1.5104338E2,6.6702356E2,1.3775597E2,2.3736072E2,2.4709755E2,1.2095922E3,2.700461E2,9.605188E2,5.1041403E2,1.5611243E2,1.30553E2,2.5180955E3,1.0581589E2,5.419431E2,1.2508047E2,1.2696408E2,1.1039664E2,1.0480321E3,1.6156012E2,5.442466E2,4.1627222E2,4.2040027E2,9.001376E1,5.8239526E2,1.9357001E3,3.2433057E2,2.1761253E2,1.23211395E2,9.248207E2,1.4734767E2,3.968989E2,1.4848495E2,2.6778726E2,1.0090278E2,3.1949747E2,1.8830447E2,3.9409082E2,2.9496857E2,1.6407316E3,4.7878247E2,4.4603818E2,2.3316116E2,1.6373772E2,1.663674E2,1.5313008E2,2.709877E2,1.2310312E2,2.00251E2,9.471756E1,1.4099816E3,2.3074995E2,2.7913232E2,1.9965015E2,3.455166E2,1.0052156E2,1.1482355E2,1.1833762E2,1.1153528E3,2.9462878E2,9.297532E1,1.8615701E2,1.8796959E2,1.5754703E2,4.5319888E2,6.621539E2,1.1785041E2,1.7677837E2,2.6818704E2,1.8501187E2,1.27966675E2,5.341872E2,1.6396812E2,1.0421891E2,4.318659E2,1.02321304E2,1.4869226E2,2.8317365E2,1.018017E2,1.8137195E2],"tree_param":{"num_deleted":"0","num_feature":"1262","num_nodes":"143","size_leaf_vector":"1"}},{"base_weights":[1.0112367E-3,-1.7564836E-1,9.488145E-1,7.30321E-2,-3.2613495E-1,1.5757134E0,4.5861453E-1,3.771014E-1,-1.8095692E-1,-4.738494E-1,-2.5052792E-1,2.1446362E0,4.009338E-1,7.315611E-1,7.6824557E-3,-2.6483437E-1,1.0368053E0,-3.5294768E-1,-7.564189E-2,-2.6864162E-1,-2.1010059E-1,3.7914392E-1,-2.752512E-1,1.9483873E0,1.8492386E0,1.2086988E-1,5.887428E-1,7.2137475E-1,5.4035056E-1,-2.380784E-1,4.4966024E-1,2.4938006E0,5.692681E-1,-2.5061297E-1,-2.6948053E-1,1.863981E-2,-3.114914E-1,-2.9487404E-1,1.2985122E-1,6.975943E-1,1.2205361E0,-1.01373E-1,1.8038806E-1,3.6594215E-1,6.94235E-1,-9.689534E-2,-2.257439E-1,2.5913098E-1,2.0159988E0,1.3850094E-1,8.8943315E-1,-1.5471084E-1,-2.6391345E-1,-1.9756627E-1,2.8228033E-1,-2.2396998E-1,-5.511133E-2,-2.606141E-1,-2.7876478E-1,-1.18647024E-1,3.2430077E-1,4.82985E-1,1.5677078E-2,1.7975475E-1,-8.6764455E-2,1.7134032E0,3.6353037E-1,-1.4493434E-1,-1.0184726E-1,-1.9406131E-1,-1.5738382E-3,5.0962096E-1,1.5592821E-2,-3.0378172E-1,6.8313535E-3,1.5387595E-1,5.5589455E-1,4.0091246E-1,1.45199E0,4.0163264E-1,-2.1170367E-1,2.4098027E-2,-1.2853095E-1,9.367507E-2,-1.10803686E-1,1.5554221E-1,-2.1830626E-1,-2.3728514E-1,-3.8950166E-1,2.641307E-1,-2.1778554E-1,3.4380856E-1,-8.599152E-2,2.2613047E-1,3.7588875E-3,-3.74018E-3,-2.9042158E-1,-4.0698388E-1,-1.20478906E-1,-1.0212114E-1,3.8996914E-1,3.1353647E-1,-2.8683507E-1,-2.513164E-1,-2.6196504E-1,-2.7109426E-1,-3.8093305E-1,-2.1297164E-1,-7.844216E-2,-2.4224949E-1,-1.9684808E-1,-3.4156615E-1,-2.7265334E-1,2.502388E-1,-2.8876802E-1,-1.18217826E-1,-3.7174848E-1,-3.9006364E-1,-1.1696492E-1,-4.1175404E-1,-1.4131895E-1,-2.517705E-1,-1.785073E-1,2.3020279E-2,-2.4139397E-1,-2.490885E-1,-1.6719389E-1,-7.1280204E-2,9.815693E-2],"categories":[],"categories_nodes":[],"categories_segments":[],"categories_sizes":[],"default_left":[0,0,0,0,0,0,0,0,0,0,0,0,0,0,0,0,0,0,0,0,0,0,0,0,0,0,0,0,0,0,0,0,0,0,0,0,0,0,0,0,0,0,0,0,0,0,0,0,0,0,0,0,0,0,0,0,0,0,0,0,0,0,0,0,0,0,0,0,0,0,0,0,0,0,0,0,0,0,0,0,0,0,0,0,0,0,0,0,0,0,0,0,0,0,0,0,0,0,0,0,0,0,0,0,0,0,0,0,0,0,0,0,0,0,0,0,0,0,0,0,0,0,0,0,0,0,0,0,0],"id":4,"left_children":[1,3,5,7,9,11,13,15,17,19,21,23,25,27,29,-1,31,33,35,-1,-1,-1,37,-1,39,41,-1,-1,43,45,-1,47,49,-1,51,53,55,57,59,-1,-1,-1,-1,61,-1,-1,-1,-1,-1,63,65,67,-1,69,71,-1,-1,73,-1,-1,-1,75,-1,-1,-1,77,79,-1,81,-1,83,-1,85,87,89,91,-1,-1,-1,-1,-1,-1,-1,-1,-1,93,-1,95,97,99,-1,-1,-1,-1,-1,101,103,105,-1,-1,-1,-1,107,109,-1,-1,111,-1,-1,-1,113,115,-1,-1,117,-1,119,121,123,125,-1,-1,-1,127,-1,-1,-1,-1,-1],"loss_changes":[2.5433013E3,4.791558E2,7.326172E2,3.7290585E2,8.8964905E1,6.987495E2,1.6499527E2,1.2380417E3,4.7630905E1,2.2872925E0,1.2190756E2,2.7702515E2,6.308116E1,8.975754E1,9.995488E1,0E0,8.431907E2,8.050873E0,3.6320637E1,0E0,0E0,0E0,4.0917664E1,0E0,1.170874E2,1.4987274E1,0E0,0E0,7.6946884E1,4.09042E0,0E0,6.9008484E2,1.2951425E2,0E0,1.2704365E1,6.661391E1,9.024891E0,3.4613464E1,3.724463E1,0E0,0E0,0E0,0E0,1.9903778E1,0E0,0E0,0E0,0E0,0E0,2.1953798E1,2.3295102E2,1.9318552E0,0E0,1.908322E1,8.911699E1,0E0,0E0,4.8606903E1,0E0,0E0,0E0,6.3541664E1,0E0,0E0,0E0,1.8522626E2,8.8595795E1,0E0,4.4214478E0,0E0,9.494029E0,0E0,2.1311203E1,2.057019E1,6.0228947E1,3.3063313E1,0E0,0E0,0E0,0E0,0E0,0E0,0E0,0E0,0E0,1.0379269E1,0E0,2.5363693E1,4.6884003E0,7.006019E1,0E0,0E0,0E0,0E0,0E0,6.1234356E1,1.1664871E1,2.8368683E0,0E0,0E0,0E0,0E0,3.5150452E0,1.3702545E1,0E0,0E0,4.5398254E0,0E0,0E0,0E0,6.322693E1,3.0534058E0,0E0,0E0,1.6128754E1,0E0,2.9556656E0,2.38797E0,1.5390534E1,1.8232346E0,0E0,0E0,0E0,5.6268964E0,0E0,0E0,0E0,0E0,0E0],"parents":[2147483647,0,0,1,1,2,2,3,3,4,4,5,5,6,6,7,7,8,8,9,9,10,10,11,11,12,12,13,13,14,14,16,16,17,17,18,18,22,22,24,24,25,25,28,28,29,29,31,31,32,32,34,34,35,35,36,36,37,37,38,38,43,43,49,49,50,50,51,51,53,53,54,54,57,57,61,61,65,65,66,66,68,68,70,70,72,72,73,73,74,74,75,75,85,85,87,87,88,88,89,89,95,95,96,96,97,97,102,102,103,103,106,106,110,110,111,111,114,114,116,116,117,117,118,118,119,119,123,123],"right_children":[2,4,6,8,10,12,14,16,18,20,22,24,26,28,30,-1,32,34,36,-1,-1,-1,38,-1,40,42,-1,-1,44,46,-1,48,50,-1,52,54,56,58,60,-1,-1,-1,-1,62,-1,-1,-1,-1,-1,64,66,68,-1,70,72,-1,-1,74,-1,-1,-1,76,-1,-1,-1,78,80,-1,82,-1,84,-1,86,88,90,92,-1,-1,-1,-1,-1,-1,-1,-1,-1,94,-1,96,98,100,-1,-1,-1,-1,-1,102,104,106,-1,-1,-1,-1,108,110,-1,-1,112,-1,-1,-1,114,116,-1,-1,118,-1,120,122,124,126,-1,-1,-1,128,-1,-1,-1,-1,-1],"split_conditions":[1E0,1.5E1,3.810081E0,1.3E1,4E0,1E0,2E1,2E0,1.2E1,3E0,7E0,3.4685767E0,3.7267375E0,3.9648118E0,4.192977E0,-2.6483437E-1,7E0,2E1,3.6E1,-2.6864162E-1,-2.1010059E-1,3.7914392E-1,2.8E1,1.9483873E0,3.5555332E0,3.5944657E0,5.887428E-1,7.2137475E-1,4.2554846E0,1E0,4.4966024E-1,1.2E1,3.8492239E0,-2.5061297E-1,4.555313E0,2E1,5.9E1,4.877644E0,4.4931326E0,6.975943E-1,1.2205361E0,-1.01373E-1,1.8038806E-1,4.196325E0,6.94235E-1,-9.689534E-2,-2.257439E-1,2.5913098E-1,2.0159988E0,3.810081E0,4.0061984E0,4.132321E0,-2.6391345E-1,4.125871E0,2.3E1,-2.2396998E-1,-5.511133E-2,4.53064E0,-2.7876478E-1,-1.18647024E-1,3.2430077E-1,8E0,1.5677078E-2,1.7975475E-1,-8.6764455E-2,1.3E1,4.206226E0,-1.4493434E-1,4.3800945E0,-1.9406131E-1,4.264125E0,5.0962096E-1,1E0,4.252453E0,2.1E1,4.035368E0,5.5589455E-1,4.0091246E-1,1.45199E0,4.0163264E-1,-2.1170367E-1,2.4098027E-2,-1.2853095E-1,9.367507E-2,-1.10803686E-1,4.2397637E0,-2.1830626E-1,1.6E1,4.482123E0,3.6E1,-2.1778554E-1,3.4380856E-1,-8.599152E-2,2.2613047E-1,3.7588875E-3,1.4E1,1E0,1.5E1,-1.20478906E-1,-1.0212114E-1,3.8996914E-1,3.1353647E-1,4.080351E0,1E1,-2.6196504E-1,-2.7109426E-1,3.9E1,-2.1297164E-1,-7.844216E-2,-2.4224949E-1,1.3E1,4.296338E0,-2.7265334E-1,2.502388E-1,2.4E1,-1.18217826E-1,4.411422E0,1.9E1,3.5E1,2.9E1,-1.4131895E-1,-2.517705E-1,-1.785073E-1,2.8E1,-2.4139397E-1,-2.490885E-1,-1.6719389E-1,-7.1280204E-2,9.815693E-2],"split_indices":[10,9,0,8,8,8,9,8,9,8,8,0,0,0,0,0,8,8,8,0,0,0,9,0,0,0,0,0,0,11,0,9,0,0,0,8,8,0,0,0,0,0,0,0,0,0,0,0,0,0,0,0,0,0,8,0,0,0,0,0,0,8,0,0,0,9,0,0,0,0,0,0,11,0,9,0,0,0,0,0,0,0,0,0,0,0,0,9,0,8,0,0,0,0,0,8,11,8,0,0,0,0,0,8,0,0,8,0,0,0,8,0,0,0,8,0,0,9,8,8,0,0,0,8,0,0,0,0,0],"split_type":[0,0,0,0,0,0,0,0,0,0,0,0,0,0,0,0,0,0,0,0,0,0,0,0,0,0,0,0,0,0,0,0,0,0,0,0,0,0,0,0,0,0,0,0,0,0,0,0,0,0,0,0,0,0,0,0,0,0,0,0,0,0,0,0,0,0,0,0,0,0,0,0,0,0,0,0,0,0,0,0,0,0,0,0,0,0,0,0,0,0,0,0,0,0,0,0,0,0,0,0,0,0,0,0,0,0,0,0,0,0,0,0,0,0,0,0,0,0,0,0,0,0,0,0,0,0,0,0,0],"sum_hessian":[1.5187466E4,1.2802114E4,2.3853516E3,4.8266113E3,7.975503E3,1.045757E3,1.3395946E3,2.1965144E3,2.630097E3,2.6983792E3,5.2771235E3,7.0399854E2,3.417584E2,8.340978E2,5.054969E2,9.576276E2,1.2388867E3,9.9796356E2,1.6321333E3,2.4499954E3,2.4838396E2,1.3557295E2,5.141551E3,1.23584595E2,5.8041394E2,2.4060596E2,1.0115242E2,2.0902531E2,6.2507245E2,3.8740424E2,1.1809266E2,2.999166E2,9.389701E2,4.5696204E2,5.410015E2,1.1666726E3,4.6546066E2,4.9042646E3,2.3728627E2,2.1575491E2,3.6465903E2,9.672205E1,1.438839E2,5.0286624E2,1.2220619E2,2.8240884E2,1.0499539E2,1.08073944E2,1.9184267E2,4.0094708E2,5.38023E2,3.482043E2,1.9279718E2,6.4113873E2,5.255339E2,3.246244E2,1.4083626E2,4.2090376E3,6.952266E2,1.3537143E2,1.0191485E2,3.731271E2,1.2973914E2,2.4625818E2,1.546889E2,2.0873097E2,3.2929202E2,1.1449601E2,2.3370833E2,3.6103473E2,2.80104E2,1.547565E2,3.7077737E2,3.6239673E3,5.850705E2,2.2883875E2,1.4428836E2,1.0011078E2,1.086202E2,2.2214514E2,1.0714688E2,1.10455894E2,1.23252426E2,1.5066516E2,1.2943884E2,2.766124E2,9.416497E1,2.0429402E3,1.5810271E3,3.5580392E2,2.2926657E2,9.091371E1,1.3792503E2,1.0220312E2,1.7440929E2,3.7885764E2,1.6640826E3,1.434468E3,1.4655914E2,1.7611954E2,1.7968437E2,1.2569769E2,2.5315993E2,1.3703513E3,2.9373123E2,3.4530692E2,1.0891611E3,1.5137251E2,1.0178742E2,3.1062595E2,1.0597255E3,8.045301E2,2.8463098E2,1.3131828E2,9.2840717E2,1.5422559E2,6.503045E2,5.832504E2,3.4515668E2,4.8321408E2,1.6709042E2,3.0169986E2,2.815506E2,2.4016487E2,1.0499181E2,3.6135852E2,1.21855576E2,1.210802E2,1.1908467E2],"tree_param":{"num_deleted":"0","num_feature":"1262","num_nodes":"129","size_leaf_vector":"1"}},{"base_weights":[-4.513361E-3,-8.218849E-2,4.8685253E-1,-5.055857E-3,-2.6381612E-1,5.575741E-1,-1.5206788E-1,-1.04733154E-1,1.6843085E-1,3.246501E-1,7.8860295E-1,-1.2517644E-1,-3.7792813E-2,1.8622203E-1,-1.7764762E-1,3.2587808E-1,2.2743773E-1,9.1643125E-1,-1.8818079E-1,-1.7281046E-2,-2.4258602E-1,2.0005769E-1,-2.0802103E-1,1.5876898E-1,-3.5081618E-3,8.5502994E-1,7.925352E-1,-6.1029783E-3,-2.4268562E-1,2.2936682E-1,5.3447906E-2,9.2370623E-1,3.87242E-1,-4.76649E-2,2.8076084E-2,1.818853E-1,3.293939E-1,6.5394446E-2,-7.191111E-2,4.379958E-1,7.1178216E-1,6.356476E-2,-2.1371858E-2,2.1326177E-1,4.7299065E-2,1.6010918E-1,2.1374536E-1,5.3105634E-2,-1.0361239E-1,9.012783E-2,1.3531114E-1,1.0850006E-1,-5.319696E-3,-1.0255521E-1,-1.2535337E-4],"categories":[],"categories_nodes":[],"categories_segments":[],"categories_sizes":[],"default_left":[0,0,0,0,0,0,0,0,0,0,0,0,0,0,0,0,0,0,0,0,0,0,0,0,0,0,0,0,0,0,0,0,0,0,0,0,0,0,0,0,0,0,0,0,0,0,0,0,0,0,0,0,0,0,0],"id":5,"left_children":[1,3,5,7,-1,9,-1,11,13,15,17,-1,19,21,-1,-1,23,25,-1,27,-1,29,-1,-1,-1,31,-1,33,-1,35,37,39,-1,-1,41,43,45,-1,-1,-1,-1,47,-1,49,51,-1,-1,-1,53,-1,-1,-1,-1,-1,-1],"loss_changes":[5.8526117E2,4.0089587E2,1.12728516E2,1.914043E2,0E0,1.0281543E2,0E0,5.6700607E1,3.5132545E1,2.4178818E1,1.3876843E2,0E0,3.6963543E1,3.0301727E1,0E0,0E0,9.511593E0,2.5797974E1,0E0,2.0158546E1,0E0,1.6334686E1,0E0,0E0,0E0,7.75531E0,0E0,1.1410817E1,0E0,1.49964905E1,7.473611E0,2.493509E1,0E0,0E0,6.926942E0,9.077217E0,2.2131805E0,0E0,0E0,0E0,0E0,1.0241701E1,0E0,2.6541367E0,3.4356434E0,0E0,0E0,0E0,2.5750425E0,0E0,0E0,0E0,0E0,0E0,0E0],"parents":[2147483647,0,0,1,1,2,2,3,3,5,5,7,7,8,8,9,9,10,10,12,12,13,13,16,16,17,17,19,19,21,21,25,25,27,27,29,29,30,30,31,31,34,34,35,35,36,36,41,41,43,43,44,44,48,48],"right_children":[2,4,6,8,-1,10,-1,12,14,16,18,-1,20,22,-1,-1,24,26,-1,28,-1,30,-1,-1,-1,32,-1,34,-1,36,38,40,-1,-1,42,44,46,-1,-1,-1,-1,48,-1,50,52,-1,-1,-1,54,-1,-1,-1,-1,-1,-1],"split_conditions":[2.3E1,1E0,1E0,1.7E1,-2.6381612E-1,2.6E1,-1.5206788E-1,1.3E1,1E0,2.4E1,6.2E1,-1.2517644E-1,1E0,1E0,-1.7764762E-1,3.2587808E-1,1E0,1E0,-1.8818079E-1,1E0,-2.4258602E-1,2.2E1,-2.0802103E-1,1.5876898E-1,-3.5081618E-3,3.4E1,7.925352E-1,1.4E1,-2.4268562E-1,2E1,1E0,3E1,3.87242E-1,-4.76649E-2,1.6E1,1E0,2.1E1,6.5394446E-2,-7.191111E-2,4.379958E-1,7.1178216E-1,1E0,-2.1371858E-2,1.8E1,1.8E1,1.6010918E-1,2.1374536E-1,5.3105634E-2,1.5E1,9.012783E-2,1.3531114E-1,1.0850006E-1,-5.319696E-3,-1.0255521E-1,-1.2535337E-4],"split_indices":[9,10,10,9,0,9,0,9,1038,9,9,0,1212,588,0,0,664,664,0,588,0,9,0,0,0,9,0,9,0,9,664,9,0,0,9,664,9,0,0,0,0,664,0,9,9,0,0,0,9,0,0,0,0,0,0],"split_type":[0,0,0,0,0,0,0,0,0,0,0,0,0,0,0,0,0,0,0,0,0,0,0,0,0,0,0,0,0,0,0,0,0,0,0,0,0,0,0,0,0,0,0,0,0,0,0,0,0,0,0,0,0,0,0],"sum_hessian":[1.5332207E4,1.3240053E4,2.0921548E3,1.106649E4,2.1735625E3,1.9143928E3,1.7776204E2,7.0285894E3,4.0379006E3,9.544841E2,9.599087E2,2.5090889E3,4.5195005E3,3.8964912E3,1.4140948E2,2.5712918E2,6.973549E2,8.623088E2,9.7599915E1,4.299369E3,2.2013127E2,3.8032598E3,9.32314E1,5.580526E2,1.393023E2,7.7198535E2,9.032344E1,4.188747E3,1.106221E2,3.1691438E3,6.34116E2,5.3494354E2,2.370418E2,1.2571025E3,2.9316448E3,2.1509397E3,1.0182041E3,4.69545E2,1.6457103E2,3.900705E2,1.4487306E2,1.9118915E3,1.01975323E3,1.7438146E3,4.0712503E2,5.8618024E2,4.3202386E2,1.6051234E3,3.0676816E2,6.50555E2,1.0932596E3,1.12374115E2,2.9475092E2,1.7163303E2,1.3513513E2],"tree_param":{"num_deleted":"0","num_feature":"1262","num_nodes":"55","size_leaf_vector":"1"}},{"base_weights":[-1.1291175E-2,-5.1781684E-2,1.194621E0,-9.042913E-2,1.3737103E0,-1.7389008E-1,4.2502087E-1,1.8718543E0,-5.8171187E-2,-2.309501E-1,-8.3848484E-2,6.744368E-1,-2.904119E-1,1.9934848E-1,-2.8845987E-1,-2.781161E-1,-5.448933E-2,2.3507591E-2,-3.6446893E-1,4.5221147E-1,1.3391433E0,-2.710067E-1,-2.8928584E-1,5.5702776E-2,-2.8962016E-1,-3.384265E-1,-2.8957027E-1,5.5560434E-1,-2.886065E-1,1.3479819E0,3.105913E-2,-1.4715262E-1,-2.889158E-1,7.422406E-2,-2.8830454E-1,-2.1430771E-1,-1.3386545E-1,3.6817813E-1,-2.8817376E-1,1.0463629E-3,1.10241406E-1],"categories":[],"categories_nodes":[],"categories_segments":[],"categories_sizes":[],"default_left":[0,0,0,0,0,0,0,0,0,0,0,0,0,0,0,0,0,0,0,0,0,0,0,0,0,0,0,0,0,0,0,0,0,0,0,0,0,0,0,0,0],"id":6,"left_children":[1,3,-1,5,7,9,11,-1,13,15,17,19,-1,-1,-1,21,-1,23,25,27,29,31,-1,33,-1,35,-1,37,-1,-1,-1,-1,-1,39,-1,-1,-1,-1,-1,-1,-1],"loss_changes":[1.3373123E3,8.26646E2,0E0,6.284922E2,1.1313708E3,6.45762E1,4.8153506E2,0E0,4.467419E1,4.820929E1,1.4697832E2,2.3753204E2,0E0,0E0,0E0,9.647064E0,0E0,6.192001E1,5.328903E0,1.2180559E2,5.62316E2,8.40033E0,0E0,3.5506725E1,0E0,5.25E0,0E0,1.2595529E2,0E0,0E0,0E0,0E0,0E0,2.9009766E1,0E0,0E0,0E0,0E0,0E0,0E0,0E0],"parents":[2147483647,0,0,1,1,3,3,4,4,5,5,6,6,8,8,9,9,10,10,11,11,15,15,17,17,18,18,19,19,20,20,21,21,23,23,25,25,27,27,33,33],"right_children":[2,4,-1,6,8,10,12,-1,14,16,18,20,-1,-1,-1,22,-1,24,26,28,30,32,-1,34,-1,36,-1,38,-1,-1,-1,-1,-1,40,-1,-1,-1,-1,-1,-1,-1],"split_conditions":[1E0,1E0,1.194621E0,1E0,2E0,2E0,3E0,1.8718543E0,3E0,1E0,4E0,2E0,-2.904119E-1,1.9934848E-1,-2.8845987E-1,1E0,-5.448933E-2,1E0,6E0,1E0,2E0,1E0,-2.8928584E-1,1E0,-2.8962016E-1,5E0,-2.8957027E-1,1E0,-2.886065E-1,1.3479819E0,3.105913E-2,-1.4715262E-1,-2.889158E-1,3E0,-2.8830454E-1,-2.1430771E-1,-1.3386545E-1,3.6817813E-1,-2.8817376E-1,1.0463629E-3,1.10241406E-1],"split_indices":[1219,1074,0,7,4,4,4,0,4,10,4,4,0,0,0,608,0,10,4,20,7,588,0,608,0,4,0,10,0,0,0,0,0,4,0,0,0,0,0,0,0],"split_type":[0,0,0,0,0,0,0,0,0,0,0,0,0,0,0,0,0,0,0,0,0,0,0,0,0,0,0,0,0,0,0,0,0,0,0,0,0,0,0,0,0],"sum_hessian":[1.5281793E4,1.5001675E4,2.801184E2,1.4606603E4,3.9507257E2,1.2571677E4,2.0349258E3,1.6453224E2,2.3054033E2,7.6942246E3,4.8774517E3,1.6111462E3,4.2377957E2,1.2116565E2,1.0937468E2,5.6780166E3,2.0162079E3,3.5284863E3,1.3489656E3,1.2087245E3,4.024217E2,5.5183096E3,1.5970702E2,3.3324033E3,1.9608292E2,1.1593236E3,1.8964189E2,1.0928497E3,1.158748E2,2.1743863E2,1.8498305E2,5.385864E3,1.3244579E2,3.2291667E3,1.0323655E2,7.79258E2,3.800656E2,9.942759E2,9.857388E1,2.0409286E3,1.1882383E3],"tree_param":{"num_deleted":"0","num_feature":"1262","num_nodes":"41","size_leaf_vector":"1"}},{"base_weights":[2.8998076E-3,-3.070342E-1,8.109022E-1,-3.7093985E-1,8.063291E-2,4.6366423E-1,1.8411961E0,-4.293442E-1,-2.8986678E-1,-3.7965053E-1,3.4219983E-1,7.5270283E-1,-1.507748E-1,1.397461E0,2.2074385E0,-3.7653232E-1,-4.8253876E-1,-2.6731417E-1,-4.0947697E-1,-2.8004342E-1,-1.412775E-1,2.1297608E-1,6.8277806E-1,2.5880173E-1,1.1600438E0,1.1688165E-1,-3.5983667E-1,8.8578355E-1,1.157708E0,1.353906E0,7.354748E-1,-4.4349393E-1,-1.977898E-1,-2.7834794E-1,-2.4670063E-1,-3.102715E-1,-1.0754345E-1,-2.4219544E-1,-1.4406928E-1,3.0585614E-1,1.6107082E-2,5.1348877E-1,1.2704538E-1,8.9568876E-2,4.4016296E-1,2.024119E0,9.730875E-1,-1.9125648E-2,2.4723087E-1,-2.636131E-1,-2.3506314E-1,3.3815795E-1,8.6170423E-1,-2.7479446E-1,-1.8310098E-1,-2.5525782E-1,-2.0691076E-1,1.1867812E-1,3.8968417E-1,-9.418744E-2,7.821182E-2,4.5387894E-1,1.648368E-1,9.693802E-1,1.2398529E0,1.9227229E-1,1.0677527E0,-2.535919E-1,-5.394962E-2,-1.7831054E-1,-1.2789544E-1,1.2162263E0,8.2590425E-1,1.0071998E0,9.9951416E-1,5.014186E-1,7.1577543E-1,4.822904E-1,7.608635E-1,3.7462118E-1,1.7291577E-1],"categories":[],"categories_nodes":[],"categories_segments":[],"categories_sizes":[],"default_left":[0,0,0,0,0,0,0,0,0,0,0,0,0,0,0,0,0,0,0,0,0,0,0,0,0,0,0,0,0,0,0,0,0,0,0,0,0,0,0,0,0,0,0,0,0,0,0,0,0,0,0,0,0,0,0,0,0,0,0,0,0,0,0,0,0,0,0,0,0,0,0,0,0,0,0,0,0,0,0,0,0],"id":7,"left_children":[1,3,5,7,9,11,13,15,17,19,21,23,25,27,29,31,33,35,37,-1,-1,39,41,43,45,47,49,-1,51,-1,-1,53,-1,-1,-1,55,-1,-1,-1,57,59,-1,-1,-1,61,63,65,-1,-1,67,-1,-1,-1,-1,-1,69,-1,-1,-1,-1,-1,-1,-1,-1,-1,-1,71,-1,-1,-1,-1,73,75,77,-1,79,-1,-1,-1,-1,-1],"loss_changes":[3.7960781E3,2.7145337E2,1.5026125E3,4.44115E1,1.8689633E2,5.585632E2,1.6901709E2,1.5171448E1,1.052301E1,8.641083E0,4.3411674E1,4.2997168E2,5.6379868E1,2.0835632E1,1.1378027E2,3.6355286E0,1.7023926E0,1.0462128E1,2.353691E0,0E0,0E0,1.3140675E1,2.956128E1,1.7067085E1,1.8732092E2,2.196344E1,3.324562E0,0E0,4.664038E1,0E0,0E0,3.5730667E0,0E0,0E0,0E0,7.0608673E0,0E0,0E0,0E0,1.7673561E1,5.378665E0,0E0,0E0,0E0,1.8035675E1,8.120972E0,5.693286E1,0E0,0E0,7.231818E0,0E0,0E0,0E0,0E0,0E0,1.7623367E0,0E0,0E0,0E0,0E0,0E0,0E0,0E0,0E0,0E0,0E0,2.9092712E1,0E0,0E0,0E0,0E0,6.1146606E1,4.762674E1,1.81221E1,0E0,6.0583572E0,0E0,0E0,0E0,0E0,0E0],"parents":[2147483647,0,0,1,1,2,2,3,3,4,4,5,5,6,6,7,7,8,8,9,9,10,10,11,11,12,12,13,13,14,14,15,15,16,16,17,17,18,18,21,21,22,22,23,23,24,24,25,25,26,26,28,28,31,31,35,35,39,39,40,40,44,44,45,45,46,46,49,49,55,55,66,66,71,71,72,72,73,73,75,75],"right_children":[2,4,6,8,10,12,14,16,18,20,22,24,26,28,30,32,34,36,38,-1,-1,40,42,44,46,48,50,-1,52,-1,-1,54,-1,-1,-1,56,-1,-1,-1,58,60,-1,-1,-1,62,64,66,-1,-1,68,-1,-1,-1,-1,-1,70,-1,-1,-1,-1,-1,-1,-1,-1,-1,-1,72,-1,-1,-1,-1,74,76,78,-1,80,-1,-1,-1,-1,-1],"split_conditions":[2.1E1,1E0,1E0,8E0,2E0,8E1,3.2E1,2.8E1,5.3E1,1E0,1.6E1,2.9E1,1E2,5.1E1,8.3E1,2.2E1,4E0,1.5E1,1.9E1,-2.8004342E-1,-1.412775E-1,1.3E1,2E1,2.6E1,5.6E1,6.2E1,1.28E2,8.8578355E-1,5.3E1,1.353906E0,7.354748E-1,1E0,-1.977898E-1,-2.7834794E-1,-2.4670063E-1,1.2E1,-1.0754345E-1,-2.4219544E-1,-1.4406928E-1,1.1E1,1.4E1,5.1348877E-1,1.2704538E-1,8.9568876E-2,4.9E1,5.2E1,3.2E1,-1.9125648E-2,2.4723087E-1,6.8E1,-2.3506314E-1,3.3815795E-1,8.6170423E-1,-2.7479446E-1,-1.8310098E-1,9E0,-2.0691076E-1,1.1867812E-1,3.8968417E-1,-9.418744E-2,7.821182E-2,4.5387894E-1,1.648368E-1,9.693802E-1,1.2398529E0,1.9227229E-1,6.9E1,-2.535919E-1,-5.394962E-2,-1.7831054E-1,-1.2789544E-1,4.1E1,4.8E1,6.2E1,9.9951416E-1,7.3E1,7.1577543E-1,4.822904E-1,7.608635E-1,3.7462118E-1,1.7291577E-1],"split_indices":[8,177,177,8,8,2,8,2,2,8,8,8,2,2,2,2,8,8,8,0,0,8,8,8,2,8,2,0,2,0,0,8,0,0,0,8,0,0,0,8,8,0,0,0,2,2,8,0,0,8,0,0,0,0,0,8,0,0,0,0,0,0,0,0,0,0,2,0,0,0,0,8,8,2,0,2,0,0,0,0,0],"split_type":[0,0,0,0,0,0,0,0,0,0,0,0,0,0,0,0,0,0,0,0,0,0,0,0,0,0,0,0,0,0,0,0,0,0,0,0,0,0,0,0,0,0,0,0,0,0,0,0,0,0,0,0,0,0,0,0,0,0,0,0,0,0,0,0,0,0,0,0,0,0,0,0,0,0,0,0,0,0,0,0,0],"sum_hessian":[1.5156403E4,1.0954927E4,4.201477E3,9.404645E3,1.5502816E3,3.1434846E3,1.0579923E3,5.464075E3,3.9405693E3,5.615905E2,9.8869116E2,2.1376748E3,1.00580975E3,4.805633E2,5.774291E2,2.7459536E3,2.7181216E3,3.3181616E3,6.2240784E2,2.805871E2,2.8100342E2,7.1792004E2,2.7077112E2,9.6691974E2,1.1707551E3,4.41285E2,5.645248E2,2.6103305E2,2.1953023E2,4.5730124E2,1.2012785E2,6.417454E2,2.1042083E3,1.8351316E3,8.829901E2,2.095288E3,1.2228734E3,5.2795264E2,9.445517E1,4.8741214E2,2.3050787E2,1.7617155E2,9.459957E1,6.2978735E2,3.3713242E2,2.0650476E2,9.6425037E2,3.025977E2,1.3868732E2,2.257229E2,3.3880185E2,9.261173E1,1.269185E2,4.4115527E2,2.0059012E2,1.1133275E3,9.819607E2,3.9640414E2,9.1008E1,9.246089E1,1.3804698E2,9.175398E1,2.4537842E2,9.180145E1,1.147033E2,1.2707844E2,8.3717194E2,1.0383192E2,1.2189098E2,3.0500488E2,8.083226E2,5.162259E2,3.2094604E2,3.818803E2,1.3434558E2,1.8977042E2,1.3117564E2,2.7817303E2,1.03707245E2,9.814845E1,9.162196E1],"tree_param":{"num_deleted":"0","num_feature":"1262","num_nodes":"81","size_leaf_vector":"1"}},{"base_weights":[-6.059963E-4,-2.555665E-1,1.2020016E0,-2.7790993E-1,1.6984472E-1,2.3425686E0,8.5717463E-1,-2.4540165E-1,-2.8494686E-1,1.0458455E0,-4.3868756E-1,5.672693E-1,3.999009E0,6.998962E-1,2.3035684E0,-4.0018356E-1,-2.085894E-1,1.0931642E0,2.8657153E-1,-1.9501546E-1,-2.8955317E-1,5.550595E-1,2.6360221E-2,2.787946E0,1.4600302E0,5.471938E-1,1.4877105E0,-2.3072983E-1,-1.1859347E-1,-2.1797375E-1,1.8494979E-1,6.236493E-1,-2.884441E-1,1.1602181E0,3.5874408E-1,-1.1177003E-1,-2.5518078E-1,3.6209142E-1,-1.2551898E-1,1.0250796E0,3.1698766E-1,-1.2135659E-2,-2.904003E-1,-4.267511E-1,-2.0961224E-1,1.0550989E-1,1.432808E0,2.251282E-1,4.3375063E-1,-1.5364775E-1,7.811132E-1,-3.004204E-1,-4.8737815E-1,-2.4751224E-1,-1.0644419E-1,1.9442315E0,5.299934E-1,3.34665E-1,1.4409359E-1,-2.6357135E-1,9.2638545E-2,5.7877004E-1,2.4107933E-1,-2.8942126E-1,-1.4289758E-1,-2.7959394E-1,-1.944487E-1,-2.6053125E-1,6.872321E-2,-4.9952053E-2,-2.4393335E-1,6.526495E-1,1.389794E0,5.7698894E-1,-5.5550095E-2,-8.4120095E-2,4.3813485E-1,-3.4302992E-1,-1.1358598E-1,1.1064868E-1,-1.9232755E-3,6.382841E-2,-1.7322573E-1,-3.0155423E-1,-1.6702749E-1,8.8069536E-2,-2.6993358E-1,3.9535022E-1,2.4036038E-1,4.671533E-1,-2.1775208E-2,-1.1767703E-1,-2.8949866E-1,-1.9951689E-1,-3.5460117E-1,9.2641495E-2,-2.3642756E-1,8.950439E-3,2.973808E-1,-4.0493405E-1,-2.8701523E-2,-2.8961575E-1,1.0996053E-1,-4.139907E-1,-2.828362E-1,-8.225314E-2,-3.4170252E-1,-2.0636865E-1,2.2824405E-1,-2.8924385E-1,-1.2996773E-1,-7.3227875E-2,-3.871499E-1,-3.6454794E-1,-2.6654443E-1,-9.218308E-2,-4.251465E-1,-2.8822106E-1,9.3963176E-2,-2.5862756E-1,-1.9910777E-1,2.4586713E-2,-1.9668059E-1,3.6047977E-1,-8.681238E-3,-2.1004547E-1,1.4826185E-1,-7.6774165E-2,-2.646389E-1,-2.913598E-1,-2.892174E-1,-1.5025227E-1,-2.8960922E-1,2.3490767E-1,-2.0613201E-1,-2.2503844E-1,3.5210144E-2,-3.8808843E-1,-4.0749725E-2,-1.6090481E-1,-2.8814074E-1],"categories":[],"categories_nodes":[],"categories_segments":[],"categories_sizes":[],"default_left":[0,0,0,0,0,0,0,0,0,0,0,0,0,0,0,0,0,0,0,0,0,0,0,0,0,0,0,0,0,0,0,0,0,0,0,0,0,0,0,0,0,0,0,0,0,0,0,0,0,0,0,0,0,0,0,0,0,0,0,0,0,0,0,0,0,0,0,0,0,0,0,0,0,0,0,0,0,0,0,0,0,0,0,0,0,0,0,0,0,0,0,0,0,0,0,0,0,0,0,0,0,0,0,0,0,0,0,0,0,0,0,0,0,0,0,0,0,0,0,0,0,0,0,0,0,0,0,0,0,0,0,0,0,0,0,0,0,0,0,0,0],"id":8,"left_children":[1,3,5,7,9,11,13,15,-1,17,19,21,23,25,-1,27,29,-1,-1,-1,-1,-1,-1,-1,-1,31,33,-1,-1,35,37,39,-1,-1,-1,41,43,-1,-1,45,47,49,-1,51,53,-1,55,57,-1,59,61,63,65,67,69,71,-1,73,75,77,79,-1,-1,-1,81,-1,-1,83,-1,85,-1,-1,-1,87,-1,-1,89,91,-1,-1,-1,-1,-1,93,95,97,99,-1,-1,-1,-1,-1,-1,101,103,-1,105,107,-1,109,-1,111,-1,113,115,117,119,121,123,-1,-1,125,127,129,-1,-1,131,-1,133,-1,135,-1,-1,-1,-1,-1,-1,-1,-1,137,-1,-1,-1,-1,-1,-1,-1,139,-1,-1,-1],"loss_changes":[4.6485425E3,1.18944824E2,1.0409961E3,9.060394E1,3.335354E2,1.8064194E3,1.0509327E3,5.9411804E1,0E0,1.2422507E2,2.4869537E0,6.6809875E1,4.3079395E2,2.3329846E2,0E0,5.528961E0,3.120102E1,0E0,0E0,0E0,0E0,0E0,0E0,0E0,0E0,1.333364E2,1.5802142E2,0E0,0E0,3.2537933E1,3.7920765E1,1.8715594E2,0E0,0E0,0E0,8.757956E1,4.7621185E1,0E0,0E0,2.2418597E2,3.6647766E1,1.9356548E2,0E0,9.654861E0,1.8835068E1,0E0,1.0663501E2,6.3710976E0,0E0,3.9637955E1,2.315213E1,1.4421749E1,1.6907654E0,1.7076126E1,2.4354149E1,8.841571E1,0E0,3.236579E1,3.6332466E1,4.68853E0,4.628128E0,0E0,0E0,0E0,1.0691692E1,0E0,0E0,1.3021561E1,0E0,3.373797E1,0E0,0E0,0E0,3.520012E0,0E0,0E0,4.0275635E1,9.94384E0,0E0,0E0,0E0,0E0,0E0,1.2743546E1,2.4160192E1,2.4154993E1,1.2601801E1,0E0,0E0,0E0,0E0,0E0,0E0,2.913242E1,6.51622E0,0E0,1.3972038E1,2.7498083E1,0E0,5.106415E0,0E0,1.3951389E1,0E0,2.5818787E0,1.1712189E1,2.706408E1,8.94154E0,1.0881739E1,2.9588411E1,0E0,0E0,2.1552399E1,1.0053055E1,5.423256E0,0E0,0E0,4.593899E0,0E0,3.8531853E1,0E0,1.2974276E1,0E0,0E0,0E0,0E0,0E0,0E0,0E0,0E0,7.0325737E0,0E0,0E0,0E0,0E0,0E0,0E0,0E0,2.8272781E0,0E0,0E0,0E0],"parents":[2147483647,0,0,1,1,2,2,3,3,4,4,5,5,6,6,7,7,9,9,10,10,11,11,12,12,13,13,15,15,16,16,25,25,26,26,29,29,30,30,31,31,35,35,36,36,39,39,40,40,41,41,43,43,44,44,46,46,47,47,49,49,50,50,51,51,52,52,53,53,54,54,55,55,57,57,58,58,59,59,60,60,64,64,67,67,69,69,73,73,76,76,77,77,83,83,84,84,85,85,86,86,93,93,94,94,96,96,97,97,99,99,101,101,103,103,104,104,105,105,106,106,107,107,108,108,111,111,112,112,113,113,116,116,118,118,120,120,129,129,137,137],"right_children":[2,4,6,8,10,12,14,16,-1,18,20,22,24,26,-1,28,30,-1,-1,-1,-1,-1,-1,-1,-1,32,34,-1,-1,36,38,40,-1,-1,-1,42,44,-1,-1,46,48,50,-1,52,54,-1,56,58,-1,60,62,64,66,68,70,72,-1,74,76,78,80,-1,-1,-1,82,-1,-1,84,-1,86,-1,-1,-1,88,-1,-1,90,92,-1,-1,-1,-1,-1,94,96,98,100,-1,-1,-1,-1,-1,-1,102,104,-1,106,108,-1,110,-1,112,-1,114,116,118,120,122,124,-1,-1,126,128,130,-1,-1,132,-1,134,-1,136,-1,-1,-1,-1,-1,-1,-1,-1,138,-1,-1,-1,-1,-1,-1,-1,140,-1,-1,-1],"split_conditions":[1E0,5.9E1,5E0,4.643241E0,4.8096747E0,1E0,6.3E1,3.7409532E0,-2.8494686E-1,6.5E1,8.5E1,3.8731406E0,3.869123E0,3.9E1,2.3035684E0,8E0,4.7E1,1.0931642E0,2.8657153E-1,-1.9501546E-1,-2.8955317E-1,5.550595E-1,2.6360221E-2,2.787946E0,1.4600302E0,1E0,4.482123E0,-2.3072983E-1,-1.1859347E-1,2E0,5.2E1,4.182006E0,-2.884441E-1,1.1602181E0,3.5874408E-1,4.192977E0,9E0,3.6209142E-1,-1.2551898E-1,1E1,3.2E1,4.0959687E0,-2.904003E-1,7E0,4.327669E0,1.0550989E-1,2E0,4.296338E0,4.3375063E-1,1E0,1E0,5E0,4.264125E0,1E0,4E0,3.9928706E0,5.299934E-1,3E0,2.2E1,3.9141595E0,3.8780682E0,5.7877004E-1,2.4107933E-1,-2.8942126E-1,4.011365E0,-2.7959394E-1,-1.944487E-1,2E1,6.872321E-2,4.482123E0,-2.4393335E-1,6.526495E-1,1.389794E0,2E0,-5.5550095E-2,-8.4120095E-2,2.9E1,3.836082E0,-1.1358598E-1,1.1064868E-1,-1.9232755E-3,6.382841E-2,-1.7322573E-1,4.017918E0,2.3E1,3.1E1,4.568244E0,3.9535022E-1,2.4036038E-1,4.671533E-1,-2.1775208E-2,-1.1767703E-1,-2.8949866E-1,3.9692073E0,4.16637E0,9.2641495E-2,4.1554646E0,4.387434E0,2.973808E-1,1E0,-2.8701523E-2,3.8441064E0,1.0996053E-1,1.5E1,4.252453E0,4.017918E0,4.2554846E0,2E0,1.7E1,-2.8924385E-1,-1.2996773E-1,3.8035088E0,1.2E1,2E0,-2.6654443E-1,-9.218308E-2,1.4E1,-2.8822106E-1,3.1E1,-2.5862756E-1,2.9E1,2.4586713E-2,-1.9668059E-1,3.6047977E-1,-8.681238E-3,-2.1004547E-1,1.4826185E-1,-7.6774165E-2,-2.646389E-1,4.1013675E0,-2.892174E-1,-1.5025227E-1,-2.8960922E-1,2.3490767E-1,-2.0613201E-1,-2.2503844E-1,3.5210144E-2,4.060262E0,-4.0749725E-2,-1.6090481E-1,-2.8814074E-1],"split_indices":[177,8,8,0,0,8,8,0,0,8,8,0,0,8,0,8,8,0,0,0,0,0,0,0,0,1078,0,0,0,8,8,0,0,0,0,0,8,0,0,8,8,0,0,8,0,0,4,0,0,8,8,8,0,608,4,0,0,4,8,0,0,0,0,0,0,0,0,8,0,0,0,0,0,4,0,0,8,0,0,0,0,0,0,0,8,8,0,0,0,0,0,0,0,0,0,0,0,0,0,7,0,0,0,8,0,0,0,4,8,0,0,0,8,4,0,0,8,0,8,0,8,0,0,0,0,0,0,0,0,0,0,0,0,0,0,0,0,0,0,0,0],"split_type":[0,0,0,0,0,0,0,0,0,0,0,0,0,0,0,0,0,0,0,0,0,0,0,0,0,0,0,0,0,0,0,0,0,0,0,0,0,0,0,0,0,0,0,0,0,0,0,0,0,0,0,0,0,0,0,0,0,0,0,0,0,0,0,0,0,0,0,0,0,0,0,0,0,0,0,0,0,0,0,0,0,0,0,0,0,0,0,0,0,0,0,0,0,0,0,0,0,0,0,0,0,0,0,0,0,0,0,0,0,0,0,0,0,0,0,0,0,0,0,0,0,0,0,0,0,0,0,0,0,0,0,0,0,0,0,0,0,0,0,0,0],"sum_hessian":[1.5158722E4,1.250778E4,2.650942E3,1.1883958E4,6.238216E2,6.140583E2,2.0368837E3,1.0440681E4,1.4432771E3,2.554192E2,3.684024E2,2.9704312E2,3.1701517E2,1.9450549E3,9.182871E1,2.0041401E3,8.436541E3,9.2311134E1,1.6310808E2,1.8087173E2,1.8753067E2,1.6180524E2,1.352379E2,1.804698E2,1.3654536E2,1.630675E3,3.1437997E2,1.8540345E3,1.501056E2,8.240484E3,1.9605681E2,1.521956E3,1.0871893E2,1.8271931E2,1.3166066E2,2.138981E3,6.101503E3,9.152027E1,1.0453654E2,6.5811676E2,8.638393E2,1.7222788E3,4.167022E2,1.2786996E3,4.8228037E3,2.1636467E2,4.417521E2,7.2219995E2,1.4163936E2,1.4622297E3,2.60049E2,4.1659045E2,8.621092E2,3.5260635E3,1.2967401E3,2.1219398E2,2.295581E2,3.0576233E2,4.1643762E2,1.01094855E3,4.5128122E2,1.4749048E2,1.1255854E2,1.726909E2,2.4389957E2,7.712006E2,9.090855E1,3.4068652E3,1.1919811E2,1.1094004E3,1.8733972E2,9.034693E1,1.2184706E2,1.9609964E2,1.09662704E2,2.0795901E2,2.0847859E2,4.2949622E2,5.8145233E2,2.1358434E2,2.3769688E2,9.664865E1,1.4725092E2,2.3664192E3,1.040446E3,6.820597E2,4.2734067E2,9.9553825E1,9.6545815E1,1.1269378E2,9.578481E1,2.4839276E2,1.8110345E2,8.1106793E2,1.5553513E3,1.7887479E2,8.615713E2,5.8036566E2,1.0169405E2,2.6351425E2,1.638264E2,6.613834E2,1.4968451E2,8.48446E2,7.0690533E2,3.5031656E2,5.112547E2,2.9286627E2,2.8749936E2,1.5606387E2,1.0745038E2,2.0603276E2,4.5535068E2,4.876611E2,3.6078488E2,3.8920178E2,3.1770355E2,1.0021114E2,2.5010542E2,2.725734E2,2.386813E2,1.08787056E2,1.8407922E2,1.04935165E2,1.8256421E2,1.0859452E2,9.743825E1,1.2062145E2,3.3472922E2,3.3380334E2,1.5385774E2,1.2306944E2,1.9463411E2,1.4655879E2,1.0354662E2,1.3346852E2,1.0521277E2,2.3068294E2,1.0312041E2,1.33221E2,9.746196E1],"tree_param":{"num_deleted":"0","num_feature":"1262","num_nodes":"141","size_leaf_vector":"1"}},{"base_weights":[3.1540645E-3,-5.290513E-2,2.5692245E-1,-9.6848374E-4,-1.8838166E-1,-1.5050293E-2,1.1439248E0,1.0180373E-1,-8.1511654E-2,-1.4012923E-2,-2.7535725E-1,-1.3973543E-1,8.1286573E-1,9.4358623E-1,-1.7198388E-2,3.25749E-1,5.5415414E-2,-1.3743143E-1,2.8937435E-1,1.7476465E-1,-2.1846637E-1,-3.0001217E-1,5.2444894E-2,-1.12759866E-1,-2.122081E-1,-2.1134229E-1,9.9854034E-1,-1.1184981E-1,8.704701E-1,1.8817413E-1,3.4558337E-2,-6.143696E-2,-2.6914883E-1,-4.1090167E-1,1.6156741E0,-1.3693392E-1,2.8280127E-1,-2.6402038E-1,-4.5126414E-1,-6.7221224E-2,-3.051434E-1,-2.281407E-1,1.0490487E-2,3.0778912E-1,5.851378E-1,-7.427111E-2,2.3335804E-1,-1.633356E-2,9.51731E-2,2.749116E-2,-1.8500288E-1,-2.1689266E-1,-2.0248182E-1,-1.7312668E-1,-2.6122376E-1,1.8948717E0,2.4944285E-2,-2.4506715E-1,-2.459463E-1,-2.8296208E-1,-2.0481086E-1,-1.0759396E-1,5.0718185E-2,-3.5408102E-2,-2.2690503E-1,-4.857895E-2,1.1807507E-2,1.8095946E-1,-9.263516E-3,-2.4708024E-1,1.3232493E-1,-1.4336291E-1,-2.0233783E-1,-2.838033E-1,-9.0461604E-2,-1.5285489E-1,-1.5243603E-1,-9.209851E-3,1.6299894E-1,-1.10502355E-1,5.7768144E-2,3.0211258E-1,-8.830201E-2,-1.532591E-2,-2.2415744E-1,2.7530957E-2,3.3169997E-1,-4.294283E-2,-2.0505653E-1,-3.4930548E-1,-2.100217E-1,-1.6549978E-2,-1.5189867E-1,2.955679E-2,-1.5840916E-1,2.7033439E-2,-1.5680672E-1,-1.2675413E-2,-1.6166483E-1,-4.5906287E-2,4.8703454E-2,8.025603E-2,3.0144727E-1,7.068183E-2,-5.8529355E-2,1.8211614E-2,-7.8258716E-2,-1.548757E-1,-1.562383E-1,-1.2869808E-1,-2.2401066E-1,-2.3097742E-1,5.8130664E-3,-1.0819095E-1,1.493327E-1,-2.3223387E-2,8.806363E-2,1.3656428E-1,-1.4680927E-2,-4.1559123E-2,-1.2210901E-1,3.7503406E-2,1.14913546E-1],"categories":[],"categories_nodes":[],"categories_segments":[],"categories_sizes":[],"default_left":[0,0,0,0,0,0,0,0,0,0,0,0,0,0,0,0,0,0,0,0,0,0,0,0,0,0,0,0,0,0,0,0,0,0,0,0,0,0,0,0,0,0,0,0,0,0,0,0,0,0,0,0,0,0,0,0,0,0,0,0,0,0,0,0,0,0,0,0,0,0,0,0,0,0,0,0,0,0,0,0,0,0,0,0,0,0,0,0,0,0,0,0,0,0,0,0,0,0,0,0,0,0,0,0,0,0,0,0,0,0,0,0,0,0,0,0,0,0,0,0,0,0,0],"id":9,"left_children":[1,3,5,7,9,11,13,15,17,19,21,23,25,-1,-1,27,29,31,33,35,-1,37,-1,39,-1,-1,-1,41,43,45,47,49,51,53,55,-1,-1,57,59,61,63,-1,-1,-1,-1,-1,-1,65,67,69,71,73,-1,-1,-1,-1,-1,75,-1,-1,-1,-1,77,-1,-1,-1,79,81,-1,83,85,87,-1,89,91,-1,93,95,-1,97,99,101,-1,-1,-1,103,-1,105,107,109,111,113,-1,-1,-1,-1,-1,-1,-1,-1,-1,115,-1,117,-1,-1,-1,-1,119,-1,-1,-1,-1,-1,-1,-1,-1,121,-1,-1,-1,-1,-1],"loss_changes":[2.1581825E2,8.7429886E1,6.6220374E2,7.436837E1,5.221917E1,2.1707666E2,4.1931512E2,4.0989567E1,1.045036E2,8.215798E1,2.0970749E1,1.1893013E1,3.2382098E2,0E0,0E0,1.6151147E2,9.051501E0,4.380249E1,6.138862E2,1.0797676E2,0E0,1.1607086E1,0E0,1.4397633E1,0E0,0E0,0E0,1.4703701E1,1.6849182E1,3.3163383E1,8.726413E0,3.052335E1,7.8874817E0,2.398201E0,6.433399E2,0E0,0E0,5.787773E0,1.7889252E0,1.9864975E1,7.81196E0,0E0,0E0,0E0,0E0,0E0,0E0,3.0781476E0,1.238962E1,4.654464E1,8.616325E0,8.741165E0,0E0,0E0,0E0,0E0,0E0,4.339424E0,0E0,0E0,0E0,0E0,1.0031331E1,0E0,0E0,0E0,6.2063556E0,3.0133701E1,0E0,1.5316532E1,5.6943222E1,5.8443832E0,0E0,3.1994934E0,4.862821E0,0E0,1.0594759E1,8.764598E0,0E0,4.76455E0,3.3714023E0,2.8694763E1,0E0,0E0,0E0,5.4862833E0,0E0,2.678465E0,2.059185E0,2.1685371E0,1.4555378E1,1.3138237E1,0E0,0E0,0E0,0E0,0E0,0E0,0E0,0E0,0E0,2.6930058E0,0E0,4.6223965E0,0E0,0E0,0E0,0E0,1.8144436E0,0E0,0E0,0E0,0E0,0E0,0E0,0E0,0E0,2.0732307E0,0E0,0E0,0E0,0E0,0E0],"parents":[2147483647,0,0,1,1,2,2,3,3,4,4,5,5,6,6,7,7,8,8,9,9,10,10,11,11,12,12,15,15,16,16,17,17,18,18,19,19,21,21,23,23,27,27,28,28,29,29,30,30,31,31,32,32,33,33,34,34,37,37,38,38,39,39,40,40,47,47,48,48,49,49,50,50,51,51,57,57,62,62,66,66,67,67,69,69,70,70,71,71,73,73,74,74,76,76,77,77,79,79,80,80,81,81,85,85,87,87,88,88,89,89,90,90,91,91,101,101,103,103,108,108,117,117],"right_children":[2,4,6,8,10,12,14,16,18,20,22,24,26,-1,-1,28,30,32,34,36,-1,38,-1,40,-1,-1,-1,42,44,46,48,50,52,54,56,-1,-1,58,60,62,64,-1,-1,-1,-1,-1,-1,66,68,70,72,74,-1,-1,-1,-1,-1,76,-1,-1,-1,-1,78,-1,-1,-1,80,82,-1,84,86,88,-1,90,92,-1,94,96,-1,98,100,102,-1,-1,-1,104,-1,106,108,110,112,114,-1,-1,-1,-1,-1,-1,-1,-1,-1,116,-1,118,-1,-1,-1,-1,120,-1,-1,-1,-1,-1,-1,-1,-1,122,-1,-1,-1,-1,-1],"split_conditions":[4E0,1E0,1E0,3.6E1,2E0,6E0,3.6E1,2E0,8.5E1,2E0,4E0,1.14E2,9.2E1,9.4358623E-1,-1.7198388E-2,2.4E1,2.3E1,5.4E1,4E0,2.6E1,-2.1846637E-1,7.5E1,5.2444894E-2,5E0,-2.122081E-1,-2.1134229E-1,9.9854034E-1,1.9E1,2.7E1,3E0,2.9E1,3E0,4E0,1.14E2,5E0,-1.3693392E-1,2.8280127E-1,1E0,8.1E1,2E0,2E0,-2.281407E-1,1.0490487E-2,3.0778912E-1,5.851378E-1,-7.427111E-2,2.3335804E-1,3E0,3E0,2E0,1E0,3E0,-2.0248182E-1,-1.7312668E-1,-2.6122376E-1,1.8948717E0,2.4944285E-2,3.8E1,-2.459463E-1,-2.8296208E-1,-2.0481086E-1,-1.0759396E-1,6.2E1,-3.5408102E-2,-2.2690503E-1,-4.857895E-2,1E0,2E0,-9.263516E-3,2E0,3E0,2E0,-2.0233783E-1,3E0,6.9E1,-1.5285489E-1,4.6E1,5.7E1,1.6299894E-1,2.8E1,2.4E1,3.2E1,-8.830201E-2,-1.532591E-2,-2.2415744E-1,4.6E1,3.3169997E-1,4.3E1,4.5E1,2E0,2E0,5.8E1,-1.5189867E-1,2.955679E-2,-1.5840916E-1,2.7033439E-2,-1.5680672E-1,-1.2675413E-2,-1.6166483E-1,-4.5906287E-2,4.8703454E-2,3E1,3.0144727E-1,2E0,-5.8529355E-2,1.8211614E-2,-7.8258716E-2,-1.548757E-1,3E0,-1.2869808E-1,-2.2401066E-1,-2.3097742E-1,5.8130664E-3,-1.0819095E-1,1.493327E-1,-2.3223387E-2,8.806363E-2,3.9E1,-1.4680927E-2,-4.1559123E-2,-1.2210901E-1,3.7503406E-2,1.14913546E-1],"split_indices":[3,11,10,2,3,3,2,3,2,4,4,2,2,0,0,2,2,2,4,2,0,2,0,3,0,0,0,2,2,3,2,3,4,2,4,0,0,10,2,4,4,0,0,0,0,0,0,3,3,3,10,4,0,0,0,0,0,2,0,0,0,0,2,0,0,0,10,4,0,4,4,4,0,3,2,0,2,2,0,2,2,2,0,0,0,2,0,2,2,4,4,2,0,0,0,0,0,0,0,0,0,2,0,4,0,0,0,0,4,0,0,0,0,0,0,0,0,2,0,0,0,0,0],"split_type":[0,0,0,0,0,0,0,0,0,0,0,0,0,0,0,0,0,0,0,0,0,0,0,0,0,0,0,0,0,0,0,0,0,0,0,0,0,0,0,0,0,0,0,0,0,0,0,0,0,0,0,0,0,0,0,0,0,0,0,0,0,0,0,0,0,0,0,0,0,0,0,0,0,0,0,0,0,0,0,0,0,0,0,0,0,0,0,0,0,0,0,0,0,0,0,0,0,0,0,0,0,0,0,0,0,0,0,0,0,0,0,0,0,0,0,0,0,0,0,0,0,0,0],"sum_hessian":[1.5168681E4,1.2424757E4,2.7439233E3,8.982289E3,3.4424678E3,2.1007686E3,6.4315485E2,3.9464272E3,5.0358623E3,1.1460425E3,2.2964253E3,1.8265232E3,2.7424533E2,4.3676114E2,2.0639369E2,6.761599E2,3.2702673E3,4.3766143E3,6.592479E2,7.6542896E2,3.806135E2,2.1530408E3,1.4338449E2,1.6447407E3,1.817825E2,1.2422226E2,1.5002307E2,3.7538834E2,3.0077158E2,4.4292914E2,2.8273381E3,2.7762947E3,1.6003193E3,4.3189886E2,2.2734906E2,3.3872055E2,4.267084E2,1.7414034E3,4.116373E2,1.3310261E3,3.1371463E2,1.13631645E2,2.6175668E2,1.1142863E2,1.8934296E2,1.8560214E2,2.57327E2,1.5373317E3,1.2900066E3,1.6148759E3,1.161419E3,1.0353206E3,5.6499884E2,1.6349918E2,2.6839966E2,1.0558657E2,1.217625E2,1.5764304E3,1.6497311E2,2.3910344E2,1.7253384E2,6.4219385E2,6.888323E2,9.439932E1,2.1931529E2,4.3541626E2,1.1019154E3,7.2969226E2,5.603143E2,4.4583282E2,1.169043E3,9.437823E2,2.176367E2,6.7620844E2,3.591121E2,1.1894384E3,3.869921E2,5.531466E2,1.3568565E2,3.005886E2,8.0132684E2,5.380098E2,1.9168243E2,1.858989E2,2.5993396E2,9.5473083E2,2.1431216E2,3.5980914E2,5.8397314E2,3.562239E2,3.199845E2,2.565223E2,1.02589775E2,1.5196268E2,2.350294E2,4.570854E2,9.606126E1,2.0302458E2,9.756402E1,1.4028833E2,6.610385E2,2.8044568E2,2.5756415E2,7.210094E2,2.3372144E2,2.0325069E2,1.5655846E2,2.3094064E2,3.5303247E2,1.1337851E2,2.4284541E2,1.6511987E2,1.5486462E2,1.5810909E2,9.8413216E1,1.09709236E2,1.7073645E2,4.2931186E2,2.916975E2,1.5558961E2,1.9744287E2,2.1739406E2,2.1191782E2],"tree_param":{"num_deleted":"0","num_feature":"1262","num_nodes":"123","size_leaf_vector":"1"}},{"base_weights":[8.430694E-3,-1.2883873E-1,1.0773507E0,-2.2096112E-1,2.174948E-1,2.1003919E0,6.234689E-1,-1.1389204E-1,-3.4688234E-1,5.0099856E-1,-4.1193563E-2,2.6159515E0,4.4452047E-1,3.7622052E-1,1.9746048E0,9.640305E-2,-2.4898298E-1,-4.1999528E-1,9.628197E-2,6.075189E-1,-6.6067524E-2,7.203478E-2,-2.527142E-1,1.0635893E0,1.8406144E0,1.03593856E-1,1.2517215E0,1.7846922E0,3.985714E-1,-1.1180504E-1,4.228121E-1,-2.6995134E-1,1.2151072E-1,-2.5940958E-1,-2.3093641E-1,3.6756742E-1,-2.6088378E-1,2.3488595E-1,8.220038E-1,1.2436198E-1,-2.0870727E-1,5.670143E-1,-5.0398704E-2,1.0053438E0,3.8599825E-1,-1.0055402E-2,-2.409523E-1,5.782314E-1,-1.5375188E-1,-2.947702E-1,-2.5203176E-2,3.4008908E-1,-2.0751923E-1,-3.563027E-1,2.8069893E-1,7.4693374E-2,4.738937E-1,1.9716365E-2,1.7023933E-1,8.072652E-1,6.7349505E-1,3.279459E-1,3.6648333E-2,8.222455E-2,-2.2875759E-1,9.027463E-2,-3.172478E-1,8.1558853E-1,-4.519257E-2,-3.6146843E-1,-2.1496946E-1,1.23755485E-1,-1.8912005E-1,-2.495807E-1,-2.592671E-1,6.0392267E-1,5.6726754E-1,-1.08142026E-1,2.0697328E-1,3.3799592E-1,-1.1788245E-1,-3.467792E-2,4.0100086E-1,-2.6133215E-1,-1.0233898E-1,6.3865983E-1,2.7141528E-2,-3.2031003E-1,-2.4318787E-1,-1.7502135E-1,-3.6189416E-1,2.917798E-1,-1.2461378E-1,-2.1984683E-2,-3.4849393E-1,7.323856E-1,2.0135942E-1,-2.7780923E-1,1.8335748E-1,-1.1728713E-1,4.1000348E-1,-3.365422E-2,5.4016185E-1,5.721239E-2,-1.4349476E-1,8.1129536E-2,3.210855E-1,-5.979333E-2,-3.407553E-1,-2.2008689E-1,-7.947396E-2,-1.4058791E-1,-2.5413632E-1,-1.14806525E-1,-2.5102478E-1,2.7532125E-1,4.9155083E-1,-1.0704103E-1,-2.2045663E-1,6.775689E-2,3.3869007E-1,-2.2366804E-1,-2.823287E-1,4.887956E-2,-2.7353504E-1,-2.4907474E-1,1.0725057E-1,-5.2105863E-2,-3.6211014E-1,-3.2478052E-1,-7.653463E-2,-8.3179235E-2,-1.9540939E-1,-2.793523E-1,-1.6164231E-1,-2.4743924E-1,-2.5116765E-1,-8.837292E-2,-2.0084809E-1],"categories":[],"categories_nodes":[],"categories_segments":[],"categories_sizes":[],"default_left":[0,0,0,0,0,0,0,0,0,0,0,0,0,0,0,0,0,0,0,0,0,0,0,0,0,0,0,0,0,0,0,0,0,0,0,0,0,0,0,0,0,0,0,0,0,0,0,0,0,0,0,0,0,0,0,0,0,0,0,0,0,0,0,0,0,0,0,0,0,0,0,0,0,0,0,0,0,0,0,0,0,0,0,0,0,0,0,0,0,0,0,0,0,0,0,0,0,0,0,0,0,0,0,0,0,0,0,0,0,0,0,0,0,0,0,0,0,0,0,0,0,0,0,0,0,0,0,0,0,0,0,0,0,0,0,0,0,0,0],"id":10,"left_children":[1,3,5,7,9,11,13,15,17,19,21,23,-1,25,27,29,31,33,35,37,-1,39,-1,-1,-1,41,43,-1,-1,45,47,49,51,-1,53,55,-1,57,59,61,-1,-1,63,-1,-1,65,-1,67,-1,69,71,-1,-1,73,-1,-1,-1,-1,-1,-1,75,-1,77,79,-1,81,83,85,-1,87,89,91,-1,93,-1,95,-1,97,99,101,-1,103,105,-1,-1,-1,-1,107,-1,109,111,-1,-1,-1,113,115,-1,117,-1,-1,119,-1,-1,-1,-1,-1,-1,-1,121,123,125,-1,-1,-1,-1,-1,-1,-1,-1,-1,-1,-1,127,-1,129,131,-1,-1,133,135,-1,-1,-1,-1,-1,137,-1,-1,-1],"loss_changes":[2.2023894E3,4.244392E2,7.9186536E2,1.4162427E2,2.0502342E2,3.4959766E2,3.9500854E2,1.6139517E2,1.564765E2,8.813953E1,6.8516205E1,1.7702466E2,0E0,2.3918445E2,2.8231818E2,1.5108754E2,2.6903305E1,3.6558838E1,1.0523247E2,9.078668E1,0E0,2.6958172E1,0E0,0E0,0E0,1.0813513E2,7.264166E1,0E0,0E0,4.444716E1,9.427771E1,1.9879318E1,4.5368404E1,0E0,7.6239815E1,5.2288742E1,0E0,5.93384E0,6.6645355E1,4.203686E1,0E0,0E0,3.1484678E1,0E0,0E0,3.1852308E1,0E0,1.1101001E2,0E0,1.5742889E1,1.4241569E1,0E0,0E0,8.176094E0,0E0,0E0,0E0,0E0,0E0,0E0,1.3548676E1,0E0,2.141412E1,3.628544E1,0E0,3.026387E1,5.0945587E0,1.3328183E2,0E0,4.928604E0,7.8939095E0,2.8904417E1,0E0,7.4710865E0,0E0,1.4969772E1,0E0,3.4989414E1,3.3942352E1,6.518947E1,0E0,1.7149431E1,9.992138E0,0E0,0E0,0E0,0E0,4.5459976E0,0E0,4.580551E0,2.8861427E0,0E0,0E0,0E0,3.492239E0,1.1079422E1,0E0,3.3570213E0,0E0,0E0,1.5372231E1,0E0,0E0,0E0,0E0,0E0,0E0,0E0,3.3513107E0,1.1961395E1,1.5935263E1,0E0,0E0,0E0,0E0,0E0,0E0,0E0,0E0,0E0,0E0,0E0,7.4422417E0,0E0,4.2571297E0,2.1118393E0,0E0,0E0,3.347454E0,4.2950172E0,0E0,0E0,0E0,0E0,0E0,2.7723331E0,0E0,0E0,0E0],"parents":[2147483647,0,0,1,1,2,2,3,3,4,4,5,5,6,6,7,7,8,8,9,9,10,10,11,11,13,13,14,14,15,15,16,16,17,17,18,18,19,19,21,21,25,25,26,26,29,29,30,30,31,31,32,32,34,34,35,35,37,37,38,38,39,39,42,42,45,45,47,47,49,49,50,50,53,53,60,60,62,62,63,63,65,65,66,66,67,67,69,69,70,70,71,71,73,73,75,75,77,77,78,78,79,79,81,81,82,82,87,87,89,89,90,90,94,94,95,95,97,97,100,100,108,108,109,109,110,110,122,122,124,124,125,125,128,128,129,129,135,135],"right_children":[2,4,6,8,10,12,14,16,18,20,22,24,-1,26,28,30,32,34,36,38,-1,40,-1,-1,-1,42,44,-1,-1,46,48,50,52,-1,54,56,-1,58,60,62,-1,-1,64,-1,-1,66,-1,68,-1,70,72,-1,-1,74,-1,-1,-1,-1,-1,-1,76,-1,78,80,-1,82,84,86,-1,88,90,92,-1,94,-1,96,-1,98,100,102,-1,104,106,-1,-1,-1,-1,108,-1,110,112,-1,-1,-1,114,116,-1,118,-1,-1,120,-1,-1,-1,-1,-1,-1,-1,122,124,126,-1,-1,-1,-1,-1,-1,-1,-1,-1,-1,-1,128,-1,130,132,-1,-1,134,136,-1,-1,-1,-1,-1,138,-1,-1,-1],"split_conditions":[2.4E1,1E0,4.1504107E0,8E0,1E0,1E0,1.2E1,4.0133615E0,2E1,2E0,5.08854E0,2.7E1,4.4452047E-1,3.2E1,3.3E1,1.6E1,7E0,4.436007E0,5.2961063E0,1.6E1,-6.6067524E-2,1E0,-2.527142E-1,1.0635893E0,1.8406144E0,4.2107644E0,4.3506846E0,1.7846922E0,3.985714E-1,2E0,2E0,2.2E1,3E0,-2.5940958E-1,2E1,3.8E1,-2.6088378E-1,3.6302752E0,3.7898982E0,3.9986525E0,-2.0870727E-1,5.670143E-1,3E0,1.0053438E0,3.8599825E-1,1E0,-2.409523E-1,1E0,-1.5375188E-1,1E0,4E0,3.4008908E-1,-2.0751923E-1,4E0,2.8069893E-1,7.4693374E-2,4.738937E-1,1.9716365E-2,1.7023933E-1,8.072652E-1,4.0661087E0,3.279459E-1,4.394123E0,3E0,-2.2875759E-1,1.4E1,1.2E1,1E0,-4.519257E-2,3E0,1E0,2E0,-1.8912005E-1,4.6551824E0,-2.592671E-1,3.977917E0,5.6726754E-1,3E0,1.4E1,1E0,-1.1788245E-1,3.7898982E0,2E0,-2.6133215E-1,-1.0233898E-1,6.3865983E-1,2.7141528E-2,1.2E1,-2.4318787E-1,3E0,3E0,2.917798E-1,-1.2461378E-1,-2.1984683E-2,3E0,2E0,2.0135942E-1,2E0,1.8335748E-1,-1.1728713E-1,2E0,-3.365422E-2,5.4016185E-1,5.721239E-2,-1.4349476E-1,8.1129536E-2,3.210855E-1,-5.979333E-2,1.8E1,2E0,1.6E1,-1.4058791E-1,-2.5413632E-1,-1.14806525E-1,-2.5102478E-1,2.7532125E-1,4.9155083E-1,-1.0704103E-1,-2.2045663E-1,6.775689E-2,3.3869007E-1,-2.2366804E-1,4.137841E0,4.887956E-2,4.416889E0,4E0,1.0725057E-1,-5.2105863E-2,2E0,4.24486E0,-7.653463E-2,-8.3179235E-2,-1.9540939E-1,-2.793523E-1,-1.6164231E-1,2E0,-2.5116765E-1,-8.837292E-2,-2.0084809E-1],"split_indices":[9,11,0,5,5,5,5,0,5,4,0,9,0,9,9,9,5,0,0,9,0,10,0,0,0,0,0,0,0,4,4,9,4,0,9,5,0,0,0,0,0,0,4,0,0,177,0,177,0,5,5,0,0,3,0,0,0,0,0,0,0,0,0,3,0,9,9,5,0,4,177,4,0,0,0,0,0,5,9,11,0,0,3,0,0,0,0,9,0,4,5,0,0,0,4,3,0,4,0,0,3,0,0,0,0,0,0,0,9,3,9,0,0,0,0,0,0,0,0,0,0,0,0,0,0,4,0,0,3,0,0,0,0,0,0,4,0,0,0],"split_type":[0,0,0,0,0,0,0,0,0,0,0,0,0,0,0,0,0,0,0,0,0,0,0,0,0,0,0,0,0,0,0,0,0,0,0,0,0,0,0,0,0,0,0,0,0,0,0,0,0,0,0,0,0,0,0,0,0,0,0,0,0,0,0,0,0,0,0,0,0,0,0,0,0,0,0,0,0,0,0,0,0,0,0,0,0,0,0,0,0,0,0,0,0,0,0,0,0,0,0,0,0,0,0,0,0,0,0,0,0,0,0,0,0,0,0,0,0,0,0,0,0,0,0,0,0,0,0,0,0,0,0,0,0,0,0,0,0,0,0],"sum_hessian":[1.5007859E4,1.3300682E4,1.7071781E3,1.0506409E4,2.7942722E3,5.235281E2,1.1836501E3,5.6792905E3,4.8271187E3,1.3327441E3,1.461528E3,3.7418042E2,1.4934766E2,1.00163617E3,1.820139E2,2.2214546E3,3.4578362E3,4.143568E3,6.8355054E2,1.1373264E3,1.9541776E2,1.1480272E3,3.1350073E2,1.8815584E2,1.8602458E2,7.6464716E2,2.3698903E2,9.097428E1,9.103961E1,1.3567046E3,8.6475006E2,3.2728765E3,1.849596E2,3.3202852E3,8.232827E2,4.6223996E2,2.2131058E2,4.1625153E2,7.210749E2,1.0285077E3,1.1951959E2,1.09165436E2,6.5548175E2,1.1735184E2,1.19637184E2,1.0315446E3,3.2516006E2,7.0768146E2,1.5706865E2,2.9713594E3,3.0151712E2,9.278063E1,9.217896E1,7.0390497E2,1.19377785E2,3.1306543E2,1.4917456E2,1.1019632E2,3.060552E2,1.3577028E2,5.853046E2,1.6209024E2,8.664174E2,4.8002023E2,1.7546152E2,7.781156E2,2.5342894E2,5.202274E2,1.8745401E2,1.6166327E3,1.3547266E3,2.051463E2,9.637082E1,3.5930304E2,3.446019E2,4.898959E2,9.54087E1,4.6851004E2,3.9790738E2,2.5676044E2,2.2325978E2,5.555859E2,2.2252974E2,1.1671962E2,1.3670934E2,3.621472E2,1.5808025E2,1.0527174E3,5.6391534E2,1.0668473E3,2.8787933E2,9.504122E1,1.1010509E2,1.1548842E2,2.4381464E2,3.1850363E2,1.7139229E2,3.3797824E2,1.3053181E2,1.3006798E2,2.678394E2,1.5820804E2,9.855241E1,3.442012E2,2.1138464E2,9.185019E1,1.3067953E2,9.285917E1,9.598583E2,7.2404395E2,3.4280334E2,1.3612804E2,1.517513E2,1.0392419E2,1.3989044E2,1.2619287E2,1.9231076E2,1.9841312E2,1.3956511E2,1.10231964E2,1.5760744E2,4.6390994E2,4.959483E2,1.0695801E2,6.1708594E2,2.113377E2,1.3146562E2,1.4809439E2,3.478539E2,4.4702527E2,1.7006065E2,1.0856693E2,1.0277078E2,1.1496899E2,2.3288493E2,2.7980975E2,1.6721552E2,1.5891885E2,1.2089089E2],"tree_param":{"num_deleted":"0","num_feature":"1262","num_nodes":"139","size_leaf_vector":"1"}},{"base_weights":[2.3735182E-2,-2.008509E-1,5.0355477E0,-2.3401353E-1,1.547187E0,1.012845E-1,-4.1399938E-1,2.499943E-1,-3.9645058E-1,-3.3579484E-1,-4.4007197E-1,3.428122E-1,2.3723556E-2,-2.957741E-1,-2.9053822E-1,-4.0490672E-1,5.3091943E-1,-4.5083264E-1,-6.5614525E-3,3.716968E-1,-2.8790215E-1,-2.900391E-1,1.9564734E-1,-3.9433485E-1,-3.128183E-2,-2.75308E-1,-4.653956E-1,-4.6919262E-1,-4.0611085E-1,-8.2402445E-2,4.2220935E-1,2.5112104E-1,3.413288E-2,-2.7196375E-1,-2.898163E-1,-4.468979E-1,-3.8041014E-2,-2.7747586E-1,-3.2557297E-1,-4.4542074E-1,-2.9090276E-1,-1.9064955E-1,-4.521878E-1,6.19988E-1,2.1693626E-1,-2.893893E-1,1.6209544E-1,-2.8804505E-1,-6.0055677E-2,-2.8994977E-1,-1.726377E-1,6.604466E-2,-2.8971964E-1,-4.5760182E-1,-1.6757347E-1,9.105902E-2,-2.8953862E-1,-2.905318E-1,-4.2052665E-1,2.2250703E-1,5.840271E-1,-3.7541765E-1,-4.7692573E-1,-3.9130667E-1,-2.89966E-1,-2.9018337E-1,-2.1298926E-1,-2.9069582E-1,-4.5843726E-1,-2.8910694E-1,-2.0340164E-1,-3.1439714E-2,-2.8813043E-1,-3.5550898E-1,-2.781158E-1,-1.4768386E-1,-2.895435E-1],"categories":[],"categories_nodes":[],"categories_segments":[],"categories_sizes":[],"default_left":[0,0,0,0,0,0,0,0,0,0,0,0,0,0,0,0,0,0,0,0,0,0,0,0,0,0,0,0,0,0,0,0,0,0,0,0,0,0,0,0,0,0,0,0,0,0,0,0,0,0,0,0,0,0,0,0,0,0,0,0,0,0,0,0,0,0,0,0,0,0,0,0,0,0,0,0,0],"id":11,"left_children":[1,3,-1,5,-1,7,9,11,13,15,17,19,21,23,-1,25,-1,27,-1,29,-1,-1,31,33,-1,35,37,39,41,-1,43,-1,45,47,-1,49,-1,-1,51,53,-1,55,57,59,-1,-1,-1,-1,-1,-1,-1,-1,-1,61,-1,-1,-1,-1,63,-1,-1,65,67,69,-1,-1,71,-1,73,-1,-1,-1,-1,75,-1,-1,-1],"loss_changes":[3.0798258E4,1.4662759E3,0E0,8.8381537E2,0E0,3.7877655E2,1.9282593E1,8.273392E1,1.4821365E1,2.1337604E2,3.291504E1,6.965927E1,1.0770572E2,1.5497787E1,0E0,1.7638062E1,0E0,5.531128E0,0E0,7.1071655E1,0E0,0E0,3.611197E1,7.1045227E0,0E0,2.565387E1,7.1551514E0,6.1314697E0,2.0122742E1,0E0,1.528067E1,0E0,7.682448E1,9.609812E0,0E0,3.8695526E0,0E0,0E0,2.6520542E1,5.886963E0,0E0,4.2287155E1,3.5272522E0,3.1763443E1,0E0,0E0,0E0,0E0,0E0,0E0,0E0,0E0,0E0,4.851074E0,0E0,0E0,0E0,0E0,3.2347107E0,0E0,0E0,1.4373039E1,1.9456177E0,2.7648315E0,0E0,0E0,1.3832788E1,0E0,7.7637024E0,0E0,0E0,0E0,0E0,7.8211365E0,0E0,0E0,0E0],"parents":[2147483647,0,0,1,1,3,3,5,5,6,6,7,7,8,8,9,9,10,10,11,11,12,12,13,13,15,15,17,17,19,19,22,22,23,23,25,25,26,26,27,27,28,28,30,30,32,32,33,33,35,35,38,38,39,39,41,41,42,42,43,43,53,53,58,58,61,61,62,62,63,63,66,66,68,68,73,73],"right_children":[2,4,-1,6,-1,8,10,12,14,16,18,20,22,24,-1,26,-1,28,-1,30,-1,-1,32,34,-1,36,38,40,42,-1,44,-1,46,48,-1,50,-1,-1,52,54,-1,56,58,60,-1,-1,-1,-1,-1,-1,-1,-1,-1,62,-1,-1,-1,-1,64,-1,-1,66,68,70,-1,-1,72,-1,74,-1,-1,-1,-1,76,-1,-1,-1],"split_conditions":[4.918296E0,4.7338114E0,5.0355477E0,2.251629E0,1.547187E0,4.061977E0,3.006239E0,3.863465E0,4.4057646E0,3E0,5.1137815E0,1E0,3.9132698E0,4.231487E0,-2.9053822E-1,3.9232519E0,5.3091943E-1,3.9524388E0,-6.5614525E-3,3.3680425E0,-2.8790215E-1,-2.900391E-1,3.9692073E0,4.1595926E0,-3.128183E-2,2.75E0,2.8655767E0,3.6897037E0,4.0311494E0,-8.2402445E-2,3.5013978E0,2.5112104E-1,4.0061984E0,4.0959687E0,-2.898163E-1,2.6464393E0,-3.8041014E-2,-2.7747586E-1,4.137841E0,3.6612263E0,-2.9090276E-1,4.3078995E0,4.416889E0,3.4685767E0,2.1693626E-1,-2.893893E-1,1.6209544E-1,-2.8804505E-1,-6.0055677E-2,-2.8994977E-1,-1.726377E-1,6.604466E-2,-2.8971964E-1,3.9648118E0,-1.6757347E-1,9.105902E-2,-2.8953862E-1,-2.905318E-1,4.791444E0,2.2250703E-1,5.840271E-1,3.8731406E0,4.080351E0,4.134336E0,-2.89966E-1,-2.9018337E-1,3.4357555E0,-2.9069582E-1,4.172729E0,-2.8910694E-1,-2.0340164E-1,-3.1439714E-2,-2.8813043E-1,3.4357555E0,-2.781158E-1,-1.4768386E-1,-2.895435E-1],"split_indices":[1,1,0,1,0,0,1,0,0,1,0,74,0,0,0,0,0,1,0,0,0,0,0,0,0,1,1,1,1,0,0,0,0,0,0,1,0,0,0,1,0,0,0,0,0,0,0,0,0,0,0,0,0,0,0,0,0,0,0,0,0,0,0,1,0,0,1,0,0,0,0,0,0,1,0,0,0],"split_type":[0,0,0,0,0,0,0,0,0,0,0,0,0,0,0,0,0,0,0,0,0,0,0,0,0,0,0,0,0,0,0,0,0,0,0,0,0,0,0,0,0,0,0,0,0,0,0,0,0,0,0,0,0,0,0,0,0,0,0,0,0,0,0,0,0,0,0,0,0,0,0,0,0,0,0,0,0],"sum_hessian":[1.5172111E4,1.4805169E4,3.6694205E2,1.4643401E4,1.617681E2,5.1150127E3,9.528389E3,3.9387258E3,1.1762872E3,2.3858699E3,7.1425186E3,2.7926467E3,1.1460791E3,6.5652094E2,5.1976624E2,2.2653005E3,1.2056939E2,6.9674014E3,1.7511699E2,2.7025374E3,9.010924E1,2.7410977E2,8.7196924E2,4.6464716E2,1.9187381E2,7.22621E2,1.5426794E3,4.9328086E3,2.034593E3,2.3911903E2,2.4634185E3,3.3644016E2,5.355291E2,2.3839061E2,2.2625655E2,3.9434537E2,3.2827563E2,1.2395503E3,3.0312915E2,3.4366023E3,1.4962063E3,3.593531E2,1.6752399E3,3.3909595E2,2.1243225E3,1.6944597E2,3.6608313E2,9.437445E1,1.4401616E2,2.5269809E2,1.4164726E2,9.2813576E1,2.103156E2,3.1663608E3,2.7024142E2,1.7358412E2,1.8576895E2,5.1384766E2,1.1613922E3,2.2590408E2,1.1319186E2,6.0666376E2,2.559697E3,9.0505756E2,2.5633466E2,3.175528E2,2.8911096E2,7.242115E2,1.8354857E3,1.4526183E2,7.597958E2,1.9199109E2,9.7119865E1,5.3478174E2,1.3007039E3,3.4842062E2,1.8636113E2],"tree_param":{"num_deleted":"0","num_feature":"1262","num_nodes":"77","size_leaf_vector":"1"}},{"base_weights":[8.382333E-3,1.7930766E0,-2.0326439E-1,6.079635E-1,3.351889E0,-2.432328E-1,1.6782261E0,1.5238019E0,-2.9038796E-1,3.9095107E-1,3.2472324E0,-2.8414297E-1,1.3887416E0,2.1205056E0,3.2324097E-1,2.5832646E0,-2.9014793E-1,-2.0511031E-1,-2.9100668E-1,1.7457448E0,-2.8923675E-1,-1.471235E-1,-2.9090336E-1,-2.565302E-1,1.552788E0,-3.462315E-1,1.6569022E-2,1.8669065E-2,3.640354E0,-2.6999846E-1,-4.4299942E-1,-1.7743368E-1,1.8826045E-1,-2.8997526E-1,6.374196E-1,-3.5855868E-1,2.386389E-2,-3.480893E-1,-2.9088756E-1,-2.901867E-1,-5.1784843E-2,-4.2257023E-1,-7.2296225E-2,-2.901474E-1,3.9421648E-1,-2.9050642E-1,-2.2281356E-1,2.776389E-2,-2.8881785E-1,-2.908727E-1,-2.4888688E-1,5.305735E-1,-2.9018867E-1,8.084508E-1,-2.8989998E-1,2.4390435E-1,-2.9048452E-1,6.159213E-2,-2.007995E-2,-8.1811994E-2,-2.896764E-1],"categories":[],"categories_nodes":[],"categories_segments":[],"categories_sizes":[],"default_left":[0,0,0,0,0,0,0,0,0,0,0,0,0,0,0,0,0,0,0,0,0,0,0,0,0,0,0,0,0,0,0,0,0,0,0,0,0,0,0,0,0,0,0,0,0,0,0,0,0,0,0,0,0,0,0,0,0,0,0,0,0],"id":12,"left_children":[1,3,5,7,9,11,13,15,-1,-1,-1,17,19,-1,-1,-1,-1,21,-1,-1,-1,23,-1,25,27,29,31,33,-1,35,37,39,-1,-1,-1,41,43,45,-1,-1,47,49,51,-1,53,-1,55,57,-1,-1,59,-1,-1,-1,-1,-1,-1,-1,-1,-1,-1],"loss_changes":[5.733204E3,2.970671E3,1.0208099E3,9.485344E2,4.579993E3,8.875434E2,6.596517E2,3.2368171E3,0E0,0E0,0E0,2.4527637E2,1.0895145E3,0E0,0E0,0E0,0E0,1.7988794E2,0E0,0E0,0E0,1.5343971E3,0E0,1.8986566E2,3.824983E3,4.2917664E1,1.1989549E2,2.339881E2,0E0,8.5000275E1,1.9431E1,5.1834824E1,0E0,0E0,0E0,4.595569E1,1.5331694E2,2.5735779E1,0E0,0E0,3.2717754E1,3.5785797E1,2.1295673E2,0E0,4.3954584E2,0E0,1.3710823E2,3.9947124E0,0E0,0E0,2.0835953E1,0E0,0E0,0E0,0E0,0E0,0E0,0E0,0E0,0E0,0E0],"parents":[2147483647,0,0,1,1,2,2,3,3,4,4,5,5,6,6,7,7,11,11,12,12,17,17,21,21,23,23,24,24,25,25,26,26,27,27,29,29,30,30,31,31,35,35,36,36,37,37,40,40,41,41,42,42,44,44,46,46,47,47,50,50],"right_children":[2,4,6,8,10,12,14,16,-1,-1,-1,18,20,-1,-1,-1,-1,22,-1,-1,-1,24,-1,26,28,30,32,34,-1,36,38,40,-1,-1,-1,42,44,46,-1,-1,48,50,52,-1,54,-1,56,58,-1,-1,60,-1,-1,-1,-1,-1,-1,-1,-1,-1,-1],"split_conditions":[1.2E1,1.1E1,1E0,2E0,2E0,1E0,1.4E1,9E0,-2.9038796E-1,3.9095107E-1,3.2472324E0,1E0,1.5E1,2.1205056E0,3.2324097E-1,2.5832646E0,-2.9014793E-1,2.2E1,-2.9100668E-1,1.7457448E0,-2.8923675E-1,2.1E1,-2.9090336E-1,1E0,3E0,1.6E1,1.9E1,2E0,3.640354E0,1.5E1,2E0,1.7E1,1.8826045E-1,-2.8997526E-1,6.374196E-1,3E0,2E0,1.8E1,-2.9088756E-1,-2.901867E-1,2E0,1.4E1,1.3E1,-2.901474E-1,3E0,-2.9050642E-1,1.9E1,1.8E1,-2.8881785E-1,-2.908727E-1,2E0,5.305735E-1,-2.9018867E-1,8.084508E-1,-2.8989998E-1,2.4390435E-1,-2.9048452E-1,6.159213E-2,-2.007995E-2,-8.1811994E-2,-2.896764E-1],"split_indices":[9,9,1219,4,4,1074,9,9,0,0,0,11,9,0,0,0,0,9,0,0,0,9,0,10,4,9,9,4,0,9,4,9,0,0,0,4,4,9,0,0,4,9,9,0,4,0,9,9,0,0,4,0,0,0,0,0,0,0,0,0,0],"split_type":[0,0,0,0,0,0,0,0,0,0,0,0,0,0,0,0,0,0,0,0,0,0,0,0,0,0,0,0,0,0,0,0,0,0,0,0,0,0,0,0,0,0,0,0,0,0,0,0,0,0,0,0,0,0,0,0,0,0,0,0,0],"sum_hessian":[1.5176297E4,1.6081581E3,1.3568139E4,9.143774E2,6.937807E2,1.328676E4,2.8137927E2,5.049551E2,4.0942227E2,3.3690787E2,3.5687286E2,1.2962639E4,3.241203E2,9.4566925E1,1.8681233E2,1.9930081E2,3.056543E2,9.74785E3,3.2147898E3,1.6865413E2,1.5546617E2,8.247118E3,1.5007314E3,7.749225E3,4.9789276E2,5.833052E3,1.9161736E3,3.8172284E2,1.1616992E2,3.2648318E3,2.5682197E3,1.196295E3,7.1987854E2,2.584598E2,1.23263E2,2.508603E3,7.5622876E2,1.1805312E3,1.3876884E3,3.1870944E2,8.775856E2,2.0497742E3,4.5882907E2,3.054833E2,4.5074545E2,4.9175815E2,6.8877313E2,7.5087463E2,1.2671091E2,1.2955836E3,7.5419037E2,1.3942157E2,3.194075E2,2.0860382E2,2.4214163E2,2.1466345E2,4.7410968E2,3.2614426E2,4.247304E2,5.5030646E2,2.0388394E2],"tree_param":{"num_deleted":"0","num_feature":"1262","num_nodes":"61","size_leaf_vector":"1"}},{"base_weights":[1.360524E-2,-6.05967E-2,3.9005911E0,4.8442408E-1,-3.421078E-1,6.577292E-1,-2.6140545E-2,-4.2370242E-1,1.1063503E-1,6.010592E-1,1.2915914E0,-4.3576372E-1,4.0104195E-2,1.1381367E0,-2.1129452E-1,5.1167035E-1,7.796076E-1,-4.4807744E-1,-5.1015045E-2,3.2788846E-1,-2.8833568E-1,1.2622637E0,-2.891027E-1,-2.9037675E-1,-4.0711824E-2,5.453563E-1,-2.8834546E-1,-4.316633E-1,-2.9088905E-1,2.3113964E-1,-2.8879303E-1,2.586819E-1,-2.900705E-1,3.2114542E-1,-2.880677E-1,-4.5177144E-1,-2.0277543E-1,-5.7276E-2,4.7146684E-1,-4.1573182E-1,-2.9092103E-1,-3.8398147E-1,-2.9070932E-1,-2.9050043E-1,-1.9506705E-1],"categories":[],"categories_nodes":[],"categories_segments":[],"categories_sizes":[],"default_left":[0,0,0,0,0,0,0,0,0,0,0,0,0,0,0,0,0,0,0,0,0,0,0,0,0,0,0,0,0,0,0,0,0,0,0,0,0,0,0,0,0,0,0,0,0],"id":13,"left_children":[1,3,-1,5,7,9,-1,11,13,15,-1,17,19,21,23,25,-1,27,29,-1,-1,-1,-1,-1,31,33,-1,35,-1,-1,-1,37,-1,-1,-1,39,-1,-1,-1,41,-1,43,-1,-1,-1],"loss_changes":[7.8102803E3,2.2813804E3,0E0,4.6648914E2,3.6224817E2,3.5926172E2,0E0,4.6492065E1,4.957548E2,2.640974E2,0E0,3.83396E1,6.530943E1,6.7308325E2,6.0577824E1,1.15736694E2,0E0,9.479004E0,5.54137E1,0E0,0E0,0E0,0E0,0E0,1.0652854E2,1.1173181E2,0E0,8.494751E0,0E0,0E0,0E0,9.7336395E1,0E0,0E0,0E0,1.2582092E1,0E0,0E0,0E0,1.1052185E1,0E0,1.1488098E1,0E0,0E0,0E0],"parents":[2147483647,0,0,1,1,3,3,4,4,5,5,7,7,8,8,9,9,11,11,12,12,13,13,14,14,15,15,17,17,18,18,24,24,25,25,27,27,31,31,35,35,39,39,41,41],"right_children":[2,4,-1,6,8,10,-1,12,14,16,-1,18,20,22,24,26,-1,28,30,-1,-1,-1,-1,-1,32,34,-1,36,-1,-1,-1,38,-1,-1,-1,40,-1,-1,-1,42,-1,44,-1,-1,-1],"split_conditions":[1E0,2.251629E0,3.9005911E0,1E0,1E0,1E0,-2.6140545E-2,1E0,3.006239E0,2E0,1.2915914E0,1E0,3.4357555E0,3E0,3.3927474E0,1E0,7.796076E-1,4.0887794E0,3.7841837E0,3.2788846E-1,-2.8833568E-1,1.2622637E0,-2.891027E-1,-2.9037675E-1,4.058814E0,1E0,-2.8834546E-1,3.7720551E0,-2.9088905E-1,2.3113964E-1,-2.8879303E-1,3.7821221E0,-2.900705E-1,3.2114542E-1,-2.880677E-1,3.4316235E0,-2.0277543E-1,-5.7276E-2,4.7146684E-1,1E0,-2.9092103E-1,2.7254806E0,-2.9070932E-1,-2.9050043E-1,-1.9506705E-1],"split_indices":[74,1,0,10,7,318,0,608,1,7,0,318,1,7,1,7,0,1,1,0,0,0,0,0,1,1219,0,1,0,0,0,1,0,0,0,1,0,0,0,10,0,1,0,0,0],"split_type":[0,0,0,0,0,0,0,0,0,0,0,0,0,0,0,0,0,0,0,0,0,0,0,0,0,0,0,0,0,0,0,0,0,0,0,0,0,0,0,0,0,0,0,0,0],"sum_hessian":[1.5023657E4,1.486717E4,1.5648685E2,5.0634106E3,9.80376E3,3.8181184E3,1.2452922E3,8.306756E3,1.4970034E3,3.6938604E3,1.2425806E2,8.0962725E3,2.1048332E2,3.5653052E2,1.1404729E3,3.3248257E3,3.6903467E2,7.8450312E3,2.5124141E2,1.06071236E2,1.0441209E2,2.1157999E2,1.4495055E2,4.0305618E2,7.3741675E2,3.2200398E3,1.04785934E2,6.4474077E3,1.3976237E3,1.259071E2,1.2533432E2,4.548867E2,2.8253003E2,3.1249514E3,9.5088326E1,4.9509277E3,1.4964795E3,2.824455E2,1.7244121E2,3.2996565E3,1.6512714E3,2.550186E3,7.494705E2,4.8678754E2,2.0633984E3],"tree_param":{"num_deleted":"0","num_feature":"1262","num_nodes":"45","size_leaf_vector":"1"}},{"base_weights":[1.9923743E-2,-2.1607007E-1,1.3647337E0,1.0290845E-2,-4.7317088E-1,7.619975E-1,4.501982E0,-1.4819697E-1,2.8933733E0,-3.5726705E-1,-2.9102835E-1,2.0072963E0,-2.3430698E-1,5.457186E0,-2.8956127E-1,-4.4010526E-1,2.2590664E-1,1.8767041E0,2.9764204E0,-2.9090732E-1,4.5363533E-1,-2.8941384E-1,2.6495938E0,-2.907694E-1,6.8317163E-1,-2.909949E-1,-1.5300559E-1,2.0619502E0,-2.5360346E-1,1.8745598E0,-2.881665E-1,-2.8960618E-1,1.12798E0,3.9323504E0,1.7647544E0,5.80933E-1,-2.9063845E-1,2.4103875E0,1.4434816E0,-3.5655344E-1,1.8048923E-1,1.5860832E0,3.3127022E0,6.4543194E-1,2.1369324E0,-2.8886524E-1,1.2194452E0,3.2537594E-1,-2.9090023E-1,-2.9018986E-1,1.1710488E0,-2.8848618E-1,8.292014E-1,6.801021E-1,-2.8954232E-1],"categories":[],"categories_nodes":[],"categories_segments":[],"categories_sizes":[],"default_left":[0,0,0,0,0,0,0,0,0,0,0,0,0,0,0,0,0,0,0,0,0,0,0,0,0,0,0,0,0,0,0,0,0,0,0,0,0,0,0,0,0,0,0,0,0,0,0,0,0,0,0,0,0,0,0],"id":14,"left_children":[1,3,5,7,9,11,13,15,17,19,-1,21,23,-1,-1,25,27,29,-1,-1,31,-1,33,-1,-1,-1,35,37,39,-1,-1,-1,-1,41,43,-1,-1,-1,45,47,49,-1,-1,51,-1,-1,-1,53,-1,-1,-1,-1,-1,-1,-1],"loss_changes":[4.8398696E3,7.550318E2,4.3015444E3,3.153352E3,3.5377197E1,2.3713682E3,9.800295E3,7.14466E2,8.9021704E2,2.4915607E2,0E0,1.3806848E3,4.4993182E2,0E0,0E0,8.803638E1,2.5253296E3,9.195411E2,0E0,0E0,4.8452515E2,0E0,7.620625E2,0E0,0E0,0E0,3.683351E2,8.296145E2,1.01725296E2,0E0,0E0,0E0,0E0,5.861968E2,9.354481E2,0E0,0E0,0E0,6.917949E2,2.0948456E2,5.923818E2,0E0,0E0,2.60157E2,0E0,0E0,0E0,2.7607788E2,0E0,0E0,0E0,0E0,0E0,0E0,0E0],"parents":[2147483647,0,0,1,1,2,2,3,3,4,4,5,5,6,6,7,7,8,8,9,9,11,11,12,12,15,15,16,16,17,17,20,20,22,22,26,26,27,27,28,28,33,33,34,34,38,38,39,39,40,40,43,43,47,47],"right_children":[2,4,6,8,10,12,14,16,18,20,-1,22,24,-1,-1,26,28,30,-1,-1,32,-1,34,-1,-1,-1,36,38,40,-1,-1,-1,-1,42,44,-1,-1,-1,46,48,50,-1,-1,52,-1,-1,-1,54,-1,-1,-1,-1,-1,-1,-1],"split_conditions":[1E0,1.5E1,1.2E1,1.4E1,2.1E1,1E0,1.3E1,4E0,4.219528E0,2E1,-2.9102835E-1,3.5220551E0,8E0,5.457186E0,-2.8956127E-1,4.1595926E0,3.8278196E0,4.077567E0,2.9764204E0,-2.9090732E-1,4.4019494E0,-2.8941384E-1,3.5944657E0,-2.907694E-1,6.8317163E-1,-2.909949E-1,4.2359815E0,3.5724313E0,4.436007E0,1.8745598E0,-2.881665E-1,-2.8960618E-1,1.12798E0,3.5739348E0,3.974648E0,5.80933E-1,-2.9063845E-1,2.4103875E0,8E0,8E0,1.1E1,1.5860832E0,3.3127022E0,3.688722E0,2.1369324E0,-2.8886524E-1,1.2194452E0,4.0133615E0,-2.9090023E-1,-2.9018986E-1,1.1710488E0,-2.8848618E-1,8.292014E-1,6.801021E-1,-2.8954232E-1],"split_indices":[10,8,8,8,8,8,8,8,0,8,0,0,8,0,0,0,0,0,0,0,0,0,0,0,0,0,0,0,0,0,0,0,0,0,0,0,0,0,8,8,8,0,0,0,0,0,0,0,0,0,0,0,0,0,0],"split_type":[0,0,0,0,0,0,0,0,0,0,0,0,0,0,0,0,0,0,0,0,0,0,0,0,0,0,0,0,0,0,0,0,0,0,0,0,0,0,0,0,0,0,0,0,0,0,0,0,0,0,0,0,0,0,0],"sum_hessian":[1.524815E4,1.2972511E4,2.2756401E3,6.8991807E3,6.07333E3,1.9099404E3,3.6569974E2,6.5405825E3,3.5859805E2,1.8459517E3,4.2273784E3,8.484424E2,1.0614982E3,1.7717287E2,1.8852687E2,3.6737927E3,2.86679E3,2.5505688E2,1.0354115E2,1.5322578E3,3.1369388E2,1.719273E2,6.765151E2,8.8704285E2,1.7445526E2,2.845255E3,8.2853784E2,5.9297797E2,2.273812E3,1.5673047E2,9.8326416E1,1.9423491E2,1.1945898E2,2.7475586E2,4.017592E2,1.95026E2,6.3351184E2,1.2544531E2,4.6753268E2,1.8380714E3,4.357407E2,1.8096977E2,9.3786095E1,2.6207306E2,1.3968613E2,1.2942299E2,3.3810968E2,3.6122467E2,1.4768467E3,3.1982993E2,1.1591075E2,1.104882E2,1.5158485E2,1.750098E2,1.8621486E2],"tree_param":{"num_deleted":"0","num_feature":"1262","num_nodes":"55","size_leaf_vector":"1"}},{"base_weights":[-2.2587548E-3,-1.3817573E-1,7.816539E-1,5.5155143E-2,-2.9365125E-1,1.4862826E0,-3.4132564E-1,-2.6995736E-1,1.3788603E-1,-1.97375E-1,-3.9759016E-1,1.1392912E0,1.9314772E0,-9.15634E-2,-2.1329668E-1,-2.4706906E-1,-2.2829314E-1,1.8784489E-1,-5.5426277E-2,-2.807419E-1,3.5837833E-2,-4.0793747E-1,-4.7629118E-2,1.522775E-1,1.3074465E0,2.1975348E0,5.7423645E-1,-8.323149E-2,-3.1444508E-1,2.1216664E-1,-1.8085244E-1,-8.814008E-2,-1.4739562E-2,-1.4019641E-1,-1.8525551E-1,-1.01381615E-1,1.2429344E-1,-4.165117E-1,-2.826546E-1,1.0636117E0,6.640145E-1,9.5312035E-1,1.3111852E0,-2.0185171E-1,-9.15942E-2,2.7036068E-1,2.8768785E-2,1.0563249E-1,-5.46787E-2,-2.6584375E-1,-3.3616908E-2,-3.830093E-2,-1.1316366E-1,-2.1460637E-1,-2.7037832E-1,-5.5847302E-2,-2.6038888E-1,3.0134922E-1,-1.451292E-1,-2.789247E-3,-8.1719786E-2,-2.0519738E-1,-1.1309517E-1,2.1418841E-1,4.568777E-1,-7.1598254E-2,8.3303265E-2,2.794031E-1,1.5433507E-1,3.2422712E-1,2.7266374E-1,1.6359034E-1,4.3228403E-1,-4.7391567E-2,2.695291E-1,2.83657E-2,3.4563628E-1,3.413578E-1,-1.19860135E-2,3.9270088E-1,9.5763505E-2,1.02985896E-1,3.2617536E-1,3.800523E-2,-7.1727835E-2],"categories":[],"categories_nodes":[],"categories_segments":[],"categories_sizes":[],"default_left":[0,0,0,0,0,0,0,0,0,0,0,0,0,0,0,0,0,0,0,0,0,0,0,0,0,0,0,0,0,0,0,0,0,0,0,0,0,0,0,0,0,0,0,0,0,0,0,0,0,0,0,0,0,0,0,0,0,0,0,0,0,0,0,0,0,0,0,0,0,0,0,0,0,0,0,0,0,0,0,0,0,0,0,0,0],"id":15,"left_children":[1,3,5,7,9,11,13,15,17,19,21,23,25,-1,-1,-1,27,29,31,33,35,37,-1,-1,39,41,-1,-1,43,45,-1,-1,47,49,-1,51,-1,53,55,-1,-1,-1,-1,-1,-1,57,-1,-1,59,61,-1,-1,-1,-1,-1,-1,-1,63,-1,65,-1,-1,-1,67,69,-1,-1,71,73,-1,75,77,-1,-1,79,-1,-1,81,83,-1,-1,-1,-1,-1,-1],"loss_changes":[1.6217341E3,3.8992346E2,1.7801664E3,1.5557654E2,7.187012E1,2.1131079E2,6.447769E0,8.435623E0,4.4536385E1,7.261774E1,1.1119446E1,1.13012695E2,1.4205688E2,0E0,0E0,0E0,6.3756104E0,4.5807724E1,3.9755065E0,2.0297073E1,2.539121E1,3.475586E0,0E0,0E0,4.2243774E1,3.2268555E1,0E0,0E0,3.23732E0,3.2643784E1,0E0,0E0,5.578638E0,7.506031E0,0E0,1.8761234E0,0E0,6.4589233E0,7.314266E0,0E0,0E0,0E0,0E0,0E0,0E0,4.235959E1,0E0,0E0,2.7335258E0,1.8019695E0,0E0,0E0,0E0,0E0,0E0,0E0,0E0,3.279001E1,0E0,7.068034E0,0E0,0E0,0E0,6.0329514E0,2.0132172E1,0E0,0E0,4.2806656E1,2.2488815E1,0E0,2.7551584E1,1.8880081E1,0E0,0E0,2.3244415E1,0E0,0E0,1.1407967E1,2.881146E0,0E0,0E0,0E0,0E0,0E0,0E0],"parents":[2147483647,0,0,1,1,2,2,3,3,4,4,5,5,6,6,7,7,8,8,9,9,10,10,11,11,12,12,16,16,17,17,18,18,19,19,20,20,21,21,24,24,25,25,28,28,29,29,32,32,33,33,35,35,37,37,38,38,45,45,48,48,49,49,57,57,59,59,63,63,64,64,67,67,68,68,70,70,71,71,74,74,77,77,78,78],"right_children":[2,4,6,8,10,12,14,16,18,20,22,24,26,-1,-1,-1,28,30,32,34,36,38,-1,-1,40,42,-1,-1,44,46,-1,-1,48,50,-1,52,-1,54,56,-1,-1,-1,-1,-1,-1,58,-1,-1,60,62,-1,-1,-1,-1,-1,-1,-1,64,-1,66,-1,-1,-1,68,70,-1,-1,72,74,-1,76,78,-1,-1,80,-1,-1,82,84,-1,-1,-1,-1,-1,-1],"split_conditions":[1E0,4.080351E0,4.16391E0,3.5944657E0,4.387434E0,3.9191198E0,4.2254395E0,3.3680425E0,1E0,1E0,1E0,3.5383105E0,4.0903673E0,-9.15634E-2,-2.1329668E-1,-2.4706906E-1,3.5434651E0,1E0,3.8136606E0,4.1504107E0,4.24486E0,5.6573296E0,-4.7629118E-2,1.522775E-1,3.6752272E0,3.959057E0,5.7423645E-1,-8.323149E-2,3.5778196E0,4.003259E0,-1.8085244E-1,-8.814008E-2,3.8833375E0,4.1013675E0,-1.8525551E-1,4.216078E0,1.2429344E-1,4.9000597E0,5.8169837E0,1.0636117E0,6.640145E-1,9.5312035E-1,1.3111852E0,-2.0185171E-1,-9.15942E-2,1E0,2.8768785E-2,1.0563249E-1,4.017918E0,4.0867906E0,-3.3616908E-2,-3.830093E-2,-1.1316366E-1,-2.1460637E-1,-2.7037832E-1,-5.5847302E-2,-2.6038888E-1,3.8810055E0,-1.451292E-1,3.9528196E0,-8.1719786E-2,-2.0519738E-1,-1.1309517E-1,3.761631E0,3.9648118E0,-7.1598254E-2,8.3303265E-2,3.7219281E0,3.7962327E0,3.2422712E-1,3.9801693E0,3.6752272E0,4.3228403E-1,-4.7391567E-2,3.8208888E0,2.83657E-2,3.4563628E-1,3.6375375E0,3.7034652E0,3.9270088E-1,9.5763505E-2,1.02985896E-1,3.2617536E-1,3.800523E-2,-7.1727835E-2],"split_indices":[664,0,0,0,0,0,0,0,177,177,318,0,0,0,0,0,0,608,0,0,0,0,0,0,0,0,0,0,0,0,0,0,0,0,0,0,0,0,0,0,0,0,0,0,0,318,0,0,0,0,0,0,0,0,0,0,0,0,0,0,0,0,0,0,0,0,0,0,0,0,0,0,0,0,0,0,0,0,0,0,0,0,0,0,0],"split_type":[0,0,0,0,0,0,0,0,0,0,0,0,0,0,0,0,0,0,0,0,0,0,0,0,0,0,0,0,0,0,0,0,0,0,0,0,0,0,0,0,0,0,0,0,0,0,0,0,0,0,0,0,0,0,0,0,0,0,0,0,0,0,0,0,0,0,0,0,0,0,0,0,0,0,0,0,0,0,0,0,0,0,0,0,0],"sum_hessian":[1.5218813E4,1.2970734E4,2.2480786E3,5.781809E3,7.1889253E3,1.3811401E3,8.669386E2,1.1723789E3,4.6094307E3,3.7335347E3,3.4553904E3,7.781766E2,6.0296356E2,1.6909796E2,6.9784064E2,2.2397324E2,9.4840564E2,3.6628472E3,9.4658325E2,2.7502097E3,9.8332495E2,3.344135E3,1.1125549E2,1.2704897E2,6.511276E2,4.6405487E2,1.3890866E2,4.976017E2,4.508039E2,3.4976946E3,1.6515257E2,2.668899E2,6.7969336E2,7.501047E2,2.000105E3,5.684677E2,4.148573E2,3.1277505E3,2.163844E2,9.945673E1,5.516709E2,1.1948523E2,3.4456964E2,3.3890533E2,1.1189856E2,2.5660327E3,9.316619E2,1.1029802E2,5.693953E2,2.9023767E2,4.5986697E2,4.3275238E2,1.357153E2,2.186652E3,9.410983E2,1.1006858E2,1.0631582E2,2.4250771E3,1.4095554E2,3.652468E2,2.0414854E2,1.0731542E2,1.8292226E2,1.5556447E3,8.694325E2,2.0016373E2,1.6508308E2,7.4272363E2,8.1292096E2,5.141008E2,3.5533167E2,6.0377155E2,1.3895204E2,2.6401273E2,5.4890826E2,2.1809587E2,1.372358E2,2.995446E2,3.0422696E2,9.872295E1,4.501853E2,1.842335E2,1.1531108E2,1.8063971E2,1.23587265E2],"tree_param":{"num_deleted":"0","num_feature":"1262","num_nodes":"85","size_leaf_vector":"1"}},{"base_weights":[6.704459E-3,9.042573E-2,-4.6134794E-1,8.901938E-3,3.21501E-1,-2.616021E-1,-2.0060223E-1,-3.466551E-2,4.475522E-1,1.9136466E-1,-1.3643612E-1,4.201211E-2,-2.4842775E-1,-8.146322E-2,2.2253354E-1,-3.0832678E-1,-4.939112E-2,-7.338998E-2,-1.794062E-1,2.5424796E-1,-2.713418E-1,-2.970193E-1,-2.462473E-1,6.851458E-2,-2.3000614E-1,-4.492305E-2,6.282319E-2,1.359106E-1,3.4370893E-1,-1.7611107E-1,-7.388955E-2,1.419812E-1,-1.337408E-2,5.180577E-2,1.21807404E-1,5.1799744E-1,1.2625156E-1,2.4365234E-1,3.437036E-1],"categories":[],"categories_nodes":[],"categories_segments":[],"categories_sizes":[],"default_left":[0,0,0,0,0,0,0,0,0,0,0,0,0,0,0,0,0,0,0,0,0,0,0,0,0,0,0,0,0,0,0,0,0,0,0,0,0,0,0],"id":16,"left_children":[1,3,5,7,9,-1,-1,11,-1,-1,-1,13,15,17,19,21,23,25,-1,27,-1,29,-1,31,-1,-1,-1,33,35,-1,-1,-1,-1,-1,-1,37,-1,-1,-1],"loss_changes":[5.91281E2,2.4111684E2,1.9873962E0,3.2836642E2,4.332596E1,0E0,0E0,1.4708032E2,0E0,0E0,0E0,1.472372E2,2.8228088E1,7.6203003E0,6.0603973E1,2.6432953E0,2.363059E1,5.2803154E0,0E0,2.7150146E1,0E0,5.4467773E0,0E0,7.2040405E0,0E0,0E0,0E0,3.917183E0,2.9581726E1,0E0,0E0,0E0,0E0,0E0,0E0,4.406601E0,0E0,0E0,0E0],"parents":[2147483647,0,0,1,1,2,2,3,3,4,4,7,7,11,11,12,12,13,13,14,14,15,15,16,16,17,17,19,19,21,21,23,23,27,27,28,28,35,35],"right_children":[2,4,6,8,10,-1,-1,12,-1,-1,-1,14,16,18,20,22,24,26,-1,28,-1,30,-1,32,-1,-1,-1,34,36,-1,-1,-1,-1,-1,-1,38,-1,-1,-1],"split_conditions":[1E0,1E0,1E0,2.5E1,2.7E1,-2.616021E-1,-2.0060223E-1,9E0,4.475522E-1,1.9136466E-1,-1.3643612E-1,1E0,1.6E1,1E0,1E0,1.5E1,2.3E1,1E0,-1.794062E-1,3E0,-2.713418E-1,1.4E1,-2.462473E-1,1.8E1,-2.3000614E-1,-4.492305E-2,6.282319E-2,2E0,5E0,-1.7611107E-1,-7.388955E-2,1.419812E-1,-1.337408E-2,5.180577E-2,1.21807404E-1,4E0,1.2625156E-1,2.4365234E-1,3.437036E-1],"split_indices":[10,11,11,5,5,0,0,5,0,0,0,5,5,608,1038,5,5,16,0,5,0,5,0,5,0,0,0,5,5,0,0,0,0,0,0,5,0,0,0],"split_type":[0,0,0,0,0,0,0,0,0,0,0,0,0,0,0,0,0,0,0,0,0,0,0,0,0,0,0,0,0,0,0,0,0,0,0,0,0,0,0],"sum_hessian":[1.5087045E4,1.2798555E4,2.288491E3,9.461543E3,3.3370117E3,2.0894036E3,1.9908737E2,8.97172E3,4.898226E2,3.208138E3,1.2887389E2,6.603731E3,2.367989E3,3.9217983E3,2.6819326E3,1.8197852E3,5.482039E2,3.7961292E3,1.2566942E2,2.5679954E3,1.139372E2,1.681884E3,1.379011E2,4.148269E2,1.3337701E2,3.6508843E3,1.4524469E2,1.1066534E3,1.461342E3,1.4992727E3,1.8261128E2,1.3679749E2,2.7802942E2,7.330033E2,3.736501E2,5.841679E2,8.7717413E2,3.2900424E2,2.5516365E2],"tree_param":{"num_deleted":"0","num_feature":"1262","num_nodes":"39","size_leaf_vector":"1"}},{"base_weights":[4.871334E-3,-1.4386228E-1,1.0832249E0,-3.7994504E-2,-4.429292E-1,5.0131297E0,2.3797143E-1,-8.922543E-2,2.0262482E0,-4.806135E-1,1.2595412E-1,2.0502884E0,-1.4747623E-1,-2.2831786E-1,2.9733375E-1,-2.9096407E-1,-3.946812E-1,-2.8877994E-1,5.5011714E-1,4.007098E-1,-2.907711E-1,1.2917611E-1,-2.773719E-1,4.7097194E-1,-2.904529E-1,-1.9922264E-1,-2.9065788E-1,5.201135E-2,1.006838E0,-2.9031792E-1,6.214779E-1,-3.7748516E-1,-1.1888463E-1,6.574984E-1,-2.90235E-1,-3.225712E-2,-2.8891647E-1,7.9577786E-1,-2.9026082E-1,1.2039157E0,-2.893601E-1,-2.1790692E-1,-2.9095298E-1,5.092648E-1,-3.0011743E-1,1.5569098E0,5.418215E-1,7.265062E-1,5.243547E-1,-2.9077455E-1,7.264434E-2,-2.8959805E-1,1.0719907E0,3.7381107E-1,-3.647352E-1,-2.8839037E-1,2.1286259E0,-2.0670831E-1,8.3362824E-1,-2.89931E-1,2.844235E-1,1.6907558E-1,1.2727705E0,-2.014016E-1,-2.9077485E-1,4.7163838E-1,-2.9025352E-1,1.0121646E0,1.0336228E-1,6.0612106E-1,-2.000598E-1,5.385948E-1,-2.8846833E-1,-2.9039493E-1,8.5349E-2,1.679417E0,7.528108E-1,-2.8869268E-1,4.5166335E-1,-2.9006192E-1,2.0777759E-1,2.1801075E-1,-2.892405E-1,6.6497177E-1,1.3971093E0,-2.8920588E-1,1.1342057E0,1.0422478E0,1.2685879E-1,4.2165756E-1,-2.8841242E-1],"categories":[],"categories_nodes":[],"categories_segments":[],"categories_sizes":[],"default_left":[0,0,0,0,0,0,0,0,0,0,0,0,0,0,0,0,0,0,0,0,0,0,0,0,0,0,0,0,0,0,0,0,0,0,0,0,0,0,0,0,0,0,0,0,0,0,0,0,0,0,0,0,0,0,0,0,0,0,0,0,0,0,0,0,0,0,0,0,0,0,0,0,0,0,0,0,0,0,0,0,0,0,0,0,0,0,0,0,0,0,0],"id":17,"left_children":[1,3,5,7,9,-1,11,13,-1,15,17,-1,19,21,23,-1,25,-1,-1,27,-1,29,31,33,-1,35,-1,37,-1,-1,39,41,43,45,-1,-1,-1,-1,-1,47,-1,49,-1,51,53,55,57,-1,-1,-1,59,-1,61,-1,63,-1,-1,65,67,-1,69,71,-1,73,-1,-1,-1,75,77,-1,79,-1,-1,-1,81,83,85,-1,-1,-1,-1,-1,-1,-1,-1,-1,87,-1,89,-1,-1],"loss_changes":[2.4445857E3,4.24069E2,1.2392736E4,1.8676311E3,7.513165E1,0E0,2.2230732E3,5.2477655E2,0E0,1.1917358E1,1.222994E2,0E0,3.0995886E2,1.2589786E2,3.6797528E2,0E0,2.745662E1,0E0,0E0,3.010878E2,0E0,2.7833295E2,1.00096954E2,3.953087E2,0E0,1.975725E1,0E0,3.905591E2,0E0,0E0,3.2934424E2,9.003534E1,2.7847702E2,1.8593988E2,0E0,0E0,0E0,0E0,0E0,7.5837097E0,0E0,1.6415656E2,0E0,3.1818845E2,1.19551895E2,9.649617E2,3.4795724E2,0E0,0E0,0E0,1.1957815E2,0E0,3.8971002E2,0E0,4.5986084E1,0E0,0E0,1.4945921E2,1.4928644E2,0E0,2.7372733E2,1.1324029E2,0E0,8.094125E1,0E0,0E0,0E0,1.5805109E2,1.00370094E2,0E0,8.115422E1,0E0,0E0,0E0,8.6662315E1,1.0050134E2,3.2338977E2,0E0,0E0,0E0,0E0,0E0,0E0,0E0,0E0,0E0,3.81945E2,0E0,8.937652E1,0E0,0E0],"parents":[2147483647,0,0,1,1,2,2,3,3,4,4,6,6,7,7,9,9,10,10,12,12,13,13,14,14,16,16,19,19,21,21,22,22,23,23,25,25,27,27,30,30,31,31,32,32,33,33,39,39,41,41,43,43,44,44,45,45,46,46,50,50,52,52,54,54,57,57,58,58,60,60,61,61,63,63,67,67,68,68,70,70,74,74,75,75,76,76,86,86,88,88],"right_children":[2,4,6,8,10,-1,12,14,-1,16,18,-1,20,22,24,-1,26,-1,-1,28,-1,30,32,34,-1,36,-1,38,-1,-1,40,42,44,46,-1,-1,-1,-1,-1,48,-1,50,-1,52,54,56,58,-1,-1,-1,60,-1,62,-1,64,-1,-1,66,68,-1,70,72,-1,74,-1,-1,-1,76,78,-1,80,-1,-1,-1,82,84,86,-1,-1,-1,-1,-1,-1,-1,-1,-1,88,-1,90,-1,-1],"split_conditions":[8E1,4.6E1,8.1E1,4.544876E0,7.5E1,5.0131297E0,4.3294234E0,4.1071563E0,2.0262482E0,4.482123E0,4.726503E0,2.0502884E0,1.02E2,3.5383105E0,4.3E1,-2.9096407E-1,5.9E1,-2.8877994E-1,5.5011714E-1,1E0,-2.907711E-1,2.2E1,3.9434652E0,4.3457136E0,-2.904529E-1,4.7102814E0,-2.9065788E-1,4.666316E0,1.006838E0,-2.9031792E-1,2.5E1,2.7E1,3.9788501E0,3.1E1,-2.90235E-1,-3.225712E-2,-2.8891647E-1,7.9577786E-1,-2.9026082E-1,2.4E1,-2.893601E-1,2.4E1,-2.9095298E-1,3.1E1,2.6E1,4.1842504E0,3.5E1,7.265062E-1,5.243547E-1,-2.9077455E-1,3.6302752E0,-2.8959805E-1,3.96772E0,3.7381107E-1,3.4E1,-2.8839037E-1,2.1286259E0,4.1504107E0,1E0,-2.89931E-1,3.7267375E0,3.5E1,1.2727705E0,3.1E1,-2.9077485E-1,4.7163838E-1,-2.9025352E-1,3.7E1,4.231487E0,6.0612106E-1,1E0,5.385948E-1,-2.8846833E-1,-2.9039493E-1,4.0715814E0,3.6E1,4.1752734E0,-2.8869268E-1,4.5166335E-1,-2.9006192E-1,2.0777759E-1,2.1801075E-1,-2.892405E-1,6.6497177E-1,1.3971093E0,-2.8920588E-1,4.2554846E0,1.0422478E0,4.292137E0,4.2165756E-1,-2.8841242E-1],"split_indices":[2,2,2,0,2,0,0,0,0,0,0,0,2,0,2,0,2,0,0,11,0,2,0,0,0,0,0,0,0,0,2,2,0,2,0,0,0,0,0,2,0,2,0,2,2,0,2,0,0,0,0,0,0,0,2,0,0,0,11,0,0,2,0,2,0,0,0,2,0,0,11,0,0,0,0,2,0,0,0,0,0,0,0,0,0,0,0,0,0,0,0],"split_type":[0,0,0,0,0,0,0,0,0,0,0,0,0,0,0,0,0,0,0,0,0,0,0,0,0,0,0,0,0,0,0,0,0,0,0,0,0,0,0,0,0,0,0,0,0,0,0,0,0,0,0,0,0,0,0,0,0,0,0,0,0,0,0,0,0,0,0,0,0,0,0,0,0,0,0,0,0,0,0,0,0,0,0,0,0,0,0,0,0,0,0],"sum_hessian":[1.5239783E4,1.3393351E4,1.8464323E3,9.892571E3,3.5007795E3,1.7676886E2,1.6696635E3,9.7578545E3,1.3471686E2,3.2834316E3,2.1734778E2,1.6687315E2,1.5027903E3,7.1761343E3,2.5817205E3,2.185723E3,1.0977086E3,1.2462133E2,9.272645E1,6.111304E2,8.9165985E2,8.6567505E2,6.310459E3,2.130909E3,4.5081152E2,4.3609235E2,6.6161633E2,4.908632E2,1.20267204E2,3.7254028E2,4.931348E2,3.8666147E3,2.4438442E3,1.7942842E3,3.3662473E2,3.036052E2,1.3248717E2,1.4381606E2,3.4704712E2,3.2655576E2,1.6657903E2,1.8490214E3,2.0175934E3,5.46808E2,1.8970363E3,2.0305238E2,1.5912317E3,2.3086824E2,9.568753E1,9.0120306E2,9.4781836E2,1.9317311E2,3.5363486E2,1.1757881E2,1.7794574E3,1.0654126E2,9.651112E1,4.464106E2,1.1448212E3,2.4861636E2,6.9920197E2,2.0375899E2,1.4987587E2,8.7746814E2,9.019893E2,1.0237007E2,3.4404053E2,9.196081E2,2.2521306E2,2.619794E2,4.372226E2,9.4028076E1,1.0973091E2,4.1352332E2,4.639448E2,2.5586253E2,6.6374554E2,1.2006305E2,1.0515E2,2.8017886E2,1.5704373E2,3.0816226E2,1.5578255E2,1.636293E2,9.223324E1,1.529121E2,5.1083344E2,2.9378925E2,2.1704419E2,1.0961874E2,1.0742546E2],"tree_param":{"num_deleted":"0","num_feature":"1262","num_nodes":"91","size_leaf_vector":"1"}},{"base_weights":[1.3198594E-2,-3.557134E-1,5.478823E-1,-4.0473795E-1,-8.3772495E-2,7.9794306E-1,-2.9084915E-1,-4.2186722E-1,2.22684E-1,-3.479691E-1,3.6009833E-1,-2.5442484E-1,1.1003808E0,-4.384844E-1,-6.0919024E-2,5.4127187E-1,-2.8826472E-1,-3.39384E-2,-2.9057097E-1,1.2757351E0,-1.5132204E-1,-3.7381688E-1,4.4879368E-1,-2.9887894E-1,1.3916537E0,-3.812678E-1,-2.9099482E-1,2.5118777E-1,-2.8941444E-1,-2.8916448E-1,2.3640399E-1,2.2017604E-1,-2.8989917E-1,-2.9056028E-1,-2.0061524E-1,-2.905063E-1,1.7207196E-1,1.1103153E0,3.0808036E0,-4.1377282E-1,4.0793136E-1,1.7626427E-1,-2.899479E-1,1.6121569E0,-3.142547E-1,2.0419347E0,2.7169538E0,-4.4092205E-1,-2.0329624E-1,-2.8850698E-1,5.1082015E-1,1.8783014E0,-2.8982088E-1,-2.905404E-1,1.2775029E-1,1.4862875E0,4.9993858E-1,-2.9096666E-1,-3.1073666E-1,5.452322E-2,-2.8983164E-1,2.1402884E0,1.6708609E0,-1.7154962E-1,-2.9057902E-1,-2.887448E-1,1.8471532E0,-2.899688E-1,-1.16958115E-2,1.4453396E0,2.2489016E0,2.795932E0,8.512367E-1,5.45654E-1,3.0693688E0,7.044204E-2,1.9310424E0,3.1565902E0,2.1297274E0,5.1322764E-1,-2.9012987E-1,5.267032E-1,2.1602046E0],"categories":[],"categories_nodes":[],"categories_segments":[],"categories_sizes":[],"default_left":[0,0,0,0,0,0,0,0,0,0,0,0,0,0,0,0,0,0,0,0,0,0,0,0,0,0,0,0,0,0,0,0,0,0,0,0,0,0,0,0,0,0,0,0,0,0,0,0,0,0,0,0,0,0,0,0,0,0,0,0,0,0,0,0,0,0,0,0,0,0,0,0,0,0,0,0,0,0,0,0,0,0,0],"id":18,"left_children":[1,3,5,7,9,11,-1,13,15,17,19,21,23,25,27,-1,-1,29,-1,-1,31,33,-1,35,37,39,-1,-1,-1,-1,-1,-1,-1,-1,41,-1,-1,43,45,47,-1,49,-1,51,53,55,-1,57,59,-1,-1,61,-1,-1,-1,-1,-1,-1,63,-1,-1,-1,65,67,-1,-1,69,-1,-1,71,73,-1,75,-1,77,79,-1,-1,81,-1,-1,-1,-1],"loss_changes":[2.9941614E3,1.1971387E2,1.6605312E3,8.1880005E1,1.611593E2,1.5995676E3,0E0,4.440625E1,1.1351801E2,4.7288445E1,5.080085E2,1.426316E2,1.5912793E3,3.4299316E1,7.741195E1,0E0,0E0,6.929662E1,0E0,0E0,8.265185E1,2.5958801E1,0E0,9.1889725E1,1.5320098E3,1.5398743E2,0E0,0E0,0E0,0E0,0E0,0E0,0E0,0E0,5.680796E1,0E0,0E0,1.9816816E3,8.554971E2,2.3451843E1,0E0,1.1224916E2,0E0,1.1648018E3,8.213915E1,2.1027185E2,0E0,3.9092712E1,4.537719E1,0E0,0E0,7.39437E2,0E0,0E0,0E0,0E0,0E0,0E0,4.1815063E1,0E0,0E0,0E0,6.384238E2,4.523774E1,0E0,0E0,2.4341895E2,0E0,0E0,1.629145E3,7.894275E2,0E0,1.3496389E3,0E0,1.1217554E3,2.576893E2,0E0,0E0,7.056339E2,0E0,0E0,0E0,0E0],"parents":[2147483647,0,0,1,1,2,2,3,3,4,4,5,5,7,7,8,8,9,9,10,10,11,11,12,12,13,13,14,14,17,17,20,20,21,21,23,23,24,24,25,25,34,34,37,37,38,38,39,39,41,41,43,43,44,44,45,45,47,47,48,48,51,51,58,58,62,62,63,63,66,66,69,69,70,70,72,72,74,74,75,75,78,78],"right_children":[2,4,6,8,10,12,-1,14,16,18,20,22,24,26,28,-1,-1,30,-1,-1,32,34,-1,36,38,40,-1,-1,-1,-1,-1,-1,-1,-1,42,-1,-1,44,46,48,-1,50,-1,52,54,56,-1,58,60,-1,-1,62,-1,-1,-1,-1,-1,-1,64,-1,-1,-1,66,68,-1,-1,70,-1,-1,72,74,-1,76,-1,78,80,-1,-1,82,-1,-1,-1,-1],"split_conditions":[1.5E1,1E0,4.8E1,1E0,3E0,2E0,-2.9084915E-1,1.4E1,3E0,1E0,2E0,1E0,2E0,6E0,4E0,5.4127187E-1,